2.015354293476102811e-03,9.314922999673633588e-03,8.145612363364307384e-03,8.878277338813139394e-03,9.174840544676191381e-03,6.419930358586524097e-03,4.226768171970035973e-03,7.666821361931578337e-03,6.327060587420647517e-03,8.313802262911375307e-03
2.133329529023164899e-03,1.368222826291249934e-03,1.386876269551729022e-03,7.339203539743167568e-03,7.942396811665936723e-03,8.473779975021968405e-03,5.342203339627022048e-03,7.693472006211690695e-03,5.641479348022191385e-03,6.571289245168351889e-03
1.496558424671116244e-03,7.431679757080682930e-03,8.358910251070324898e-03,3.858077409736513502e-03,7.241101193124066873e-03,7.650420163172747673e-03,7.909859465469040035e-03,6.969181143725256163e-03,4.490821085442531289e-04,5.108558779556389082e-03
8.313920915660169900e-03,5.439439941725595848e-03,7.766400186269568039e-03,8.169547685602952108e-04,5.457735464032972654e-03,4.709531104779803197e-03,5.561652885932890679e-03,4.681344565274299201e-03,6.489791187108327926e-03,3.197823214219551631e-03
2.067013327687994392e-04,8.381523498828216678e-03,7.099946751599582259e-03,8.820659404117634980e-03,6.715574197782556154e-03,5.373512264264767831e-04,4.353882122445137254e-03,3.846986681431563567e-04,4.887749924196121802e-03,3.734219599027601821e-03
6.650452715190281403e-03,7.938471378830077446e-03,9.353626400515868385e-04,7.811122666635464916e-03,5.584985300255991721e-03,6.970625984236101733e-03,4.768129367861105583e-03,3.940863073800810260e-03,1.376562623291109925e-03,3.569244182880977351e-03
2.040921760932395881e-03,8.478948116185073755e-03,8.175267762927550946e-03,9.466384848765945978e-03,9.722923767004966120e-03,2.017114334307346156e-04,1.437245754864679905e-04,5.806824137159483350e-04,2.562117946843520729e-03,4.073714975638570782e-03
3.546072452756996330e-03,3.798185252403437923e-03,8.801751157075926937e-03,6.265718753617983104e-03,9.122534905366337307e-03,8.889789122091980994e-03,2.417984857952839607e-03,3.870538186811098898e-03,4.354633973065635127e-03,5.940772222657816209e-03
1.393061494602451135e-03,3.862528650828281080e-03,1.853145016974300273e-04,6.633375141758713223e-04,6.681118646160593560e-03,6.079048371517431493e-03,6.966526954476315488e-03,7.043555909353609729e-03,5.029171173758751993e-03,2.525563902852408053e-03
9.072142374558925595e-03,1.991379112076462413e-03,1.476779968907168152e-03,6.607638158660277883e-05,1.192561567795606941e-03,1.680978076715062761e-03,1.746359595436572940e-03,5.322223782025082769e-03,2.506985194917268293e-03,7.836530412754475969e-03
9.504068290038287722e-03,8.016454148203009875e-03,5.149775397692967632e-03,8.818677091770199972e-04,5.591560711142896933e-03,5.515615138638462443e-03,4.861373233024845943e-04,6.836725575084379516e-03,9.801552687742088807e-03,2.526977455399598369e-03
7.207018599473947844e-03,5.642878360060509663e-03,3.839669431010510683e-03,9.502766475895478571e-03,6.727005831084735196e-03,8.000656091965782299e-03,5.235168014541025398e-04,9.924226348100117709e-03,5.738531408233605614e-03,9.453682265042333277e-03
4.092945689934636075e-03,9.810457391905398616e-03,1.641333176103184147e-03,3.347964889768923619e-03,2.979615598286491657e-03,9.389185355481860507e-03,6.749358601228684466e-03,5.523164074748752005e-04,5.448801358182837201e-03,1.760909433216163635e-03
8.567427921901181118e-03,1.694437331663826204e-03,5.350116017194130047e-03,8.062199415538765651e-03,-2.491929210320562114e-03,6.553764928697272847e-03,8.789054027751482673e-03,3.280191132793581696e-03,7.382014461537213072e-03,8.183934215982244589e-03
7.189979993940476787e-03,9.476089402129126912e-03,2.602288294333649377e-03,8.944328773185451081e-03,6.447688257284845369e-03,4.106117737995143352e-04,7.564188114295026036e-03,9.584451320012002049e-03,6.754743391790701997e-03,3.065110246761797424e-03
7.155987045234023930e-03,6.435748724447491395e-03,1.010792785288676257e-03,9.526053331866663962e-03,7.975389539603246897e-03,1.933274686605359390e-03,5.468530240871738446e-03,5.785730017752003206e-03,1.579835306137805997e-03,1.638996959351319725e-03
5.293956975913552930e-03,4.442712396474709537e-03,2.393123500894031152e-03,2.044659355280900072e-03,3.500515191158071302e-04,2.551703502288293749e-04,1.336147454826646166e-03,7.451422122621777396e-03,4.237599370288236259e-04,5.476790293304114980e-03
8.079779286954085968e-03,2.637607966243959881e-04,3.979299126998315020e-03,3.204435155767654253e-03,9.449066494633916180e-03,7.618111041785355884e-03,3.568964506787487834e-03,7.545893965379701657e-04,8.945953069341061516e-04,5.194438846470655728e-03
6.178506186069544596e-03,4.861457352466585884e-03,6.573609140962582108e-03,6.326461770639823894e-03,3.629355639432546750e-03,3.029606145362719917e-03,5.615608223688163710e-03,7.167546056620708456e-03,5.904682161754765471e-03,2.370607406327751717e-04
1.849847738345728040e-03,7.656476301766978326e-03,2.255026640293706763e-03,5.432743931648212864e-03,9.480243924205235956e-03,1.493269053933437120e-03,4.156103071733956850e-03,1.223301732200752275e-03,1.948337615347254343e-03,3.506136820811617434e-03
8.928939014153043641e-03,7.937975444129672167e-03,7.675155238047093233e-04,8.119819125077335983e-03,6.477308795147507497e-04,6.559153303712961540e-04,5.896331539906210333e-03,3.220795844987034699e-04,4.053833013409407007e-03,9.696634190802034745e-03
3.539783837962964114e-03,1.798093537762013262e-03,3.885101971428063170e-03,1.965133507060188526e-03,2.788181446529367554e-03,8.697046523109394286e-03,8.708921155042202711e-03,7.472826832006162004e-03,3.289624689476071829e-03,9.773466018401153615e-03
7.158846973444954812e-04,1.748397691181947673e-03,3.906735225435982103e-03,3.869140212744588518e-03,8.809690415408293063e-03,5.078635452587241736e-03,4.917177363183278596e-03,7.788756677902028761e-03,8.060387598573685863e-03,9.606601549952024227e-03
4.799251488651143892e-03,3.787387799005634791e-03,9.919952982287935997e-03,2.970421865172840920e-03,8.258177747685190029e-03,3.468853240843946389e-03,1.071832894709756661e-04,3.496185655176966677e-03,2.587768838549175899e-04,9.743464590413395549e-03
2.246467255902754537e-03,1.477356485653984457e-03,5.704927106431202655e-03,2.327489478122380957e-03,7.183466136615730344e-03,8.990108941305985542e-04,8.661787361528632337e-03,2.680864554725226616e-04,6.310768528168424381e-03,9.081196414733747058e-03
9.758539093066188538e-03,6.747962618102435264e-03,3.144410001613752361e-03,9.712377683757322799e-03,2.814854852334691747e-04,1.456756060331230269e-03,1.004140434350618777e-03,9.082008099856776415e-03,4.834920089096245502e-03,1.538220807601963251e-03
3.972171271460255351e-03,6.413544382912294943e-04,7.150436775623028075e-03,9.436230312469933920e-03,8.040919541717032881e-03,3.917386402258696103e-03,6.451314535415333257e-03,1.187238671549738526e-03,6.946189751330020951e-03,7.945414414148395735e-03
8.606816317586868034e-03,1.106324660238385774e-03,8.574287042823492896e-03,8.206966135242660387e-03,6.616067124893712341e-03,6.004200118235646436e-03,6.443137143126696081e-03,8.541233209606457913e-04,6.561649408872763899e-03,7.450281941791311174e-03
6.382878077061710995e-03,9.242850383402745687e-03,9.135598984329873886e-04,6.386758227153146311e-03,4.773732717684829249e-03,3.202183332746894213e-03,5.201122268768276595e-03,3.343701103485834623e-03,3.339076585507694451e-05,8.707178505423454271e-03
9.368145901270441556e-03,4.714989671130684172e-03,5.634929626554310497e-03,2.773352886180044038e-03,3.886393268260012433e-03,9.323173316433936916e-03,9.857754923683223480e-03,6.612402912553050349e-04,6.520219977726570554e-03,4.703986121843905903e-03
8.062903360442743098e-03,2.265714974367655406e-03,6.827769031966121616e-03,1.851541730708827814e-03,5.446435605197210393e-03,2.377405371501084476e-04,2.645644266040659935e-03,9.106283477135480170e-03,2.710339485834193599e-03,5.425145640076044391e-03
6.477696978805880766e-03,6.871919615929394064e-03,2.606089178191550726e-03,1.586233991901404589e-03,6.201526244384776045e-03,7.266364406570846417e-03,6.875606446976457835e-03,8.974531494932583633e-03,1.792542922788496057e-03,7.169922361444325438e-03
7.244376920192177084e-03,7.626490678102442779e-03,8.246658302253018213e-03,8.646683053489822440e-03,8.125205262380662046e-04,9.724918667929121014e-05,8.290217431649206511e-04,5.299946098206879952e-03,1.520237404255946230e-03,2.152421683126143175e-03
3.626844151319372125e-03,4.769542869120017153e-03,4.014633861368433810e-04,2.367939936483769332e-03,1.768589380460481577e-03,4.384760219264465658e-03,1.410125962966942217e-03,9.371482876084589195e-04,4.975970105733820703e-03,4.751696656822541366e-03
3.655746838485482517e-03,2.933877430341990007e-03,1.524531940735669678e-03,5.596143068490783828e-03,-6.858933471811104292e-03,1.889309438030537447e-03,1.753970111316740382e-02,-2.534611246566227229e-05,8.333514888494864686e-04,8.790047789266798237e-03
6.942871672287735663e-03,6.917736199035705302e-03,9.767396909428612082e-04,2.150258179827086325e-03,-2.292499893925606033e-02,5.670634049228448492e-03,3.776759230804271894e-02,6.835338654805050290e-03,2.659407649227984224e-03,8.561990536826618106e-03
5.223830120654123464e-03,7.671534916611735984e-03,2.153191863709445156e-03,4.753255814898255278e-03,-2.161469392939085327e-02,1.477806222800331915e-03,3.829738149727033442e-02,-1.023983720779167482e-03,1.861699864551304975e-03,6.213354426643237158e-03
5.757798619375493338e-03,6.948672783235405707e-03,-2.312981087563742259e-03,8.340099184257307452e-03,-1.416427210738200639e-02,5.059500723854128308e-03,3.175886388366309238e-02,6.222378150344669637e-03,2.523461107326557210e-03,4.839100731040050368e-03
-9.253022443354226882e-04,1.589750807201562120e-03,-5.151678921765074672e-03,6.634105725147068644e-03,-1.736583837457314136e-02,1.617709955142725706e-03,4.016644022425618771e-02,4.792869771546872347e-03,1.529310206819245411e-03,4.326800733958435265e-03
1.510614753045380620e-02,1.581552716700654945e-03,1.890870405477366371e-04,-1.067505620913356950e-04,-2.016320428340754450e-02,3.303659260525359555e-03,4.896652557293716679e-02,1.615883646771371735e-04,4.431443878275549697e-03,2.184704203656630608e-03
1.790111541651852670e-02,6.795350687376724465e-03,-4.198357659089482427e-03,4.076923035038132644e-03,-3.894749149080747874e-02,4.834661702630717144e-03,6.303147606496131705e-02,-7.795872990488579742e-03,8.175845803729112071e-03,5.049028142554750666e-03
1.063486859914385997e-02,4.188082813460963826e-04,-5.622073365127213188e-03,7.070568249466033066e-03,-3.697423849163406634e-02,-3.452694802772416326e-04,5.329148678289859220e-02,-4.364492847250890412e-04,8.100201573683843068e-03,5.812924732742010860e-03
4.811643609740165473e-03,1.769645872447390619e-02,8.404182543230479321e-03,6.710128208782106286e-03,-1.972879566212826577e-02,1.048576016923022077e-03,2.474195536584639435e-02,3.975425339865369667e-03,5.362664057133176287e-03,2.644281436076400312e-03
1.285819334878600395e-02,1.868402962019473368e-02,2.285782128053710782e-02,2.349341375285537038e-03,-3.601017485379757327e-02,2.350977698379717526e-03,2.262154104604661986e-02,5.268529601574450938e-03,6.129497806644694860e-03,7.121193439051709323e-04
1.548664007070276773e-02,3.789158211806219201e-03,4.805630047034224056e-02,5.210589540574885915e-03,-4.266494198398338572e-02,7.447698356115418396e-03,1.094255348309763724e-02,5.634834976195529817e-03,5.423570700073250192e-03,-1.012750947039345317e-02
1.332834110343619413e-02,6.550568104856498153e-03,7.445478533544279453e-04,7.288426539166875618e-04,-1.243217169454407384e-02,2.339248086876776107e-03,1.727582139483429743e-02,1.095712522071963339e-03,5.674797707527824177e-04,3.382476834410270625e-03
8.984015013586634998e-03,5.390450483771101926e-03,2.356652787637188856e-03,7.109113713666703228e-03,-1.996101578629111330e-03,5.645885269498759039e-03,2.469786282578844555e-02,7.844923118487326028e-03,4.276427039133404162e-03,5.373206208789975055e-03
2.409420520261280028e-03,4.924301372923132331e-04,-4.207961245845988178e-03,3.246365545317153167e-03,-6.351981127488116018e-03,2.838811724011495400e-03,2.665891933003210548e-02,1.334636318673926812e-03,4.770605346910427279e-03,7.092154029445013955e-03
8.613048182861200025e-03,6.548157222793127459e-03,-3.340919711112899822e-03,5.885042080843051054e-03,-6.613690519667098609e-03,8.596983244469587684e-03,2.168574577801986314e-02,1.411587217391535283e-03,2.548777403380044111e-03,2.140766896233044919e-03
7.264776394764501169e-03,2.098695713736104321e-03,1.595066382174479581e-03,6.134988200752140679e-03,-7.959075888668546220e-03,8.148840208707991070e-03,2.198637239022739956e-02,3.081418991164475846e-03,1.689129971570309382e-03,6.446716428454060330e-03
9.092984331013836269e-03,9.483786122294028545e-04,4.998358615309450581e-03,2.155023091321792844e-03,-4.809286698408305437e-03,5.082844440854642279e-03,1.793620570735583730e-02,2.418927620197169198e-03,2.351109757881629080e-03,3.544277098788823233e-03
6.866802392707785536e-03,2.525064034047675744e-03,9.284020893343611358e-03,4.478578615603042920e-03,-1.708617470155879888e-03,3.379534784622956461e-03,1.291361310245521532e-02,8.365894079312027887e-03,4.316774348158875538e-05,2.726619134455857477e-03
4.574809127216247079e-03,9.662526208211844742e-03,8.395642217657890011e-03,6.059147864022961655e-03,1.964948073508382322e-03,4.750504390598327999e-03,4.770383670273381505e-04,8.554247910950045497e-03,6.524950043373310866e-03,8.926239215078224636e-04
4.557404304931712835e-03,8.776222649057970754e-03,6.663264707458608528e-03,2.295126183819686666e-03,7.282786866676716798e-03,4.783543864517594141e-03,4.824912405123802338e-03,9.992177860917213911e-03,7.950804533269512434e-03,9.669063183199469794e-03
3.878125401745564828e-03,3.382637737125438051e-05,9.918582733192977258e-03,3.712738067823764115e-03,2.003162012622277093e-03,9.557799816519730804e-03,4.154689253639256771e-03,1.195822171617496720e-03,6.320009380727358191e-03,4.684249695057669978e-03
6.235436352107498990e-03,7.862011671020640441e-03,8.890538931744912041e-03,1.908806048514002365e-03,3.581871608945505058e-03,4.098309853248524419e-03,8.632224687107723990e-03,5.470576981277643774e-03,4.669275177987714485e-03,7.405352241045562445e-03
7.685803401746566302e-03,1.694337441282332043e-03,9.736053131568521424e-03,3.349132986421119590e-03,7.951960554794405833e-03,1.690924110764446939e-04,6.942163162754814293e-03,9.023915185418283566e-03,3.403509289730100029e-03,7.626817403383607044e-03
9.243074869702105466e-05,7.184238808075562970e-03,1.658865173402455191e-03,1.639237991152202615e-03,2.664560057777507450e-03,4.498559121274816643e-03,9.521208675542021382e-03,8.407956449900373316e-03,8.785940841272535037e-03,6.721169240751632967e-03
1.536538801353124102e-03,2.762344969517893490e-05,3.892103008066279037e-03,2.422187623691397264e-03,8.315016903543848842e-04,2.790573089873044739e-04,9.925748525003989797e-03,4.955045051726512766e-03,1.320916689913448306e-03,6.924149843950030622e-03
4.867697159764970173e-03,3.576623648513096217e-03,4.624086615283261315e-03,9.483265758321174355e-03,7.385066976769455872e-05,5.978680599731289041e-03,2.852245844206472737e-03,9.092762766921336226e-03,9.734925102156075441e-03,6.159731644037203663e-03
1.158749816268145241e-03,6.919042825647546240e-03,5.865481456199904756e-03,8.420049602097431571e-03,3.751562421384418630e-03,5.174790043085041903e-03,2.413348661693899382e-03,4.324506746287229593e-03,1.751882124332899840e-03,7.249862249567431104e-03
2.949223669806344452e-04,2.230172458248914392e-03,4.122293460588146580e-03,7.408615495268235616e-03,5.054764066003065645e-03,1.885471056221698846e-03,8.225220396371964214e-04,7.418782363435805390e-03,5.717022599893446973e-03,2.497805162247033594e-03
5.132115070587083515e-03,3.466078685818029578e-03,1.438293355234321986e-03,9.610046494978607273e-03,-5.843244016655704635e-03,6.949264261892738534e-03,2.887969997050082727e-02,9.194266969319585953e-03,2.424646198066872285e-03,7.970363672599177149e-03
-1.522155541098954784e-03,8.249428087620979538e-03,4.384159856111707020e-03,2.178619353904327413e-03,-4.007616402600711752e-02,8.222836550311147857e-04,5.787307298543038075e-02,-4.866301563155600997e-04,2.275529674645350095e-03,8.812482355329130657e-03
-3.796584313007310592e-03,-7.264719545034175122e-03,2.424389184923897694e-03,3.442357802977673124e-03,-5.439198986512507050e-02,3.352971070256655257e-03,9.125599107260608245e-02,-2.136181983530040414e-03,-1.111123017751799048e-03,7.216007688111395965e-03
-4.817338672245321043e-03,-1.051458899601397622e-02,2.718700092684350061e-02,-7.727419356163624763e-03,-5.281650819510254335e-02,4.202568317113100811e-03,9.930919949799911495e-02,-4.307014975844096136e-03,1.748637782289214028e-03,1.875034705965369149e-04
-7.243959846035182351e-03,-1.024494332142670064e-02,2.158674787061665157e-02,-4.933648986665420053e-03,-1.057386092474114914e-01,-8.584771725891175015e-03,1.743664742739056694e-01,1.961059064667943874e-04,-9.741747066692648185e-03,-2.111494571366720214e-03
-1.233911315067363727e-02,-1.381866939601894204e-02,3.945303300283141412e-02,9.770697160717304111e-03,-1.052951825671447766e-01,-1.965987663104140290e-02,1.706324222838903615e-01,-9.542338328869430855e-03,-7.334666758194018955e-03,-2.117944178547588683e-03
-8.701104362973707818e-03,7.895902461600497191e-03,4.965947850858555557e-02,1.703972133050495746e-02,-1.435070321726290010e-01,-3.108704361696450202e-02,2.093666288024272626e-01,-8.198195870078891015e-03,-2.005946568655922815e-02,-6.455822927054108776e-03
-2.669749507710071287e-02,4.529693340384361583e-02,4.962819792819333359e-02,2.602517543727717736e-03,-1.545603771887135991e-01,-3.689467249594221426e-02,2.062457847902272601e-01,-8.153971615898087180e-03,-1.908611947970701925e-02,-2.005452302541246498e-02
-4.645814059914256389e-02,4.710466605570791387e-02,5.975089064703414249e-02,-3.113040359100075274e-03,-1.243174092612127357e-01,-4.393366263003978256e-02,2.059686913967365141e-01,-4.046937625142642964e-03,-2.982956138061221632e-02,-1.350349869822881424e-02
-5.173222139609637976e-02,8.559226496917832216e-02,6.246500935179475494e-02,-1.563218734498571239e-02,-1.231991043190571455e-01,-3.710156611010906325e-02,1.665018282906206293e-01,-1.116770640546179902e-02,-3.024538684171031860e-02,-1.853420861243696566e-02
-3.544165474019258383e-02,5.712249099759937609e-02,6.439221108387793713e-02,-8.400490580710935976e-03,-1.229301977833241466e-01,-1.032791389689486673e-02,1.602148395574381212e-01,-4.162625960681233875e-03,-2.953890744733336793e-02,-2.300502486551959241e-02
-3.413506419753812443e-02,9.694036643686459662e-03,4.395331562775533357e-03,-7.393320152559282148e-03,-6.584374188549947660e-02,1.206008402529735318e-02,1.565230295252519610e-01,3.057188305100989791e-03,-2.024758812420087567e-02,-1.788888162364410048e-02
-2.775393090889554173e-02,4.185087989226080052e-03,-2.901142611595187298e-02,-1.144568259137336043e-02,-4.590868206853353922e-02,1.025379071063588048e-02,1.578233814303105498e-01,3.828753513055039269e-03,-8.715060212278925508e-03,-4.544007403279945977e-03
-1.567136794541119579e-02,3.657256422935788176e-03,-4.231554062372672870e-02,-3.775356781618794972e-03,-2.777397757803018105e-02,4.940121133003032641e-03,1.447049381452192862e-01,7.389242712591205520e-03,-1.790571675636294657e-02,-1.286081590796597091e-03
-1.399895288765899866e-02,-3.536996226510953807e-03,-2.006992327163865247e-02,3.990159718154985850e-04,-1.309813243793497839e-02,-2.261963333395531836e-02,1.085513442393480910e-01,2.281872090815543781e-03,-6.530090595390060718e-03,-3.192289958015905819e-03
-1.524872239999857043e-03,-1.681542541220623285e-03,-2.004424834997943494e-02,-1.677926826728677427e-03,-4.044788601148425859e-03,-1.735564661979742407e-02,8.710980852712127409e-02,8.972397735043559017e-03,-3.433127467660077557e-03,1.294319574031414571e-03
4.627832707861590650e-03,2.939578188850570147e-03,-1.581311923980387169e-02,7.188503839197147270e-03,-8.294017592899122909e-03,-1.276384360538538676e-03,6.622998065240699728e-02,3.917854487707408441e-03,1.290151619108885483e-03,1.149290432715884686e-03
9.218598754382892411e-05,5.321933280366213798e-03,2.563907727515977834e-03,8.253090122099612791e-03,-7.812438032611222641e-04,-3.335041497767383695e-03,2.985944699366376714e-02,5.697318579486704976e-03,5.169329895849694191e-03,3.626032425936985288e-03
3.191123125903849549e-03,5.238148335282471688e-03,9.649050344364668019e-03,5.015143623522440829e-03,3.965587168025023167e-03,-6.381022001936715194e-04,3.333175653024065773e-04,5.072625288834678274e-03,4.907688935893356197e-03,3.267109672531033713e-04
8.339023625050501903e-03,1.753881379673225905e-03,1.130066039692018652e-02,8.444346582805689269e-03,8.695510155825396034e-03,2.831507728093752424e-03,-6.040527821017887752e-03,8.617083455601763989e-03,8.834475323551825576e-03,7.778115357772316055e-04
1.039803087691663127e-03,1.940581233582876599e-03,1.637440341729107240e-03,8.542042854176508729e-03,2.669788238174797355e-03,8.797330705669416037e-03,3.359594342682027321e-03,7.479793662884912098e-03,9.160410240773276223e-04,8.185982571696082252e-04
6.266601567915536762e-03,9.776766243477633123e-03,1.251143773788138082e-03,7.731531881679917263e-03,8.025227863575314785e-03,6.530413018909470881e-03,5.552274097094963418e-03,6.563350662110453183e-03,9.980851567350755571e-03,7.731865496897661998e-03
4.908468695562965764e-03,4.969353039028815908e-03,6.836634308009691824e-03,2.794428494662426748e-03,8.133362642102629630e-03,6.209050188479395098e-03,1.213075989659770891e-03,5.519382394452031562e-03,1.638055576948489441e-03,3.930053555659058021e-03
3.288216658054406161e-03,8.436346833733218697e-03,6.004792578326302761e-03,1.190607937799949018e-03,9.202113335298222827e-03,3.966384932950576050e-03,8.353971956439344357e-03,6.007220797752669227e-03,2.871173634253519798e-03,1.420564821391324777e-03
9.405278513390406131e-03,8.798301116296210200e-03,8.974121902176600621e-03,3.951978183433799488e-03,7.294162802650822411e-03,8.754464652569354452e-03,7.862415673727798579e-03,5.552308628714624356e-03,5.919100556069449223e-03,2.489580580388094273e-03
3.317985228082285121e-03,7.184727988944432549e-03,2.413608748252733891e-03,4.963835206347098905e-03,2.727844554151679941e-03,7.345445189068384138e-03,2.193370081094882153e-03,4.215717725706266683e-03,1.241701624267860715e-03,7.767234572919495296e-03
1.289009989450467988e-03,1.108797054264339891e-03,1.437146023559792178e-03,8.504109167013338202e-03,4.171597779820756559e-03,4.340530693173228448e-03,7.750683188698050639e-03,2.268480913540003429e-03,7.752197811898890734e-03,3.580194693666393074e-03
-9.112867693437380623e-03,3.439884950600046419e-03,6.696443717613785726e-04,4.002252910107355344e-02,5.308039586288895544e-03,-5.826457388560911908e-03,8.281830716026165884e-03,2.253423070946210770e-03,6.142212970801860100e-03,9.039942923070476422e-03
-1.711762269476472045e-02,-1.298767103788235101e-03,-2.672130237014237763e-04,3.227769641938815076e-02,-1.996223878943088198e-02,-7.557503408071463910e-03,4.487489623834413355e-02,7.404234581087985011e-03,3.750640466808156329e-03,7.669763551555427647e-03
-2.926676136026480288e-02,-8.036818247775575491e-03,2.160243801776605757e-02,4.338263646880038266e-02,-4.299835350372317733e-02,-6.677654096428600229e-03,6.943636510470722889e-02,-6.442801732936427432e-03,-3.952326407905520055e-03,-8.511270466202991176e-04
-7.706982536727538524e-03,-2.831738433714391795e-02,6.709537638761786660e-02,4.634382520180835990e-02,-8.589022764041379099e-02,-1.472450824354108387e-02,8.598682488371199584e-02,-1.685197919084226517e-02,-1.180537308523372207e-02,-1.607503478946048763e-03
-2.418113168297972987e-02,-4.656367403365898466e-02,1.820407875279159149e-01,2.959702807509415404e-02,-1.341917134081249685e-01,-2.981504347606221683e-02,1.251181316960318368e-01,-2.323459134601900053e-02,-1.771669450081708730e-02,-5.321458442219891179e-03
-2.243580848126912330e-02,-7.246635417324623352e-02,2.173755400819281924e-01,5.701670820878979723e-02,-1.822094303586502539e-01,-3.191784338113353575e-02,1.731789079147833255e-01,-3.836975965539989042e-02,-2.837186835449656205e-02,-1.546247846386678525e-02
-1.924065978155864096e-02,-1.050366755020325921e-01,2.605393369849873242e-01,1.348501452463324035e-01,-2.020327545740607522e-01,-6.259948734549676541e-02,1.635306833546213146e-01,-4.870549219648354078e-02,-4.323303510966441249e-02,-3.349276486173844575e-02
-3.597368594612821574e-02,-4.608483430189671409e-02,2.766964308574497711e-01,2.045917081848441788e-01,-2.868279266588684151e-01,-3.964961482879337390e-02,1.444825214411628866e-01,-4.587896348863706314e-02,-5.889728318105721949e-02,-4.470592811054118626e-02
-1.194246873406624651e-02,-2.275593326483562467e-02,2.938027652931352596e-01,1.987785939910683697e-01,-3.728398625374472752e-01,-5.297552493551789532e-02,1.944568538105921895e-01,-4.739227621907378396e-02,-6.771102056841711569e-02,-6.281895551447341797e-02
-2.409666979943618503e-02,-2.414352619807379544e-02,2.222869024494664447e-01,2.670444311390482439e-01,-2.964740825680550196e-01,-4.093103133261237481e-02,1.775000071870724005e-01,-4.576890029468495824e-02,-9.373544188349137996e-02,-8.143322969894552232e-02
-3.197111958785785885e-02,3.934716483624679101e-02,1.451915850094597504e-01,2.292726651796429260e-01,-2.642770573727288297e-01,-2.670969325371582142e-03,1.539799124445061507e-01,-4.446677217091317413e-02,-9.505968897902151993e-02,-9.544442307314605911e-02
-1.825879257947855133e-02,3.461640333665699787e-02,1.647726673745059933e-01,2.117281010053524426e-01,-2.230225179751142706e-01,-1.601879722752841406e-02,1.193176855503500083e-01,-3.772836498126837940e-02,-9.328907622538375188e-02,-8.674046828531091491e-02
-3.344805998339066971e-02,-4.585205403730129720e-02,8.816283280744816042e-02,2.072030135567513309e-01,-1.582466882446655621e-01,1.311589521336673468e-02,1.434845287496309962e-01,-2.796141459457375869e-02,-6.744141089212149498e-02,-6.104782112524160392e-02
-1.173694459746810886e-01,-7.492048029216906435e-02,-6.231252620631590189e-02,1.778650491692633784e-01,-1.014171879676092347e-01,7.531394817052296242e-02,2.350583812036551312e-01,-2.454107100779498105e-02,-2.665004678443854552e-02,-3.261448536781437479e-02
-1.317583038300576825e-01,-5.620544061630511345e-02,-1.023355698441981154e-01,1.105143867244947620e-01,-2.712277524523517072e-02,1.022056492253879123e-01,2.578294013921743066e-01,-1.472783304056595952e-02,-6.462365524716894016e-02,-3.009208363119810631e-02
-9.985559796091704465e-02,-5.148762494519933119e-02,-1.020924442537571586e-01,7.948070221845945915e-02,1.275547915608833856e-02,1.140909507353885105e-01,1.647982188744693821e-01,-1.403581558104220750e-02,-3.082982723422747831e-02,-2.263493066609282428e-02
-9.331410388918835730e-02,-5.607832413473448629e-02,-6.791404246880806961e-02,-1.562655601130062688e-02,2.959057451064178376e-02,1.247427467015176233e-01,1.307282406684737996e-01,-1.837392103992451561e-03,1.446536775040636012e-02,-1.288224020004296450e-02
-5.861311572555736454e-02,-3.508619821314463288e-02,-7.222824791875229189e-02,-4.012586488451140576e-02,2.416245381857878502e-02,9.308370679279474869e-02,1.234404924980876256e-01,-5.423452732058139415e-04,8.256816164269464506e-03,1.832305283181034829e-03
-1.982214781272086460e-02,-1.459260538944419719e-02,-4.926171892964740368e-02,-2.162312101711881193e-02,8.163028126197544726e-03,1.962160654430348053e-02,1.171268101069080081e-01,2.903237812614885456e-03,4.579936362661938404e-03,-6.714674213583699891e-04
-1.150032814193019913e-02,-1.289136948485075998e-02,-8.962377836410479609e-03,2.099980600515017910e-03,-4.628980095151613572e-03,2.274941342571550063e-03,7.429934451129838191e-02,3.324034642452218177e-03,-8.371632074309460006e-03,2.612400956894589532e-05
5.065001938035646085e-03,3.176306237434250914e-03,1.070308758872919909e-02,9.329381387586392974e-03,6.141933819650059224e-03,2.079341162297938805e-02,-8.442207247352351675e-04,7.896187909443777922e-03,2.494736619585150982e-03,9.499529340988502671e-03
6.762576697431066201e-03,2.390093023189639697e-03,3.896437425323267915e-03,6.946029277276256908e-03,9.503047641319617780e-03,9.476916805371785046e-03,1.490807146547402928e-02,8.965461468112164573e-03,1.174429643244024072e-03,4.613077972570369875e-03
1.784086388375263421e-03,6.011952637208295772e-03,5.078267936992631945e-03,2.407382324538312902e-03,3.406606209472778056e-03,1.325469865541929488e-03,1.673083844361083995e-03,8.700330638437690778e-03,1.512647234174868780e-04,8.891054441838330477e-03
1.950020748216485522e-04,5.925007375076530962e-03,5.342543662111518335e-03,5.038366152854942964e-03,8.568312135859961973e-03,5.084203192206616755e-03,4.481039265785900262e-03,7.097404058450463953e-03,7.595507650291213712e-03,7.322441135944538458e-03
9.641271498347115179e-03,7.466548758456209231e-03,5.192951642327377389e-03,5.219542243177434544e-03,4.626924688385651574e-03,6.620348412624690133e-04,8.384375155183362155e-03,8.523322648449755540e-03,3.668584628207604659e-04,3.812305443319743861e-04
8.425649497907814270e-03,7.706504797396445186e-03,3.707419939660391156e-03,6.706046443411555098e-03,6.985428932711055215e-03,5.296397874566927989e-03,2.816699251343911161e-03,6.304403848054991773e-03,8.610563635563653687e-03,8.573070107210343377e-03
3.404361309533491132e-03,8.659196974197482313e-03,4.438104133190981689e-03,1.536491047873813839e-02,1.422857215549636544e-03,-1.285866580149621578e-03,2.854005718646419887e-03,2.419751945913289903e-03,1.862018528553645736e-03,9.205202274034244084e-03
-3.326705808021585952e-03,1.128360823975074582e-02,-7.595702972134453848e-03,2.778719797611609033e-02,1.213329108677106000e-02,-7.872866781349182469e-03,6.068795696954227929e-03,1.447534042861054653e-03,-1.343741184291092879e-03,4.316215396435733181e-03
-2.831668856427429007e-02,2.546826709605907318e-02,4.726670792763550642e-03,1.046644652963533290e-01,2.121063429032135281e-02,-5.348944419732278716e-02,9.840796882113558592e-04,-7.916047863183863637e-03,-6.562992875399876851e-03,4.425084656378511574e-03
-3.031729310188832280e-02,1.352424223613331832e-02,4.269423058304738783e-02,1.382193363020283727e-01,-1.572259627463799131e-02,-7.190133217673465305e-02,6.120096007086214644e-03,-9.902351962124101084e-03,-1.997564084486071548e-02,-4.596618317969767935e-03
-1.851339324154481839e-02,-1.391485553579889685e-02,6.078217244954857434e-02,1.842810446265777391e-01,-2.383453830060157375e-02,-8.811574780132694351e-02,2.749996636438242770e-02,-2.068624595188957999e-02,-3.829764068971791557e-02,-5.922500532205277925e-03
4.803429503780042541e-03,-1.745437411483135443e-02,1.119567894284116960e-01,2.601425926452429205e-01,-9.325800283608247365e-02,-1.666675118838004677e-01,5.510427010228943767e-02,-4.278508613342799083e-02,-2.389839639974597127e-02,-3.316757242495188551e-02
1.442135015759292774e-02,-4.828425703483184978e-02,2.572713008902059451e-01,2.561491743527273268e-01,-1.392146939966394936e-01,-1.668192268143847690e-01,2.447617707068626414e-02,-7.912969889154254644e-02,-1.173015470278940481e-03,-6.010031040183581169e-02
3.092907875003338223e-03,-6.223532290275388124e-02,2.328802384352569865e-01,3.134977839064623795e-01,-2.275240838919818931e-01,-1.105731215957714009e-01,7.349719828809814226e-02,-1.173707485820713187e-01,2.434721901500415397e-02,-8.397445441832458723e-02
3.612524380443978694e-02,-1.070291359654868685e-01,2.391388047346642010e-01,3.501683382257367860e-01,-2.310301273785591025e-01,-1.559130425210541841e-02,-6.927425452440452713e-02,-1.402745352605912765e-01,8.146970845355117063e-02,-1.063684085646762895e-01
-2.566278531458194082e-02,-2.553658313658657697e-02,2.821338673002802278e-01,3.673316279502713555e-01,-2.541560269878874734e-01,-4.777673372891655390e-02,-9.153325067473708221e-02,-1.497986593773445452e-01,1.542058181718438115e-01,-1.591380695784875010e-01
1.049600532258524420e-02,9.513541776661317562e-02,2.064155473569578847e-01,3.919291246325254940e-01,-2.396964210505936610e-01,-1.395700643369017224e-01,-3.690023938430522787e-02,-1.810908043679885782e-01,1.313468219581343799e-01,-2.019725592949566384e-01
-4.045522898895233949e-02,1.067766908431477535e-01,2.163890117555841985e-01,2.904839093942753747e-01,-2.515825596172663325e-01,-9.438295860620527292e-03,-4.792528945732030948e-02,-1.975461364270567066e-01,2.293322213700170475e-01,-2.433560935935742131e-01
1.345416261960442374e-02,1.179921771967055860e-01,1.187254662067793176e-01,2.649245371059160137e-01,-2.720144441418528847e-01,1.185107708142567884e-01,-5.927132744001164383e-02,-2.007318477040339333e-01,2.238883426696198498e-01,-2.785542997615608751e-01
-2.368461500733153730e-02,7.824679515107081651e-02,9.210855414430051125e-02,2.494041404853093724e-01,-1.857819702666853035e-01,9.617577733526710970e-02,6.890330535859419403e-02,-1.948294862122829652e-01,1.688236292091763735e-01,-2.981388920099825035e-01
3.507918938614711102e-02,-1.794837354092666121e-02,8.307006146593522156e-02,1.820318747362540401e-01,-1.173589682034072573e-01,1.233895242785481156e-01,8.263732479381520613e-02,-1.647478148926317942e-01,6.923057618590977569e-02,-2.316753505314982087e-01
-2.600959573020690183e-02,-2.492507034776609773e-02,-3.829316080110701376e-02,2.115744710633809533e-01,-8.966864889542529304e-02,1.823240037077121511e-01,8.289241290552325225e-02,-1.289767813683392883e-01,5.671394759366247401e-02,-1.696066035081634504e-01
-9.295300700678192640e-02,7.188606149409818014e-02,-9.617626987398791849e-02,1.071575063092560370e-01,1.904728453481031869e-02,7.473703372348648732e-02,1.860954119788251204e-01,-9.384872047161950392e-02,1.841054179319531747e-02,-1.439124519092040699e-01
-9.785171315124811808e-02,9.678561039482130868e-02,-1.004267033773340173e-01,-2.951738439475653369e-02,8.401277298907250390e-02,-2.104640305855014909e-02,2.296949204223357466e-01,-6.525483497926767851e-02,4.497389942526922729e-02,-9.665977526345954918e-02
-9.088795537309263262e-02,7.975609034621984617e-02,-1.472412350121975744e-01,-9.795228312225544298e-02,1.170792440907727078e-01,1.103828522693932335e-01,2.295783450755927990e-01,-3.058761224228583042e-02,-3.464759272512046850e-02,-7.379307582899016782e-02
-7.145611014540340089e-02,5.686032632695529193e-02,-1.933960999522031654e-01,-9.830346829814239074e-02,1.511603590322493917e-01,1.193453114147519922e-01,2.420330340520115697e-01,-2.235064657411156910e-02,-9.143494930366267981e-02,-4.363875044595141167e-02
-6.322914532024605239e-02,1.463582233018327974e-02,-1.349796934796503867e-01,-1.005024992827739938e-01,1.182086410841067109e-01,1.282887982814042427e-01,1.928732780709996320e-01,-7.527942628000465139e-03,-7.468780465484868569e-02,-1.613341599784651539e-02
-5.129882534528012322e-02,-5.416555915451293224e-02,-6.099063053721719835e-02,-1.821520953282152258e-02,6.800917527696798137e-02,1.201598311308502837e-01,4.144169170567998245e-02,-1.701399937906979652e-03,6.068896875662109502e-03,-3.035771118035068741e-03
-1.426618841105353926e-02,-2.736771022151677710e-02,-5.601415071163309833e-03,3.614309031451166769e-03,1.397056910822924367e-02,5.312869726448561647e-02,8.436843161187611295e-03,8.594163524679409444e-03,1.566907926443961846e-02,9.318236488247211898e-04
5.152622888211053249e-04,1.651769684646587017e-03,3.032012501597087812e-03,5.863657859007397749e-03,-1.248754953548792367e-03,1.007677874758828793e-02,4.417386043734196528e-03,9.392548515274610002e-03,1.448890097871275394e-02,4.366990917573326629e-03
3.136233871505316687e-03,4.119527853431520330e-03,4.373076690262678659e-03,3.895600289298676092e-03,2.029990633689698551e-03,1.197557383696617800e-03,1.390839363237925813e-02,2.588413469852934683e-03,1.567981125687430708e-03,5.532487302015217517e-04
7.521115855446616413e-03,7.685039868747022516e-03,1.900512904697188076e-03,7.114646855423976957e-03,1.157519267307850416e-03,5.908151487977677738e-03,6.026595743152412914e-03,4.320691723820221410e-03,3.785882538507090445e-03,3.939133716108797305e-03
6.522375095474462064e-03,2.854887984980174643e-03,4.514854885722095930e-03,1.909406792851351406e-03,5.131795342230155432e-03,7.193629742471780233e-03,3.635472252666460940e-03,1.370217163048402867e-03,6.754123551284680997e-03,5.502127061058500156e-03
5.141513357562170310e-03,8.680696709292570756e-03,3.151735722732112131e-03,5.323742459700892167e-03,2.480489234566700049e-03,1.688831316784192966e-04,4.125996416363121545e-04,4.358088772373355790e-03,1.016374882321903267e-03,3.417421347713378837e-03
2.306610471786040527e-03,1.217802685012352171e-02,-1.645203934088761014e-03,4.747403942893452938e-02,1.281891683222718481e-03,-1.918063423118924679e-02,-5.161052979980623734e-03,6.302863343557261327e-03,1.945506684861457371e-04,1.889910418127156233e-03
-8.849937537368046322e-03,1.103514362043199817e-02,1.494969157498481560e-03,9.378347856024508988e-02,2.746386064151968079e-02,-6.430411628984139538e-02,3.834855688284470945e-03,-4.370791665209645461e-04,-1.367536026942244021e-02,-4.243884749311044487e-03
-5.367454816121912387e-02,3.981273039836250721e-02,2.058619679864392982e-02,2.007667944842678465e-01,4.220890810550051442e-02,-1.157223655378252780e-01,-5.276112952518880600e-02,2.968682462748296891e-02,-4.460017238813186041e-02,-2.014616243336742746e-02
-3.199002573019553430e-02,1.853391887083594841e-02,7.147595655213390131e-02,2.629754220236109608e-01,3.454791887439007808e-02,-1.781101589411131780e-01,-3.182572425223426094e-02,2.785831132012992969e-02,-6.102349614068842965e-02,-4.977242674767044101e-02
-2.682040993978691487e-02,-4.484186941401595294e-02,1.333796139546674919e-01,2.483267835615742825e-01,1.190626706679549091e-02,-1.459617280528448524e-01,-2.627545436050334610e-02,2.198340275242474662e-02,-6.206254893914120441e-02,-8.106529303271095555e-02
-5.765247221476843195e-03,-1.207118164366505209e-01,2.158380276401658804e-01,1.833864234018056094e-01,-2.337844645224526965e-02,-1.055142160685438590e-01,2.398281855686297537e-02,2.402129485343611204e-02,-3.989178880562264246e-02,-1.119571347038650078e-01
-1.789037707465380989e-02,-1.294986486723579411e-01,2.253192038167365630e-01,1.780608684704619027e-01,-3.827911656176444938e-02,-7.944150454241011641e-03,-8.467633229366181014e-03,-2.952413240570759146e-03,2.941209155856155857e-03,-1.445688566020164045e-01
5.577067476278099734e-02,-1.445700232703896748e-01,2.066375788215024378e-01,2.210952269380303536e-01,-9.882564178602881722e-02,5.422234797963738223e-02,7.080889364336293706e-04,-8.275646125282215548e-02,-5.968573423875950940e-02,-1.000249741896335059e-01
6.695983321589775439e-02,-1.781207604390397936e-01,2.438595229865949121e-01,1.736629234897537344e-01,-1.272449985654719729e-01,5.438963850327136612e-02,-2.292619559132421103e-01,-1.586480752180722265e-01,1.368607470015799632e-01,7.497609071133445879e-02
2.856140212322220290e-02,-8.168869852688939726e-02,2.383633773656551047e-01,9.677923441283355077e-02,-1.435529666415358285e-01,-2.276492887070789839e-02,-1.426757773022127862e-01,-2.001353016983553057e-01,2.034508471843023414e-01,6.055281703233082735e-02
1.640969459059986035e-01,6.721771557854364088e-02,2.136962974399487236e-01,7.437772109032458889e-02,-2.475069037756661983e-01,-4.000984568447944756e-02,-1.723553070404831578e-01,-2.700912405395348159e-01,1.767082802595167090e-01,9.313528391217122671e-02
1.974557282809730197e-01,8.682501299462237754e-02,1.941952637397671155e-01,2.293723357893225068e-02,-7.988472203714441777e-02,-9.665752463419026441e-02,-9.730306998489293702e-02,-2.949006875633872760e-01,1.887574823352168862e-01,-8.232645754350713385e-02
1.604133189752195154e-01,1.348377076374149275e-01,1.886375499446830417e-01,1.421530434716867242e-01,-4.826515491958135312e-02,-1.041365921778764358e-01,-1.078739235530044027e-01,-3.044047569686945676e-01,1.295217786528101434e-01,-1.484130183727750130e-01
1.341248539529546202e-01,-4.147028130814226290e-03,2.416460864716699353e-01,1.987826835676080872e-01,2.076694808804234113e-03,6.080040196283164472e-02,-1.128602988194350731e-01,-3.266929036186561053e-01,1.549724276962234082e-01,-2.988665997245909534e-01
2.064711976650952796e-01,-9.155378007012530961e-02,2.408201675036302503e-01,1.066749380294636056e-02,1.520284999858244161e-02,1.169422379670678191e-01,-9.708499483374304767e-03,-3.463003826354385528e-01,2.228503464202949147e-01,-3.060761516556752548e-01
1.902135579402722543e-01,-1.050917299035772010e-02,1.427946093596151877e-01,4.259973104640263353e-02,6.229923942087580574e-02,1.249809714036690250e-01,1.014392111039311289e-01,-3.110125803346506235e-01,8.548787073877600617e-03,-2.869860271926754636e-01
8.116144427759101887e-02,4.817979106362203084e-02,3.000023233719778873e-03,6.082448609983785726e-02,9.821557664425110967e-02,2.341417810626048035e-02,1.651467826544004147e-01,-3.019971580022716151e-01,1.165965347736161173e-01,-2.406429010416663850e-01
-1.153402443828365279e-02,1.225173633632878484e-01,-2.377626490910659043e-02,-8.126900177454750296e-02,1.099819755353770856e-01,1.369625071957029372e-01,1.472878478287321102e-01,-2.472467205388292899e-01,1.184236226172187822e-01,-2.234472507065079216e-01
6.150645893779820711e-03,2.143567439203037939e-01,-3.264193617410759973e-02,-1.586656131176771845e-01,1.089026035161620443e-01,1.038267558975257548e-01,1.440837564687653671e-01,-1.539782093308203759e-01,6.420807400095736653e-03,-1.814823351489235348e-01
-2.773185105903681544e-02,1.814654484450664018e-01,-1.205751794436896313e-01,-1.880610911316317746e-01,1.943578744645111100e-01,2.340311613967680782e-01,1.393129402758097324e-01,-9.148632309205140256e-02,-1.018587299845249983e-01,-1.653380213056078463e-01
-9.517919230288353349e-02,1.145926012211891387e-01,-1.750317524442250583e-01,-1.733471432292779113e-01,2.716412927991543880e-01,2.612371024703031841e-01,1.566883811054111120e-01,-4.891314186003163644e-02,-1.464642049047745198e-01,-1.146516430259865299e-01
-1.057823127866145685e-01,1.773503467610034606e-02,-1.003966273000952425e-01,-5.906927671341563602e-02,1.108245865311994066e-01,2.181709709504957573e-01,8.573386152264933502e-02,-2.045807378059562656e-02,-5.228248590328239687e-02,-5.258996070764763997e-02
-4.853086614357696865e-02,-3.921435504063648658e-02,-2.002178824375399485e-02,-7.940050859954262893e-03,9.103935576435351340e-03,1.380398614828472759e-01,2.616903289415438948e-04,-4.922191598100376757e-03,3.265091491255798367e-02,-7.995574138251653265e-03
-1.695516731194408617e-03,-2.399107527349030478e-03,-6.704213096785311202e-03,3.216917689710543579e-03,-6.545085619690644251e-03,3.577506438860317967e-02,9.766162877088818348e-03,3.188795235993031451e-03,9.151101920692419900e-03,1.308722079659634585e-03
-2.523519283608605893e-03,2.163688207182952201e-03,3.015914744846217438e-03,5.531800618673528985e-03,8.323900894394772182e-03,1.000098353309064776e-02,9.824341624428467590e-03,4.704610182153541077e-03,4.921367811963643299e-03,4.344305373794180199e-03
8.464063789118363504e-03,9.699297305368346014e-03,9.977338662694320084e-03,5.599686527924752294e-04,5.980510468683392956e-03,8.394128324535950897e-03,8.962333290495571453e-03,5.498633757134689312e-03,7.187411904947538233e-03,7.925457296086893186e-03
3.258467437020892699e-03,4.135914474971680126e-03,4.728316771627084913e-03,8.634895532354727862e-04,4.628036933157561074e-03,6.281563157666189556e-03,6.418601767912762365e-04,4.911213495397822801e-03,5.489194543503156517e-04,1.115392731253088453e-03
3.874201824412525953e-03,-5.494706953489417655e-04,6.081046795627555700e-03,1.215167996403136545e-02,8.422487594270024885e-03,2.702219317699080213e-03,5.682394951963438100e-03,7.927364795030542380e-03,6.480685900962893618e-03,4.359421975702023125e-03
1.576359259046773232e-03,1.262129324756107104e-02,7.455145647662708014e-03,8.441875481794529346e-02,6.265145031656187830e-03,-4.613364147392885750e-02,-6.968696078087893708e-03,1.415423377948420679e-02,-6.240536398026053609e-03,-1.964789305754465788e-03
-2.441465493923755323e-02,8.780131021007145722e-03,4.028783465717668960e-02,1.643180063959443771e-01,5.445616294323756684e-02,-1.040141960087071771e-01,-1.417337887374274866e-02,-1.427522413521052635e-02,-3.387314487225685788e-02,-2.675117439895216206e-02
-2.806427641900875736e-02,-2.541629889635264525e-02,8.536946626118779857e-02,2.108939022660738238e-01,9.127395627667578282e-02,-1.300703945955065388e-01,-5.971479215822007164e-02,5.479367675488720779e-02,-5.803110885914322670e-02,-1.100814939147065907e-01
-1.819897836901792840e-02,-4.458797383253210872e-02,1.347255376804390170e-01,2.731950724944353093e-01,8.943559578034510071e-02,-1.542235017060777091e-01,-7.706077062349625528e-02,1.040734335379590453e-01,-9.637588856203530008e-02,-1.566440327137371968e-01
-2.115002898403427114e-03,-1.299146689340684724e-01,1.656955832388213867e-01,1.643747936452207015e-01,7.201567735080520449e-02,-5.032985586971646524e-02,-3.511081490310759973e-02,1.198546002196688998e-01,-6.998415132654814408e-02,-1.978354711274990241e-01
-4.262397718588144258e-02,-1.990089719327080564e-01,1.425840541831475405e-01,1.596557834290749378e-01,3.212189675813455214e-02,2.155546938796840811e-02,-3.800809121255305234e-02,1.422425997897413807e-01,-3.710744765937528875e-03,-1.736391600580914352e-01
-1.028930667327660198e-01,-2.099351574817793498e-01,1.383094734539468407e-01,2.259702124987205685e-01,6.469004473093838831e-03,4.874765515111144365e-02,-6.235044307146701131e-02,1.133430256144944415e-01,-1.277727203136959540e-02,-9.664784673726345421e-02
3.848918170682452677e-02,-1.798225262032435434e-01,1.122413128576643937e-01,2.229171583908424736e-01,-7.392547164778344448e-02,4.131699691974774491e-02,-1.880956531950944144e-01,1.188486851792796839e-01,-2.162709611770489981e-02,-3.374419086282787195e-02
5.251908350999278524e-02,-1.407238080240757194e-01,4.382032799143537050e-02,1.264089420712154466e-01,-1.745615536932769718e-01,4.570861369431941656e-02,-1.789075125627555274e-01,1.540519715093487119e-01,2.355585266412524650e-02,9.797349871450766745e-02
3.933748425572253238e-02,-1.427148585763661770e-01,3.148237747116448132e-02,8.881218432542337116e-02,-1.955663893794379604e-01,5.966899952453333378e-02,-1.269973577058095271e-01,6.250724768602958226e-02,1.576022053491446251e-01,8.559829189228165824e-02
1.534891119991028119e-01,-1.098301899690291850e-01,3.929211347218592582e-02,2.282524936850272579e-01,-2.738391076470323982e-01,-3.666644535217376127e-02,-2.122137143388495018e-01,-8.016825497548153712e-02,9.666780773064029275e-02,2.338513787821228374e-01
1.218304037335852935e-01,-1.282784785549162532e-01,8.636463154740058046e-02,1.223625343293393147e-01,-2.996918789961622864e-01,1.008753838174007711e-01,-1.852137394013838034e-01,-8.489467664547020731e-02,5.019382047727123652e-02,2.661796411895906989e-01
7.418718386503971030e-02,-2.251767991991158457e-01,1.327862051499084650e-01,1.533058564532793211e-01,-2.867368459321329444e-01,-4.517067314577328380e-02,-1.306209946936531530e-01,-7.170577497584901261e-02,2.698547237866132931e-01,1.831516426930464847e-01
1.479687255525641842e-01,-1.863523005471040550e-01,9.098924396484173172e-02,1.806808534594797067e-01,-2.706071617042906108e-01,-4.356535066479479135e-02,-1.706689711700598577e-01,-3.093151879374871419e-02,1.200673034978738535e-01,2.227359678694242895e-01
2.004123888305916479e-01,-2.222121587199696047e-01,3.433448556691710840e-02,7.903538563131939920e-02,-1.928459433315493354e-01,2.125599216151525042e-02,-1.502824228151968533e-01,-4.336033249754814994e-02,1.248196008621600822e-01,1.890736857490267486e-01
2.177198695477312040e-01,-6.173093905937254017e-02,2.828393115184818507e-02,1.655924368250396017e-01,-1.953187898918199716e-01,5.523689938401682431e-02,-1.637607169789714323e-01,-1.029322699264004909e-01,-6.516417665838164508e-02,1.792597343655571995e-01
1.338602113459811949e-01,-2.513070003115427942e-02,-5.204577738694649014e-02,6.661912513292400856e-04,-7.119563642999311714e-02,1.700979376979883106e-01,-1.208352329847298817e-01,-1.259376295942306601e-01,1.322749463516512125e-01,1.589806576422213291e-02
8.504114493201526959e-02,1.002486311814090175e-01,-8.850597965787598831e-02,2.613092232648692864e-02,-3.167298981552556236e-02,1.382744723252341268e-01,-5.653488182992828098e-02,-1.298724612890136132e-01,5.959486968942123708e-02,-5.570500418588406055e-02
1.758726057838020107e-01,1.074080870996366316e-01,-6.501732909183441378e-02,-2.566927806797316206e-02,3.842813697596374894e-02,3.889565646557247708e-02,-4.282970021826698614e-02,-7.516816722072854062e-02,2.712988309333154782e-02,-1.337855364594333074e-01
1.557377709526402421e-01,8.350127420092766373e-02,-1.180126031535382175e-01,-1.497902432385904148e-01,2.287671788950929597e-01,1.682029608659235953e-01,-1.815731058647842774e-02,-7.987514152389825484e-02,1.706399302097421841e-02,-2.288877044860578580e-01
-1.712082636268165772e-02,4.302170124943769519e-02,-2.504930172559183266e-01,-1.574146228884053811e-01,3.552432600777780114e-01,3.107144889242875463e-01,1.195600911712045404e-02,-8.911631029341843258e-02,8.118708545594341408e-02,-2.352709234054752296e-01
-1.639529753999457717e-01,-1.818686278077876611e-02,-1.346075066216384786e-01,-7.493936747053604741e-02,1.358400443540081215e-01,4.570239520041879389e-01,1.375798396288857237e-02,-5.346723607460414363e-02,1.901935220518779016e-02,-1.373423048293667403e-01
-1.061530220157400894e-01,-4.253820003389485738e-02,-3.904411644889353022e-02,-2.670522753472132776e-02,1.739280315605356772e-02,2.483816245224876318e-01,-1.499112573425216526e-02,-2.429979407028764679e-02,7.249677283629982205e-02,-4.649944522985622469e-02
-3.875447432041893153e-02,-7.479630482867370299e-05,1.339699750643963188e-03,1.583593398770900959e-03,1.502238632200640286e-02,9.490506555156112689e-02,-6.267603145838645043e-03,-1.665960116656035059e-03,-6.972825973665225906e-03,-1.478571299707371473e-02
-9.513209800160772611e-03,5.090725754227617798e-03,7.048615422952697433e-03,3.367871704461177472e-03,6.347899426335555130e-03,1.903407511614474412e-02,9.923145752880991460e-03,4.777655574044095688e-03,7.420230607925385261e-03,-6.627671577624732026e-04
4.847101305259871561e-03,1.437665666613227589e-03,9.984634721626571910e-03,4.240965784958383093e-04,4.491784552903557541e-03,7.537239550789719654e-03,5.409704921320993877e-03,6.706335077823718724e-03,7.027349036084021630e-03,2.769365253722277757e-03
7.136497663743455490e-03,8.699450381813281577e-03,6.654414711519263635e-03,1.194077702228334148e-02,1.028089704327674568e-03,7.188660277646374136e-03,3.262137128264850153e-03,3.638258685417559632e-03,1.185317599879317629e-03,-2.674978581030145602e-03
-1.314216091645044847e-03,6.010408276580488617e-03,1.534627964950932739e-02,6.053399583057099236e-03,3.543147035309147496e-03,-7.256292107669960745e-03,3.818600839050341478e-03,2.274244345669670930e-02,-3.243585620141071959e-03,-2.176409211873377159e-03
-2.968437329414918722e-04,-5.588299076146735749e-04,2.833039008882177329e-02,7.439241850979878834e-02,6.660168026167733943e-03,-6.390066715064891822e-02,-1.889159367450395435e-02,5.581271611781189745e-02,-4.407999895816477540e-03,-2.909865168053922535e-02
-2.674121560050768051e-02,-5.864707204747173462e-03,1.101913690036510768e-01,2.302853811361610936e-01,5.671212279282679403e-02,-2.054666217817383012e-01,-1.090217127997638626e-02,3.078178786500734496e-02,-3.652707315056291648e-02,-9.243454430207938277e-02
-1.923721305276021240e-02,-6.010587067890709595e-02,1.381599334679807500e-01,2.765664741384218361e-01,1.153909788213283438e-01,-1.899768180986830535e-01,-3.704341918683501378e-02,9.685630042126373851e-02,-4.845583280394615694e-02,-2.067055071378373909e-01
2.843860066174840485e-03,-1.294012854627108189e-01,2.143125242014981557e-01,2.260149900570057047e-01,6.208883191135071422e-02,-1.347490891214995490e-01,-9.884086229728557271e-02,1.909951851491987485e-01,-5.996942936501532817e-02,-2.289693803426445240e-01
-2.538008585377716370e-02,-1.566737219568518635e-01,1.177167603586999206e-01,9.678597834783611575e-02,2.866286898360025093e-02,4.904409450771775140e-04,-4.367439382095967410e-02,2.419820151978398781e-01,2.153778956510281339e-02,-2.283980457817369192e-01
-1.111230894230322286e-01,-2.583914958858381516e-01,1.316910769762944244e-01,5.087917426279310595e-02,-3.281321976193529028e-02,1.755217327852957587e-01,-9.197677430631674700e-02,1.811502580041798316e-01,1.178834701099086280e-01,-1.072763548577392034e-01
-2.173301680746587972e-02,-2.677631247737910503e-01,4.139173044497935355e-02,8.621588059168679152e-02,-3.337976243492603995e-02,1.167479706814015528e-01,-1.159685680584257861e-01,2.455672932318293811e-01,3.348982927211423266e-02,-3.307325222283178517e-02
4.645935834363081052e-02,-2.500873163357241191e-01,4.302387667630224073e-03,3.294510352803678432e-02,-1.488470546319043131e-01,1.690029177659474746e-01,-1.836066497311369672e-01,2.618780086735716939e-01,4.864101393455622785e-02,5.702832572108896408e-02
6.152403996535330682e-02,-2.258189359280188269e-01,9.577743427417052813e-02,2.473363740471185360e-02,-2.013429516957306875e-01,1.309436716796734679e-01,-1.068987331289981552e-01,2.349449612848471258e-01,-6.720314730483066545e-02,9.796591912101242083e-02
3.917798023604100732e-02,-1.044027741013856120e-01,6.524756481180381609e-03,1.324322921800665243e-01,-3.403973884049921739e-01,9.730484324832634757e-02,-1.457804435697784839e-01,1.994357052021083210e-01,-8.272533119453961969e-02,2.405798405099337511e-01
7.522034686398965109e-02,-1.681410845474458071e-01,1.024341713707767054e-01,1.190840892214877211e-01,-3.151572486693947628e-01,-2.569066171345590205e-02,-2.502850212488741399e-01,1.438340410891752463e-01,-3.339640169722113416e-02,4.023014086776662279e-01
7.254069854232289560e-02,-1.434681536954616754e-01,4.917367557363767211e-02,2.143975207878680012e-01,-4.026493192656090403e-01,6.391204234677133611e-02,-1.468465680247991179e-01,-3.057295285609362354e-03,-1.700289012246199438e-01,5.129907904667463381e-01
8.607590865889379328e-02,-2.717918182558063944e-01,-3.510845459628470638e-02,2.221182684470579261e-01,-4.007691744453674154e-01,-9.844506604167366226e-02,-1.639206476710059202e-01,6.407283357779587629e-02,1.135249891990200571e-01,5.245020963368284272e-01
1.275281839239270909e-01,-2.016506726511733960e-01,-2.450156652796647155e-02,3.476350604857639942e-02,-3.901579481706489716e-01,8.399330638761708101e-02,-2.606861495822754282e-01,1.468157969661314788e-01,5.690834080603894563e-02,4.733908115578306375e-01
2.253364928186612770e-01,-1.907614209960586671e-01,-1.837819637907837644e-01,1.047799503458742704e-01,-2.268710048537725954e-01,7.996396634797142688e-02,-2.210107973236698220e-01,2.642997889350020002e-01,-7.797936814648590009e-02,2.810823079162226290e-01
2.130925136185781998e-01,-1.207775953550143250e-01,-6.504540254892006435e-02,4.050287834979054979e-02,-2.119854773725128871e-01,1.872942661104314357e-02,-2.952196109163109372e-01,2.457339913462758263e-01,6.603279945056969580e-02,1.435362930575196372e-01
1.280540334508319944e-01,-4.565890516341502940e-03,-7.449132663042537517e-02,7.776739171628560543e-02,-1.322424716935832745e-01,1.099141488984700654e-01,-3.036947022468209356e-01,1.318975744230585501e-01,1.828610132167271529e-02,1.080764955518571796e-01
4.923712384427918892e-02,5.001358751198380082e-02,-9.637030588027295508e-02,4.703311758848946478e-02,-1.173266998884953394e-01,1.280804016467740614e-01,-2.162779228208721038e-01,1.568884989925883322e-01,-4.886519593059319294e-03,4.566098850049982172e-02
8.331194224074464638e-02,1.155416214619713576e-02,-1.845099693998632912e-02,-7.200440524686031740e-02,-4.004173979480653289e-02,1.262403752410825863e-01,-1.618637995727198464e-01,4.050472362636430013e-02,9.633048366262780826e-02,-3.317839840335862905e-02
1.624479746361278676e-01,-1.834432990832743013e-02,-7.517695033412802492e-03,-1.009334735817569856e-01,1.414751768418998634e-01,1.650582185729485007e-01,-1.751436646200569824e-01,9.746355544706838611e-03,5.640618968077253104e-02,-1.941240282948276108e-01
1.267228721763965782e-01,-8.791359159002652690e-02,-2.658305384370425184e-01,-1.598630313815543880e-01,2.737626625988754392e-01,3.740364278155093314e-01,-1.410260621726811270e-01,-3.053713816618157384e-02,2.226735751200029922e-01,-2.490054757847877387e-01
-8.564419748515711417e-02,-1.575148588013206286e-01,-1.818685680925699044e-01,-1.407948656150873890e-01,1.270085779846122087e-01,5.961670235433065290e-01,-2.918855939834341662e-02,-6.736413655895837072e-02,1.819808220853538772e-01,-2.007939165397660819e-01
-1.329582526409721077e-01,-8.509072843686320275e-02,-4.869937320921999269e-02,-3.520267629454014446e-02,3.909152317781705577e-02,4.538708768507307423e-01,-6.002541883329141209e-02,-4.364342608203207463e-02,5.456709748873413146e-02,-9.215040695618448296e-02
-4.629685585153784505e-02,-2.870961658114763422e-04,-8.699576658531955192e-03,-3.324334126055383982e-03,2.875553636016070502e-02,1.115341189348660611e-01,-7.891566803129600183e-03,-3.128375506563006031e-03,1.019550342588877202e-02,-1.980785103733383526e-02
-4.228001889211671638e-03,4.951861269972294630e-03,6.675552808060563302e-03,1.952244735351130146e-03,1.581186563968896806e-03,1.746340059231833372e-02,1.016144914122679883e-02,1.980990360169754012e-03,4.654872333644096728e-03,5.882170155592096432e-03
9.103155301275669270e-03,8.693630595816063955e-03,7.974894658666036376e-03,5.458149321749975434e-03,9.519686527681306062e-03,1.176123333339197663e-03,8.321296173711441660e-03,4.712638799961763394e-03,8.273758154609673135e-03,7.008250283229661669e-03
7.612282934794594759e-03,2.482228437272723299e-04,1.956533043012348774e-03,2.001354466706453325e-03,-3.482329753251066275e-03,5.032180292854066331e-03,7.491430868805330073e-03,2.960825792175316926e-02,4.020216717791976965e-03,-9.695195437115503717e-03
5.833096704123976427e-03,7.404130663618627151e-03,8.155257992140708956e-03,5.884523604939045048e-03,6.504888893103445702e-03,-4.856452481455478601e-03,-1.865928916785389779e-03,5.085682368071177406e-02,-8.993599257133759288e-04,-2.889613838581902433e-02
-2.362046178969053577e-03,4.056872773682701667e-03,2.070620289676192508e-02,6.847733101380663878e-02,-3.224157486827572243e-03,-6.506930017139220257e-02,-1.127898005500662347e-02,1.345011127536027140e-01,2.982760252281672539e-04,-9.261836548119831147e-02
-5.344847846311823192e-02,-6.849994345204732729e-03,1.343996233463473911e-01,2.370338484469430851e-01,3.142655514186445953e-02,-2.559468523917007854e-01,-4.152820334916077286e-03,1.422215950432393072e-01,-1.695775431992822477e-02,-1.457500246556272805e-01
-6.814240065768928378e-02,-6.046809953496892071e-02,1.358122087176322490e-01,2.417887380797289487e-01,8.353039689441135729e-02,-2.056825897299948969e-01,-6.384972615792761097e-02,1.805341268723140435e-01,1.875361156691408154e-02,-2.082958217365495635e-01
-4.058719738782885778e-02,-1.236273994752237620e-01,1.277468851919134618e-01,1.611122250885171636e-01,1.331964070003141196e-02,-1.595372423737947964e-01,-1.179460321703601350e-01,2.114663901928499901e-01,1.193316917471378691e-01,-1.450647576823749230e-01
-8.249556610707158011e-02,-1.553746798067675572e-01,9.918604832108807168e-02,8.484952957246241767e-02,-1.113989672860062063e-02,-7.197626482887506394e-02,-1.205484550852918002e-01,2.988313872197657095e-01,1.766339392292352040e-01,-1.712233683210137858e-01
-6.858085234289913734e-02,-2.483990126111787489e-01,5.430017605365665412e-02,3.288510755816050068e-02,-1.122058573568114198e-01,1.506889052712364063e-01,-1.240305421745447612e-01,2.297799259979377839e-01,9.455635070174790713e-02,4.207471879008989335e-02
-1.249950192858934571e-02,-3.001787788782178668e-01,5.761030211172408350e-02,4.177662804364561111e-02,-4.718486209652159036e-02,9.412363100829052032e-02,-1.001192945292517372e-01,1.980336558434638849e-01,1.571688960221343523e-01,-3.501291547632687240e-02
3.131475694974197865e-02,-2.631717891642180729e-01,2.269298460108137294e-01,9.828135207757832115e-02,-1.415979813095835926e-01,6.006166085022392881e-02,-1.560881817272650185e-01,1.383256283279243881e-01,7.909443709652594356e-02,-1.492343877008366071e-02
2.876467941257418968e-03,-1.754331360623146707e-01,1.272066473831771904e-01,4.612701719771249848e-02,-1.431649734838750243e-01,1.303085338242703506e-01,-1.449126274271753112e-01,2.340431223102019120e-01,7.096506213730923406e-03,-4.866695911531054852e-02
7.271405738973416022e-02,-5.931291782728301959e-02,-9.744940158965998897e-03,6.966799361564426918e-02,-2.606534458106605223e-01,2.401403718247428765e-02,-1.676883335829702226e-01,2.917234541735687081e-01,1.688423151246902232e-01,-8.252394253838715721e-02
7.161182921485899355e-02,-3.597832565258642090e-02,6.130265019360143022e-03,8.398906003076042626e-02,-2.098652375262902436e-01,-1.042324625753167644e-01,-1.945238620797437590e-01,1.251720487769153178e-01,1.661186930294780428e-01,1.380440829687814563e-01
1.600075354573787800e-01,7.811869963454623304e-03,8.686892556633346585e-02,1.652633430334408127e-01,-4.001866728863404665e-01,-1.234698219875723507e-01,-2.388908590763536011e-01,1.991889271275406881e-01,-1.179814248470658078e-01,3.216816951812319636e-01
2.062323830797727908e-01,2.210725783506810316e-02,7.524410878755520560e-02,2.004807636150327810e-01,-3.737706442260501638e-01,-1.999684339474985251e-01,-3.138140994295218755e-01,2.831919695515247026e-01,-9.014899682204059739e-02,2.475941501518220400e-01
3.173534892394830331e-01,-1.213606648006962524e-01,2.596151728682350238e-03,8.411666354881580654e-02,-3.480486423215803926e-01,-6.306166158654583076e-02,-3.338997118872639169e-01,2.151055048778224843e-01,1.227397096887581640e-01,1.680231635831951342e-01
2.453281000590411820e-01,2.047967035185342677e-02,-2.932806700277306930e-02,1.170972987731303261e-01,-2.017019690279655830e-01,-2.007698020790149585e-02,-3.443695752977203317e-01,2.311482615111084826e-01,-1.656058335708136126e-02,5.792170823293366078e-02
2.216863112286657223e-01,-5.869399407763837423e-02,-9.749272068806122404e-02,1.592028827840794303e-01,-1.012560905767739688e-01,-3.716426393876220806e-03,-5.330278828263675939e-01,2.732503346259197996e-01,9.399409999335862909e-02,9.286837220139007587e-02
1.045114645470830439e-01,-9.282656811743295044e-02,7.452467189633608935e-02,1.347625387558672172e-01,-6.338957602292588644e-02,8.008347832070904226e-02,-4.716038974327358413e-01,1.588374804532350359e-01,1.182331098830592397e-01,1.148486451773795408e-02
8.679938865891628774e-02,-1.115353008641570970e-01,9.988085457037670575e-03,1.580178694371912884e-01,-9.115738286541692770e-02,1.471038217253036462e-01,-3.335136746369185556e-01,1.738495650658160863e-01,2.325985587853484846e-02,-5.733533965265158461e-03
6.624742626997456862e-02,-1.416686936251402296e-01,-3.475473363544972962e-03,1.047496278747609422e-01,-4.885397879255323761e-02,1.463145768286071291e-01,-2.610784156541949841e-01,1.747839344867966813e-02,9.103588297993278622e-02,8.142290228487725212e-02
1.793331852261313142e-01,-2.036273134241543825e-01,-2.961148399500176942e-02,7.206157351525813159e-02,1.579331362421635895e-02,1.708463964430063653e-01,-2.755734120722936886e-01,4.617607153857478802e-02,1.615745960620140753e-01,-1.146399194137448924e-01
2.190632080719901453e-01,-2.739439555865550435e-01,-1.208344490041932395e-01,-2.147567463580561387e-01,1.022512920792474356e-01,5.195935539375285961e-01,-2.595097125036588404e-01,-1.446233390429350549e-02,2.947837617941946320e-01,-2.114264787771384935e-01
5.685770412565282865e-03,-2.351089793873040179e-01,-2.053536179250416427e-01,-1.993163830362237876e-01,6.012758447810210433e-02,7.868222517308556263e-01,-1.776681288040586337e-01,-8.892946243991621535e-02,2.944480948992901914e-01,-1.803800829759373836e-01
-1.377184150928154605e-01,-9.388005844244710907e-02,-7.462233895455372412e-02,-5.389217814068268664e-02,2.928731507540251883e-02,5.583705665948774932e-01,-1.001289742533936211e-01,-6.022203447723321890e-02,8.671856621112807029e-02,-1.002458258582904493e-01
-3.859833329711506028e-02,-1.839759768541027315e-03,-3.377699478019523336e-03,-3.571973002424284286e-03,-4.000626705490906328e-03,1.413388538027318675e-01,-5.080159823264844554e-02,-6.324843902066891801e-03,4.778937341599419353e-02,-2.495838378058905238e-02
4.037791545623655408e-03,2.631143232560521471e-03,4.099336423255862082e-03,9.307043009306599848e-03,1.325404644533573076e-03,1.822843666628207182e-02,-3.293063614398674451e-03,5.237931134187805322e-03,1.806287217622153801e-02,6.887151535633136146e-03
8.128787827792622808e-03,3.804383118209301879e-03,1.326279999840406084e-03,1.082047821066732713e-04,5.006371476536156800e-03,4.419186442606366783e-03,1.353094137223210657e-03,1.752308660706884550e-03,1.883150143289649345e-03,3.044385110732102454e-03
9.190720888226132715e-03,7.243603450853647319e-03,8.134340174128586870e-03,4.743646120898035307e-03,-5.961105466334139236e-03,4.875252563586546413e-03,5.253224942857740581e-03,3.825498074152199751e-02,3.703897094823000846e-03,-1.632701433573424676e-02
4.547303665742797631e-03,1.126759935886737646e-03,1.752302360008016306e-03,1.411650240286037306e-02,-3.625708402314713717e-03,-4.215232787553024711e-03,-1.207013487747833277e-03,7.257111907442473364e-02,-3.351930808226471787e-03,-3.268917376488750942e-02
-1.101246044565250444e-02,5.124283411286569348e-03,2.598883773694312185e-02,7.798569009705554056e-02,-5.087066641864014527e-02,-7.439484603653738481e-02,-1.560555743103211185e-02,2.043790632423733988e-01,-6.780987748789573354e-03,-1.028207184542076630e-01
-6.299355283325772104e-02,-2.719201612878132876e-02,9.420669175439840004e-02,2.376338123878040387e-01,-3.342188297921332152e-02,-2.196350183125585775e-01,-1.514811881503412908e-02,2.317714651359589484e-01,5.616485426261587713e-03,-1.715304531330101301e-01
-6.914515160121369186e-02,-9.005861685345542544e-02,1.802846184485984160e-01,1.624160096472724024e-01,2.828466446454959773e-03,-2.102876854110655724e-01,-9.336680723405928195e-02,1.891843952655753447e-01,1.069647322736320821e-01,-1.191390251044285586e-01
-6.302353471026178600e-02,-1.273823514614176311e-01,5.575047697816945536e-02,1.170281518082394029e-01,-7.650142834229899103e-02,-9.640629137609217636e-02,-1.224819266341837937e-01,1.373907568802716084e-01,1.834222459082123224e-01,3.494020017495677588e-02
-5.632181008828941043e-02,-1.439303750385891589e-01,-1.488620507858976275e-02,9.387048525930589971e-02,-5.789715194237825963e-02,3.526108270700922809e-02,-5.993637546978545366e-02,6.994164413154967119e-02,1.762720593368359845e-01,2.283751504685527581e-02
-9.394909434152366734e-02,-1.976509081192771300e-01,-4.852251507059709285e-02,3.247572981500571748e-02,-7.272265101982126889e-02,1.992063300306260720e-01,-4.462720837785620620e-02,8.110666713600231392e-02,1.516782189437188011e-01,4.204670082400897152e-02
-2.170901511610774659e-02,-2.319407047017029433e-01,1.280089185568753785e-01,-8.852259174527688651e-03,-3.775125672334436744e-02,1.015668818964291370e-01,-1.334238516403052077e-01,6.354998939568390348e-02,1.640886575038740802e-01,2.170815816208437887e-02
6.693270578580542973e-02,-1.641876831046400198e-01,1.708023083542273557e-01,-1.126908016069595453e-01,-1.148455307297880645e-01,1.445351070337305699e-01,-1.529980028747374710e-01,-9.201208101471821180e-03,1.168657490014656380e-01,1.119027936818687979e-01
-3.490297240887941382e-02,-8.825814257625345938e-02,6.899307165079593407e-02,-2.878133872682634431e-01,-8.585484581886353161e-02,3.276493016142439374e-01,-1.354502269558271743e-01,1.263075205056037043e-01,1.322515383466504324e-01,4.693370276464339103e-02
3.278712412368231521e-02,-5.761902008434372641e-02,8.093837106369920764e-02,-2.057219311856062216e-01,-1.065058849532293378e-01,1.715861006896957364e-01,-1.861268846369835139e-01,2.149005983431561961e-01,7.059657799861723815e-02,3.305916297308116036e-02
1.427703356547032065e-01,5.983206453644690503e-02,9.318857050079032422e-02,-6.675527707107657693e-02,-1.421336217476164010e-01,3.098180313203284172e-02,-2.296654536334703511e-01,1.302880090788902379e-01,-1.477541924536956638e-02,5.231900696404905710e-02
7.884410705832725630e-02,2.214254527384387772e-01,1.500824516177303725e-01,1.911250718915310232e-01,-5.681037830020048141e-01,-1.710620305690423171e-01,-2.104337444937288137e-01,3.474753352881075896e-01,-1.866021453744473868e-01,1.931027972911228963e-01
2.460184940374593107e-03,3.507404842985913374e-01,1.534435869459092883e-01,3.352298025251292390e-01,-3.582729912930453509e-01,-3.492683741215544813e-01,-3.202585659859008560e-01,3.521584276325898100e-01,-3.239932480580700602e-01,2.067838430676656458e-01
1.600052219307970258e-01,1.379892208972425538e-01,1.234419188009250046e-01,2.758717989877623733e-01,-9.084595116576159313e-02,-3.398195936205566925e-01,-4.276826025966883882e-01,3.732154524296561471e-01,-1.509878159632598305e-01,-4.916891460958079489e-03
2.284581239189485413e-01,3.064841357713105410e-02,6.537767554485933441e-02,1.687006563632021949e-01,-4.969566541027353040e-02,-2.018401015884265237e-01,-5.324878152688855559e-01,3.492986368457665081e-01,-1.451898196984643258e-02,2.823518932154909806e-03
2.450113480709631697e-01,-7.577697385186075996e-02,7.252655555729820014e-02,1.146322886886384923e-01,-1.007722514125681743e-02,-8.247921332003670114e-02,-5.414386858233208866e-01,2.754725758342407849e-01,-1.318054371378037277e-02,6.726663299793715634e-02
2.018180083232284650e-01,-1.965886317802117422e-01,1.760450466551885876e-02,1.702891256420786259e-01,-1.580892461394264523e-02,-7.335483928214421578e-02,-4.511816214196698871e-01,2.636022867475150133e-01,1.384520372401237820e-01,-1.808044399201691856e-03
9.332830243274974069e-02,-2.404016290817675150e-01,-2.917328574363941066e-02,2.484937746719658724e-01,-1.354710841905272870e-02,-2.907019261494435750e-03,-3.237971580984363440e-01,1.877300318331276696e-01,1.157696690159670111e-01,1.792769333913145011e-02
2.757943702315804324e-02,-2.572886073288835340e-01,-3.285653874638683886e-02,2.157319924422649304e-01,-2.182911994365821853e-02,1.944388589190896854e-01,-2.808336844889632311e-01,1.669046894274535675e-01,1.251972763644748909e-01,-8.432259050241808218e-02
1.265749313542829102e-01,-3.108054998551799675e-01,3.526853924290571096e-03,1.516824799102079180e-01,-4.233021972124619697e-02,2.756974820332140919e-01,-3.234820201325439570e-01,8.511613278030290275e-02,1.911060823639516015e-01,-1.082404258389887131e-01
2.763999961365512514e-01,-2.892468597893654292e-01,-1.061325439558189199e-01,-1.212977391301955782e-01,-7.020256420255470420e-02,5.660151775835863264e-01,-2.484766135737433435e-01,-5.488139275223984093e-02,2.962542537240281937e-01,-1.881954810073003248e-01
8.345317988298586731e-02,-1.916106400925668418e-01,-1.814273510442360737e-01,-1.736872933671844976e-01,-1.708378918974571281e-01,9.500801155489960736e-01,-2.044745329658668176e-01,-7.782776788921220990e-02,1.715448260640892453e-01,-1.500411731100508017e-01
-1.436444923494240300e-01,-7.041616000913850093e-02,-5.497489356773914426e-02,-3.591155839679976980e-02,-1.036582801287027206e-01,6.948216442392030068e-01,-1.542961250416204355e-01,-4.111011609488766927e-02,4.424389828577927897e-02,-8.262927675825014473e-02
-4.366720588797171759e-02,-7.089739523392893546e-04,-1.544820204062491648e-03,-2.363518279703518538e-04,-2.471384781867849365e-02,1.698082706490261218e-01,-6.058006424338840262e-02,-5.030640876642247794e-03,5.537566552562073890e-02,-3.049669903960535930e-02
7.181700251573743671e-03,4.117580286318811567e-03,8.079429531106983864e-03,7.892589861777593932e-04,-9.428994489211435038e-04,2.264395822583892964e-02,1.507621873707668285e-03,2.202889743422226793e-02,-9.907076029287587016e-03,5.735652713803721797e-03
1.366006431523173598e-04,7.477337383110953251e-03,4.994923515525740224e-03,3.582542806683332737e-03,8.870209541001301476e-03,9.935933399242050101e-03,6.039235800102737105e-03,3.882812648482194835e-03,9.346251577996582752e-03,8.804893886432196143e-03
4.716055164519513711e-03,6.912781051270089090e-04,5.284208563556626152e-03,6.342389907447689617e-04,3.901551780419559336e-03,7.154769340218870496e-03,5.743736830999795172e-03,3.735926667147612679e-02,3.460136503512844641e-03,-1.628021587294167793e-02
8.769027041103674702e-03,6.774123460559253879e-03,5.091864256175872815e-03,7.410428620526667530e-03,-1.903061040824658920e-02,1.549362826955836799e-04,-5.772865103332558943e-03,1.008062462003530002e-01,4.152255688897771822e-03,-4.578788438954007473e-02
-1.065133602309670420e-02,-4.964481188090521212e-03,2.882366789951893576e-02,1.027914491013886267e-01,-7.567886515968133554e-02,-6.364298775557027110e-02,-2.493994476199087873e-02,2.241054624653920080e-01,-2.949595856079205089e-02,-9.868009140350114672e-02
-4.764447544272571583e-02,-2.216427873158663409e-02,1.612696385770947052e-02,8.749102501473324245e-02,-5.742613960474985541e-02,-1.166737257318145593e-01,-3.778072587710776947e-02,2.615795619495318580e-01,9.937026953697072895e-02,-1.328940781297654472e-01
-4.612974069519441139e-02,-8.364461630579070328e-02,1.025572052485640845e-01,-1.567542235680718932e-02,-7.539129389176163487e-02,-9.720187130928414909e-02,-7.814885476246662133e-02,2.092106899110598439e-01,1.256114468792984828e-01,2.460267813650087246e-02
-6.408254382071268407e-02,-1.518251577149373754e-01,9.121921524361072120e-02,-2.176511416137557470e-02,-1.245777570990067307e-01,2.790728647311077615e-02,-9.306299862249471644e-02,4.560291063935404537e-02,1.692523333710371225e-01,1.779536953734701943e-01
-2.779232977069652152e-02,-1.476340047945232659e-01,-8.887578641074764252e-02,-1.057676561507153584e-01,-5.040455024571738329e-02,1.483587328923902937e-01,1.538720669908755570e-02,2.792509241010883783e-02,1.810213145299461035e-01,9.395264759350908934e-02
-4.666381450185596441e-02,-1.430323020350018071e-01,-7.392375090724648268e-02,-2.267464747617966569e-01,2.847395995120760928e-03,2.710038169509423334e-01,2.680886298888194436e-02,-3.451414630036418046e-02,1.541914801751909925e-01,1.231447460551792633e-01
2.463488806186290084e-02,-1.692697267034952990e-01,-1.306879127615344360e-01,-3.554640928511222375e-01,1.081699135287557678e-01,2.885706676205272991e-01,-8.853208578058535672e-02,1.567302443695903907e-02,2.525422884570389104e-01,9.373582573937863649e-02
-6.925273398136688741e-02,-8.873576577944074228e-02,-1.129854943338670786e-01,-4.453142735860773360e-01,3.465653279133042858e-02,2.924950662306003424e-01,-4.102689684912311230e-02,2.051168099587390853e-02,2.943914766141794703e-01,1.554241272887124381e-01
1.157266649537775673e-02,-4.961594319332378322e-02,-1.062332656118762653e-01,-4.335234868570024269e-01,6.594963146439768165e-02,3.006818054383476602e-01,-1.160467234186038782e-01,-3.247804530296026244e-03,1.779843308661934465e-01,2.201776464466322636e-01
3.783693058779856455e-02,5.391546061537178663e-03,-1.508124897773518713e-01,-3.572231160731690336e-01,1.388187491117418570e-01,2.916515518291220022e-01,-1.718632706988029168e-01,-3.450894105706084347e-02,1.967254317624947402e-01,9.298607570617195561e-02
5.721685496481994371e-02,2.261273438006723702e-01,-2.486008181144405138e-01,9.006902512121016391e-03,-2.278770187905662103e-01,2.501569533606349260e-01,-8.803513138492698176e-02,1.895635861173184666e-01,1.127741494182530474e-02,-1.212344595143778486e-01
-4.585700716324155220e-03,4.890743278835771868e-01,-7.223310690962286840e-02,1.897008866343523892e-01,-6.762883540806136073e-01,8.576166606654994640e-02,-2.185634990836431146e-01,3.063711010089907871e-01,-6.377831041952840285e-02,1.215832921299710850e-02
-1.286488100091676690e-01,5.958083501257039893e-01,-1.041032711182918319e-01,2.227401296862651647e-01,-1.713056526109447697e-01,-1.157850971900381554e-01,-4.016407634129829374e-01,4.402653164748733805e-01,-2.672552837113205126e-01,-1.877540758385747022e-02
-5.560233327484417898e-02,2.452046461650059239e-01,-1.677555102315437217e-03,2.511469923787923442e-01,1.999560220749996026e-03,-2.560183902219350105e-01,-4.277273136731400971e-01,5.145485977623951435e-01,-2.403948177914699280e-01,1.834178616219931529e-02
1.742260840440171543e-01,1.756169424612459562e-02,9.826926334814431452e-02,1.904938477093333082e-01,7.714939936372258722e-02,-3.526956772455050459e-01,-4.214718115088192940e-01,3.574754834899739886e-01,-1.305477408818244978e-01,3.270230752308434657e-02
1.996337237494531236e-01,-1.315230530019587951e-01,4.595545282048811575e-02,1.678139561623986642e-01,-1.535393304745387086e-02,-2.528727394712891319e-01,-3.998754358495647532e-01,2.861455095516714509e-01,8.664992495017016794e-02,6.335059180016239244e-02
9.486959431025536460e-02,-1.999177828492864351e-01,-2.123504271001855001e-02,2.010087679486731171e-01,3.095689509391025621e-02,-2.221237823407012368e-01,-3.583044224786087195e-01,2.894670335294425856e-01,1.969753086693308008e-01,2.843256983243327637e-02
9.193756357126001144e-02,-2.881864227920570287e-01,-1.222930668434758956e-02,2.474935394745252093e-01,-8.061684730701050572e-02,-1.246493331204503174e-01,-2.588212303511426837e-01,3.154112110584457729e-01,1.059114266315420577e-01,5.389442971450697506e-02
9.080362783385427516e-02,-2.639179908876632119e-01,-2.890519272051178881e-02,1.245658337859665288e-01,-6.959562804114316492e-02,1.604146440101002907e-02,-2.533212099026371233e-01,2.907210024313980901e-01,1.327088697970244258e-01,1.834457261944546017e-02
2.230361559550625150e-01,-2.470604561851813541e-01,-3.255976577167394442e-02,7.521004795553147548e-02,-1.279729210268825135e-01,9.914549507730623101e-02,-2.471712514794586757e-01,1.495459252011888951e-01,1.793540413075068451e-01,-2.966878143884865357e-02
3.215999079883706258e-01,-2.187511376278794550e-01,-9.312181478994234485e-02,-7.891246955297356869e-02,-2.669918291568904034e-01,4.658462947763464812e-01,-1.305190734501625593e-01,-6.330914225354127012e-02,2.110501648776053341e-01,-9.987270251230916107e-02
1.426025359981001606e-01,-1.483468374673577173e-01,-1.331001370606976486e-01,-1.179876061767787671e-01,-2.122208604831679335e-01,8.638771558867214262e-01,-1.534367225032843562e-01,-9.122392908055655669e-02,3.348591337814597196e-02,-1.366802720571634877e-01
-1.371811296993312168e-01,-3.597572529703374489e-02,-2.697937707193246923e-02,-1.730586287001805931e-02,-1.298762127711998171e-01,7.320140427442083375e-01,-1.802034042742157727e-01,-3.946777609327328101e-02,-4.842018914101531291e-02,-7.123742096864095485e-02
-5.017711174608654318e-02,-9.350233245403356819e-04,7.203883274288933915e-03,1.390283198738164350e-03,-3.459866270478527406e-02,2.086250196051584183e-01,-5.218640323267283859e-02,-4.026000742343817558e-03,6.912363071579665300e-03,-1.778119691713916928e-02
7.593511492976173609e-03,1.145774543430877132e-03,1.724741098577502619e-03,8.204445254398177317e-03,3.234375026846143635e-03,6.793591162484519629e-03,-6.662596220670847710e-03,8.005877061301000519e-03,1.387001559156257960e-02,-2.592928915434186774e-03
7.609509222050480845e-03,6.267634184883515841e-03,4.127231215231273211e-03,5.581560881917227782e-03,2.304715997908136048e-03,9.116651161478127666e-03,2.101297186676695170e-03,1.067042141958492174e-02,8.832792785491738394e-03,1.670392217552069168e-03
4.510460057807383870e-03,4.148115471757663278e-03,4.638341185812338424e-03,3.733012188624345597e-04,-5.208076837501616520e-03,4.366129626313519987e-03,8.626845196474631008e-03,3.771778557681426669e-02,2.971230187651226207e-03,-2.057279925355811126e-02
-3.538192404811211361e-04,2.248878949374988074e-03,6.800572966717696732e-03,8.840734725592451840e-03,-4.440682943790160569e-02,-3.544698445714510211e-03,3.204252953120402796e-03,1.425445217036180323e-01,2.134481808299077223e-04,-6.876119391273226300e-02
-2.004574933002687114e-03,-5.665076528036385676e-04,-5.739073501929365176e-03,7.307878575475723615e-02,-6.859562012279432630e-02,-5.550305264034645358e-02,-2.487035691769945780e-02,2.418634546266737184e-01,-2.508698824003278115e-03,-1.011208633057583406e-01
-9.440395439189894211e-02,-1.513015177914364857e-02,-5.235864996814756922e-02,1.555801309430270007e-02,-1.045888882788228863e-01,-4.432667682455705693e-02,-3.294376752331776292e-02,2.899365258700924430e-01,9.989360743683961541e-02,-2.620270324907318996e-02
-9.403300616542620283e-02,-5.058227732556585393e-02,-6.690473429371054936e-02,-1.465702364261610713e-01,-6.524754344896893654e-02,-4.210064971752270138e-03,-1.878968536532788641e-02,1.389815432677345974e-01,1.691406752058103591e-01,1.831126262962430307e-01
2.225790381964841760e-03,-1.123877775037371712e-01,-2.127847037557764054e-01,-2.264740729880400094e-01,-1.488656609804476713e-02,1.452020879579792034e-01,1.201123533185346906e-03,3.772699383645539833e-02,1.925801678642133641e-01,2.326211650144276166e-01
2.611533919678269561e-02,-1.154342646164029929e-01,-3.454754057851339155e-01,-3.719333598594116719e-01,5.211304801446041413e-02,1.224643859699642845e-01,1.070966485381476402e-01,9.232033510378030716e-02,2.941186602416674400e-01,1.874518464065898227e-01
-5.808974985277235402e-03,-1.455877716155228041e-01,-3.872947002058192978e-01,-4.157353470012228880e-01,1.642682468916926708e-01,2.133709354725634999e-01,5.087690630242771433e-02,-4.757409686849636832e-03,2.777539315132699360e-01,3.040260901515448588e-01
-4.783960851749501780e-02,-1.891000690910687176e-01,-4.423199434936004315e-01,-3.771683278014568153e-01,2.950479740512594873e-01,1.534301642357827622e-01,7.616941989176931327e-02,1.089234529431907794e-01,3.048275589140746478e-01,1.738680656482731735e-01
-6.496848183557508982e-02,-1.280229067009867605e-01,-5.663225535610804107e-01,-3.093172414692237360e-01,3.108446308130943248e-01,1.261874090660049519e-01,5.038783810634837879e-02,1.706827272460201272e-01,2.203640394787373114e-01,2.436159866469091995e-01
-1.363491313401860028e-02,-1.703153610972595600e-01,-5.069246522549319955e-01,-1.730373420448201860e-01,2.566289326204222454e-01,1.628107165167825554e-01,-2.276849172279344496e-02,1.009675238517083046e-01,1.426373424448731109e-01,2.753582317475442021e-01
-4.891696126007542139e-02,-4.697547328225512575e-02,-5.546161725554332733e-01,-7.764633783311587767e-02,3.216139442181538133e-01,2.495790732189522854e-01,5.119591289145949964e-02,-4.418940553819045852e-02,2.040348884412324093e-01,3.117370891092152273e-03
-7.345921292883879350e-02,2.633339149012369762e-01,-6.529879114080953117e-01,1.086263699473367789e-01,-4.074241874981683886e-01,3.855613921256302312e-01,5.640910450828085648e-02,6.157635581959739618e-02,3.564347874776319092e-01,-5.685312014989680335e-02
-3.128306753534768614e-01,6.503211846520936534e-01,-4.703875301473858794e-01,2.358014212855111258e-01,-5.994401215521237836e-01,8.507232692058409873e-02,-2.001359716077034390e-01,2.602247744118455497e-01,3.470246645213537762e-01,4.761157127103884945e-02
-4.727898007862849639e-01,6.252171057743558524e-01,-2.846952862902358827e-01,1.348230124336755043e-01,4.966036429023583387e-02,-1.027823541686060937e-01,-4.414316319278739909e-01,3.977162566071509864e-01,-3.219223054363402198e-02,1.688538066842882601e-01
-4.238760272527762329e-01,1.959553039811391395e-01,-1.251724998340387751e-01,2.124023928810182468e-02,3.259478360251751305e-01,-1.460859275051859529e-01,-2.687000302177007804e-01,4.528111377621073519e-01,-1.758462568571115547e-01,1.920747507388120556e-01
-8.954296673631759185e-02,-4.592560889856798362e-02,-1.967664854003673414e-01,2.017228552425489319e-01,1.281753653847668428e-01,-2.155565240504036806e-01,-2.871764816576138357e-01,3.835221455068029695e-01,-1.622188569725888374e-01,3.366733893679970113e-01
-3.089846808638875737e-03,-5.006138776143308211e-02,-9.686046325733772833e-02,1.507438804423830159e-01,-3.833551176941452782e-02,-2.189079689208448531e-01,-2.574267607320110396e-01,3.848456527440350383e-01,-7.896396075640300938e-02,2.448637858033545500e-01
9.456186581746447994e-02,-1.670754254703588626e-01,7.126909805337626469e-02,1.732343801736760391e-01,-9.708477449150720168e-03,-3.729979499376893104e-01,-1.778188941418825664e-01,2.120976987156274474e-01,2.550927495544583548e-02,2.168328781192497556e-01
1.362941524367441704e-01,-1.858087722435580180e-01,-5.877653722804158237e-02,1.840911620189424891e-01,-1.267747908300671245e-01,-5.223216582604217617e-01,-1.130167416533082031e-01,2.488520876494469958e-01,7.124711565434184435e-02,4.027021380378506543e-01
2.102212567930672737e-01,-1.565301093763279972e-01,-2.064821351849698700e-02,-6.449464598126705694e-02,-1.109445747586755709e-01,-4.131545795037424029e-01,-4.962219519438526398e-03,2.239699984851433456e-01,9.835408740365016167e-02,2.984767064740221354e-01
2.620295890977157316e-01,-1.279778320859567831e-01,-8.521869490030783978e-02,-4.699076487395672380e-02,-1.418438510951339215e-01,-4.167220057929421628e-01,3.154951993367929863e-02,1.514493117668358757e-01,2.855644548408505790e-01,1.442211574052834899e-01
3.038456973568595676e-01,-9.646643149828117159e-02,-9.718218968610595199e-02,-1.016408312452173890e-01,-2.441581224236021863e-01,-1.092913455245645288e-01,1.437074021145917369e-01,-6.932275179597534309e-02,3.139466509270725791e-01,2.397662787134097976e-03
2.035140187436222659e-01,-6.549696246783597020e-02,-5.992084242086127832e-02,-8.689346275438718237e-02,-1.834365644573736354e-01,2.136534905469147927e-01,-1.273006871366658306e-02,-9.737817398580918271e-02,2.331420534058609162e-01,-1.004532114487176053e-01
-7.985200156689778450e-02,-1.664972300374175859e-02,4.769253166397797311e-02,-6.949399242552222649e-04,-7.759929452244483661e-02,3.544176784167869521e-01,-1.483160886269243861e-01,-3.281861695389898942e-02,6.266913551798193593e-02,-5.581200496278052731e-02
-3.183886382276181204e-02,-2.984827008015390661e-03,1.196114245614812027e-02,2.620358714721532541e-03,-7.859783448702870393e-03,1.111610137474454973e-01,-6.562882547750453766e-02,-2.843384561627237787e-03,4.825469644905221178e-02,-9.233321640760690230e-03
4.458564582510913567e-03,1.012791531531552144e-02,9.179425979276328168e-03,8.187155607129623048e-04,6.656955394003441842e-03,6.266695888332015664e-03,2.811302563782734805e-03,7.200889010738014025e-03,9.513485187484295794e-03,7.363988394676429690e-03
9.843750079922650165e-03,4.368286694963443434e-03,4.771701894223340928e-03,5.964369902881450775e-03,5.857953183729525462e-03,5.968473890147268576e-03,7.191012970420808045e-03,2.017189794651842120e-03,7.589781135759443055e-03,-8.991858562820402730e-05
4.277163959178718715e-03,8.279899245352507695e-03,4.070236894584483393e-03,2.747234782338426121e-03,-2.397658290293684050e-03,4.171509342476275965e-03,1.874769158123704756e-03,3.842509405173714920e-02,3.712973741942315149e-04,-1.493478094037349428e-02
5.491889192998482445e-03,2.239110170169388448e-03,7.489128954912487902e-03,-3.365290484443617114e-03,-3.332500819644455825e-02,-1.532267430351097340e-03,2.528295244171919944e-03,1.196419859215022419e-01,7.294251731372343624e-03,-6.037950222682370027e-02
-5.218423291986569283e-03,3.023741948131353739e-03,-4.875300696549858537e-02,-7.042932414989554017e-03,-7.784163681203958018e-02,-2.261207495860590583e-02,-2.070734307510616740e-02,2.483423222560353916e-01,2.678413402833059939e-02,-5.642993844077993232e-02
-1.007922982839336151e-01,1.940342515991456225e-03,-1.304158399182917816e-01,-5.532955412439391485e-02,-1.264380852543316724e-01,1.010751355542429016e-02,-4.651221078728095398e-02,2.880100301781982619e-01,6.160136099975110219e-02,1.494743915968687054e-01
-3.955467840310639832e-02,-3.599116202368139034e-02,-3.303057966856839944e-01,-1.882496872429670620e-01,-4.644469517056586810e-02,4.891774779068922691e-02,1.750148378634098362e-02,1.392090952238982937e-01,1.772022620225448819e-01,3.121823882325597821e-01
1.086172235696556410e-01,-4.018904800392122945e-02,-5.798323217708889477e-01,-3.281755251039734089e-01,9.827013620491095724e-02,1.899833926433309450e-01,1.237400617553173626e-01,1.760825083905651414e-02,1.388507449263035043e-01,3.049909040594316334e-01
6.185753621673567570e-02,-5.668931151681123187e-02,-6.645967987996851400e-01,-3.756825160738151426e-01,2.502486649129653240e-01,1.456557748121436180e-01,1.709313167964189029e-01,1.355947050903755502e-01,1.867872896410614769e-01,1.976087011137921401e-01
8.122386134118210130e-03,-1.157168982709508853e-01,-4.729640607323593038e-01,-3.448820200334243302e-01,3.341490978095575937e-01,8.825846489788979898e-02,1.054835316804274697e-01,1.928348219399299013e-01,6.996946052193153687e-02,1.845986727854213305e-01
-2.597355650976187688e-02,-1.446929536774256564e-01,-4.887747016728632987e-01,-1.399406431122529881e-01,2.913597552274793112e-01,-1.411860263266749398e-02,1.574530423675725987e-01,2.075071834405930668e-02,1.304002491153878618e-01,2.600754637024783600e-01
-5.046574762027492608e-04,-2.471329897216416882e-01,-4.975047459738543565e-01,8.022090260697346473e-03,3.802834642073670834e-01,1.949702055043807114e-01,6.705872967480085156e-02,-3.790051208685574907e-02,-6.458869411334244859e-02,2.367518157060707618e-01
4.201846372946140690e-02,-3.344278582352780416e-01,-4.706412331747419908e-01,-6.525571234108236418e-02,5.134121533793438719e-01,2.560516081333816807e-01,1.673960503038731673e-01,-1.082349037736206887e-01,-4.971248561046713588e-02,1.073350984367689720e-01
6.178705310880561880e-02,-8.221453872158994425e-02,-5.000503816509501709e-01,6.892299797711012865e-02,5.203016462897677163e-01,2.897752145467942242e-01,1.686563278088377138e-01,-4.358646140154914250e-01,1.264175218274205537e-01,-1.773176229565315842e-01
-1.044584842844596823e-01,2.770476667691955108e-01,-4.489320661469886620e-01,1.423030451890967829e-01,-8.406222177727597222e-02,3.226822912394622378e-01,7.211949540035830775e-02,-5.380230859979963087e-01,4.186023052255722354e-01,-1.092229021732424483e-02
-4.755842996450256321e-01,7.914512669412803181e-01,-3.873939696675965383e-01,3.355987332184336425e-01,-3.358095625914532256e-01,6.818666857887323816e-03,-2.228107274930132553e-01,-1.646637039913848577e-01,2.921414468207000903e-01,2.187210825913421253e-01
-6.392410309229065168e-01,5.227224873163878183e-01,-3.768804743991624462e-01,1.474880631649048146e-01,1.846172650760057043e-01,-1.082521875985708315e-01,-2.520912140423865466e-01,2.451163193816398855e-01,7.047723312740310220e-02,2.803044481248507247e-01
-5.247384781102966134e-01,1.089434176708389268e-01,-3.040719239516060379e-01,8.530314296081517589e-02,3.439018764160069463e-01,-3.095867919576647531e-01,-7.897870420990044105e-02,4.223266375641537840e-01,2.539483314230573524e-02,2.835427078731537764e-01
-1.875919672762876300e-01,4.433313936835622804e-02,-2.454215355084413408e-01,1.122439266467638030e-01,7.622645733253245737e-02,-3.104033471613562023e-01,-1.055469753456435150e-01,3.336489434579521518e-01,-3.597936684022323001e-02,3.607652856662013074e-01
-2.897020745294455121e-02,-3.742808157941734937e-02,-1.488969129752653608e-01,1.222528810432604585e-01,-7.303811346116025928e-03,-2.351425613698923112e-01,-1.650005729947415234e-01,2.662898688991386376e-01,-3.915883497599609991e-02,3.254459901330780114e-01
2.842790262778732008e-02,-1.665402998806774226e-01,6.377208219916057075e-02,-1.016618273575749763e-02,8.381897880917679733e-02,-2.646076659224037009e-01,-2.008255944430206996e-01,5.705920660674480838e-02,1.237859390117271308e-01,3.497961386959803076e-01
3.995073050612796273e-02,-1.420681861437853577e-01,-3.441617106400998716e-02,-7.296153333387765672e-02,5.823399940766784549e-02,-3.768558863007585025e-01,-6.398488523740206158e-02,1.052752413611238586e-01,1.538804580505926389e-01,3.847816624335286262e-01
1.400572393897024370e-01,-8.773027776160420566e-02,-3.235070632821774456e-02,-2.753966696265332526e-01,7.690363351880516452e-02,-5.632255809198039032e-01,1.000380424445811295e-01,5.418344227547548103e-02,2.791550643673011978e-01,3.600406067592102355e-01
2.892709596690155593e-01,-6.371706352273186214e-02,-1.295589882403491711e-01,-2.138489272234158911e-01,-1.154563240278509359e-02,-6.659414560481718981e-01,2.406553282597574395e-01,9.962161921569367973e-02,3.001881333110248407e-01,2.085758389318329020e-01
3.605959083046050839e-01,-4.147356425505294847e-02,-1.826946507792894248e-01,-1.390804550987599919e-01,-1.361687986583148546e-01,-5.752624514792041843e-01,3.799166757498672609e-01,-6.869627117128873639e-02,3.431628696811437895e-01,9.572658526544726432e-02
2.996565949943478802e-01,-3.587636252330929365e-02,2.020692479175691461e-02,-5.035588560832315874e-02,-6.505328319046850549e-02,-3.447174829162086285e-01,1.670184575434798258e-01,-7.091956192373076451e-02,2.507881670867365131e-01,-1.080232186013705964e-01
3.331256743431554486e-03,-1.611276352554650779e-02,1.331496922127595739e-01,7.995367146191300137e-03,-2.476899332539261520e-02,1.948653647519732121e-02,-8.939287972638201851e-02,1.483831491462733569e-02,5.785536221645425775e-02,-5.282981377048250049e-02
-1.550371895746157670e-02,-2.788797404947396339e-03,6.172689153917207405e-02,8.175566165011164885e-03,-5.240609987261411751e-03,4.974753872401035948e-02,-6.717046519817503059e-02,9.596603797597512767e-03,2.120869282277692072e-02,-8.665882655492109995e-03
9.507810832948484711e-03,8.817175327895263037e-03,8.456370323775653369e-03,2.815590399021595473e-03,5.867901189627599233e-03,5.464743839196064407e-03,3.576897242313689836e-03,9.236640178594828984e-03,2.915952884282280513e-03,7.487183419403990606e-04
3.448121422668563082e-03,3.032807910741265600e-03,5.188056304827061080e-03,9.887515175428748283e-04,8.042634612500923139e-03,1.976018550662872898e-03,7.013301595716105348e-03,5.971653288042797457e-03,4.289068813904325927e-03,4.450170574922186068e-03
8.753846968407487036e-03,6.719371473395606377e-04,9.253337009141554201e-03,2.358292576831760422e-03,-9.886599260368078915e-03,3.898497520364110208e-03,8.588300260686531490e-03,2.780360704464676994e-02,9.703173677613839004e-03,-7.665570141827151608e-03
4.259229520009058176e-03,6.276100633336117660e-03,8.606981691902207063e-03,-1.218613079839569102e-03,-1.547864966850464631e-02,5.239491302491177706e-03,2.130918214139302519e-03,6.683336320519486784e-02,3.702779799906050912e-03,-3.367613442176182331e-02
-7.020487807566612275e-03,6.399776400105593871e-03,-4.492070125113731272e-02,-8.082668218189039203e-03,-5.486639534805754642e-02,4.371645336761788118e-03,-2.681539650319325965e-02,1.605314510849507048e-01,1.769945281895157069e-02,-4.404894535748028750e-03
-6.426383525309456446e-02,1.220764223927098442e-02,-2.167392737038994488e-01,-8.678563705568136111e-02,-3.251924360956413851e-02,4.131352184277230916e-02,-5.663466892559100574e-02,1.795332107532126853e-01,-1.480899105148168228e-02,2.801196173151196400e-01
1.619799639152551610e-02,-2.194171182686056182e-02,-4.892733834304129892e-01,-1.982602748445455587e-01,1.094061540385714987e-01,9.424781008532821802e-02,8.000868188424581362e-02,1.166279691632075288e-01,1.672860627622758251e-02,3.139981955669385871e-01
1.807508536546002798e-01,-2.967697610318039206e-02,-6.465106390776936829e-01,-2.884167067573069065e-01,2.685556530155903121e-01,5.928654354878343247e-02,2.564175321641136707e-01,6.920853487965120121e-02,-4.999932898451860987e-03,1.745844555718220614e-01
1.968181893552374273e-01,-6.800388729275193278e-02,-5.373169310229510831e-01,-3.329344221370525991e-01,3.354240984207940701e-01,1.267220198993608549e-01,1.309483455718621070e-01,1.730195124614140878e-02,-1.306444492114971524e-02,1.978759068497038531e-01
9.675308738278902421e-02,-6.307518677723744638e-02,-3.509552279419216325e-01,-1.881840169675345342e-01,3.260848878267506024e-01,8.142178407044338428e-02,7.832708894167157709e-02,-3.836224305874333385e-02,-7.509845491988122179e-02,1.900286762323480372e-01
7.811195205913924744e-02,-1.857864148946346550e-01,-2.763188833023698110e-01,-6.434537627902364720e-02,3.207638187855528789e-01,6.881100150676590366e-02,1.427910978921248242e-01,-1.076294056533388110e-01,-3.987386353056692270e-03,8.661436644647203809e-02
1.279248062356603544e-01,-4.597018061091666663e-01,-1.444232206644207595e-01,-1.258962655496419780e-01,4.173761706233283797e-01,2.171688083181015361e-01,1.632718753430333625e-01,-1.092158001360627462e-01,-1.308096927490601247e-01,9.748663397731859026e-02
1.010892512506488400e-01,-4.821480759575043074e-01,-4.756961990849535582e-02,-1.645172012712534659e-01,5.808445931374651705e-01,2.638137216770833349e-01,1.573170884522354651e-01,-4.109026949286188057e-01,6.338058648218382329e-02,-1.189442348497684286e-02
5.186425948635046274e-02,-1.202544363743736217e-01,-7.806863093059945857e-02,2.543152172823169924e-02,3.605965675918218483e-01,3.315058467302090528e-01,1.706870076434722217e-01,-7.864941122150281849e-01,2.480441666629088215e-01,-1.578198902957048122e-01
-2.787578813388660870e-01,3.141853108124844640e-01,7.598300006037250233e-03,2.504328133884969887e-01,-1.362312187512324524e-01,2.454124226083089499e-01,-2.340071224026423272e-03,-7.930066200708969504e-01,3.512614178201345916e-01,9.531109759770768630e-02
-5.622818296518289349e-01,6.314724605399046897e-01,-6.028770215872406024e-02,2.355067064498161111e-01,-1.104322386252618166e-01,1.121870485698056065e-02,-1.232790502997885701e-01,-2.447213837954842763e-01,5.667187128401289520e-02,2.240423602614247667e-01
-6.730263187389876611e-01,4.096164925246961741e-01,-2.336648602308522282e-01,-4.124450219234397641e-02,2.370284494344529480e-01,-2.523310734479860540e-01,3.422565218137098297e-02,6.656449407978039245e-02,2.577710119017682100e-01,2.552969602636582236e-01
-5.376411868907787772e-01,1.251733092215485954e-01,-2.278368005117787087e-01,7.904577187484004841e-02,2.618574495364106025e-01,-3.970793501675513038e-01,3.935336929640782799e-02,1.713878027767151146e-01,1.374027704630665370e-01,3.768906364270330211e-01
-1.929556334287530761e-01,9.815612721895849990e-02,-1.174132652664711535e-01,8.449733198448253213e-02,2.918607753274553018e-01,-2.684768768217256074e-01,-1.186594923067592622e-01,8.835634760762801909e-02,-1.146587576108633183e-01,2.930693415062643470e-01
-3.523361293136227645e-02,-2.184196628410013663e-01,-1.137989676630106195e-01,1.417041198790588707e-01,2.073677589745781258e-01,-1.473493152916596494e-01,-1.482234472812957449e-01,6.328330764618429749e-02,-1.041453069831346605e-02,2.944838737607180512e-01
-9.104375163963525364e-02,-2.286400358784589359e-01,-6.660807456703947416e-02,-8.739320371539047172e-02,2.105260895929806919e-01,-7.418432437074948260e-02,-5.358759094941990819e-02,2.175279033298799583e-02,5.889828864752770510e-02,3.711369867980767179e-01
-1.329818095339653505e-01,-1.446991138484722272e-01,-4.647236970617884405e-02,-2.608196970700237816e-01,2.432055081166817345e-01,-1.118612190857624089e-01,-5.176328781288988545e-02,1.337452617387686060e-01,1.208489187452112673e-01,2.918322427728461399e-01
5.832353346941386574e-02,-9.925409619875148748e-02,-4.287056062583042421e-02,-2.926755743323944947e-01,1.643683301334218916e-01,-2.660706515218764778e-01,1.536267156685516555e-01,7.066932902657678539e-02,1.571527936594948813e-02,2.733990706638007029e-01
2.451739624991014499e-01,-7.879148556824219773e-02,-1.034101719364164812e-01,-2.683296532409378821e-01,1.063940835480069458e-01,-3.426373001735799062e-01,3.042709666377983457e-01,4.733925397929929918e-02,1.007485389219030386e-01,5.919806821118708817e-02
3.864838394475687555e-01,-7.112798323712898885e-02,-8.289877684396219915e-02,-1.502450001706714389e-01,-4.078924505271890738e-02,-4.602376741454232700e-01,4.735009320995052229e-01,-7.228200019864398050e-03,1.104835508865419230e-01,-1.206259597238464598e-01
2.776571605134207088e-01,-5.063757547676424331e-02,1.415687309516242276e-01,-4.779938954318841554e-02,-8.904729451594867173e-02,-3.259963920937897774e-01,2.584884853499446189e-01,6.184279971744530971e-04,5.867857277985669834e-02,-1.782648908303636481e-01
3.235021045099946424e-02,-2.334010185324665934e-02,2.105789496871460220e-01,1.687049543214231770e-03,-2.233976448287914966e-03,-4.997375600883009750e-02,-8.035380960583268783e-02,1.604856815126591910e-02,1.899439375619993778e-02,-7.448372668125873008e-02
-4.678689465696672829e-03,-6.418639970535285240e-03,1.169652434077214365e-01,4.799006473559794435e-03,4.668780477802984331e-04,4.263049731778781326e-03,-5.848715015355035463e-02,1.103980015006915220e-02,5.182216270763454098e-04,-1.565260064672035697e-02
5.757723296747923290e-03,6.126169014932049406e-03,4.112700501631976618e-02,4.100783566299335756e-03,-4.371968542845518918e-03,-4.351197066155738230e-03,-2.846890804837198547e-03,3.709521948618925945e-03,1.437898243364203574e-05,5.300087930139865504e-03
9.120669646158065941e-03,4.409894670854046174e-04,1.793804605964304530e-03,7.513659186661543650e-03,5.721386893392107001e-03,9.356410702902292695e-03,5.748999875852234785e-03,9.570274592092401292e-03,7.651130251989089227e-03,7.360301970196419380e-03
