2.341530290763186185e-03,2.763011333584161275e-03,4.841074559658181675e-03,5.553875976587840761e-03,4.277000919945028561e-03,3.551483172072286351e-03,4.826314838726803239e-03,2.609511835291115044e-03,3.251918845543312359e-03,6.431862138558733927e-03
3.089204574195769507e-04,8.886649116547190239e-03,2.423122480474760015e-03,9.336453005014152054e-03,4.054954419212024840e-03,1.735469920237431350e-04,2.791764700451471312e-04,2.228391874422052266e-03,8.891238872609528998e-03,8.981659988180741572e-03
4.749567889717124305e-03,7.091727990145687589e-03,4.918116832688012446e-03,2.226427496666014746e-03,9.448519369658670702e-03,7.672111320485853689e-03,7.914084663740786341e-03,3.165715772827034508e-03,8.174554639889695593e-03,5.350707296125567980e-04
8.892781576790196110e-03,9.379917060954470406e-03,2.638590351291751016e-03,8.782907744161206351e-04,1.136146828590874937e-03,6.002007740534532308e-03,4.549911288264461146e-03,5.571982134717935221e-03,4.656106970456118377e-03,7.231164707428567977e-03
3.489797659124456181e-03,7.544935434574739051e-03,4.168577855500137444e-03,7.208592503793413014e-03,5.137242873561043144e-04,6.186691583927813459e-03,2.497935352252283938e-03,7.771466901413994106e-03,8.167080420435334290e-03,1.933851213179894630e-03
8.124872770677455877e-03,7.113242135901871009e-03,1.811399778350436616e-03,6.465020192893708960e-03,7.729630331835842146e-03,9.468288558138849426e-03,5.744636481257181689e-03,2.899806577016751218e-03,1.715401239382817683e-03,7.191210083875182804e-03
2.845755308267310275e-03,5.199298676221366863e-03,1.255411630221142747e-03,4.793027338852062671e-04,8.798188341873946008e-03,7.309996510100489654e-03,6.408966448870578175e-03,4.224764799854388228e-03,3.699493580522532701e-03,3.504129353556162570e-03
7.454418458811721236e-03,8.866399348681745438e-03,8.686211666815487481e-03,9.865326228741371981e-03,4.543748926621626882e-03,5.910331734225913146e-03,4.313564882857002548e-03,2.207999483647966714e-03,1.241469909235990354e-03,7.431862354901421636e-03
7.980659377612834421e-03,8.271754850520786698e-03,4.269524121001131226e-03,2.088034046383774323e-03,5.316844595963161023e-03,2.450790631192220018e-03,4.288083389000008246e-03,5.955392995034644414e-03,4.577178646746889873e-03,1.537286426932931186e-03
7.559464730055440694e-03,9.033477865804460938e-03,9.973153723467168344e-03,3.506328934022587968e-03,4.965543434542338957e-03,7.300171469313288149e-03,8.925115194411765290e-03,3.320704191049036677e-03,2.818347330960358204e-04,3.099289934499766062e-03
3.300769811616011324e-04,6.543450656886984178e-03,6.047912252442304813e-03,9.075942847389929097e-03,5.329988850883410519e-03,5.965289081389113686e-03,5.875658382414204219e-03,1.831180727589065834e-04,4.424799206999605918e-03,2.864260187973006935e-03
1.975507230166773218e-04,6.204596981370008417e-03,1.899059354322068030e-03,7.400834235692532563e-03,6.404698802946398074e-03,3.488141753714091298e-03,7.151049887554506053e-04,2.426068608106098003e-03,9.846400997585028417e-03,5.829539252672136587e-03
2.091883161061786306e-04,8.681046245276508727e-03,3.223322271634652524e-03,9.376737121224999446e-04,5.458947174170049495e-03,9.217515156228373030e-03,2.251579751021032770e-03,1.950301558069028043e-03,2.427531715819079925e-03,6.669793272228659135e-03
4.737403090718511102e-03,2.694742645070483870e-04,6.619703730728947405e-04,7.681988300582438117e-03,1.953287487107920571e-03,5.692807172974158683e-03,7.746131481255788542e-03,5.212255212151831532e-03,8.001704814537619753e-03,7.842382738792010380e-03
5.959169430191736672e-03,3.440188173267908975e-03,4.465636030439679681e-03,7.406897875864627313e-03,4.312880869724435538e-03,3.756258760115489814e-03,5.933910421112373844e-03,7.360177539035558242e-03,5.114806586553788566e-03,5.709117741383645979e-03
9.324264894255470532e-04,6.289430194442784290e-03,8.476068491490358625e-03,4.063398812714955847e-04,5.656204944627514844e-03,3.910651338042592413e-04,7.618188730065489529e-03,5.729803623568597475e-04,3.130232494067396089e-03,7.104521741730654254e-03
5.603296173664176587e-03,1.180000842914988952e-03,5.103084611088398552e-03,6.799130821140239589e-03,5.485807954479981693e-04,8.776564745444257257e-03,5.634779295825698272e-04,9.270409388416645273e-04,1.418915323340455082e-03,5.871547321566662585e-03
4.158915905668992934e-03,5.969826085714532819e-03,4.662350560694225425e-03,7.108119452933476731e-03,6.385153096059985670e-03,7.075486474461477673e-03,7.993810028529836978e-03,2.675792698569480228e-03,4.307878448417934956e-03,9.236532128110975376e-03
6.539944055700931506e-03,2.371797036694039008e-03,3.262193485507091165e-03,3.516617596243317833e-03,8.317527090533446965e-03,4.152333965173398908e-03,9.825536055867055071e-03,1.067844378406403952e-03,2.363331076603465523e-03,8.148698815643123580e-03
4.081346850187623880e-03,7.534551378947979342e-03,8.101131884973311343e-04,6.049567849543974717e-03,1.579648663405208817e-04,5.897504221342505550e-03,4.552805459186970612e-03,6.605776371287453742e-03,8.685390128017457176e-03,9.970408083847451600e-03
9.922840354182071304e-03,4.124146463491397581e-03,5.843097830792743849e-03,8.674864064808596870e-03,5.842148480655121739e-03,6.038641382868116525e-03,6.200860327845732212e-03,3.857954693921086201e-03,3.828315614446587030e-04,5.451713139402363309e-03
7.774842643168251854e-03,2.802896506616588991e-03,7.892745804761680745e-04,3.798490993069839755e-03,8.805653933017132829e-05,3.938681830182531526e-03,1.962457809458824105e-03,4.739838060393252589e-03,3.524388852836880803e-03,1.554061313410971465e-03
9.116033968104852742e-04,5.279506570732216478e-03,9.865790476111300708e-03,9.114505194221651091e-03,5.452919907872093991e-03,6.716474265646330509e-03,9.620406409560740973e-03,4.720404318970947838e-03,6.086605456571985220e-03,6.227221142880613389e-03
1.647077528489990748e-03,9.207110814079213015e-03,1.344660533458818044e-03,4.759618151078027007e-03,6.866269153184611845e-04,7.027051809303863812e-03,9.096114845717791567e-03,8.126759902019980303e-03,8.507205150251762743e-03,5.020114233180692637e-03
6.754898713278052573e-03,8.412960151602852377e-03,2.034309763981510203e-03,1.582183458689939790e-03,2.456918512634310645e-03,2.452013435518332184e-03,9.878869314067621060e-03,8.396903912486458621e-03,6.264635524112111518e-03,9.300872488230081322e-03
3.288447761847401903e-03,5.222427218768299238e-04,3.361550239633678393e-03,1.397081919553440008e-03,7.446422193928043179e-03,9.785593278099148293e-03,6.357101597884280697e-03,5.652256288041945798e-03,4.321051869056938624e-03,4.310759955483423338e-04
2.688849930369034084e-03,5.296822583348298995e-03,1.642596387217829489e-03,2.033831976748551231e-03,6.417892709731184975e-03,6.886572006775332558e-03,7.818697705120619332e-03,2.671655664201637477e-03,9.334894233475726430e-03,9.714394946491832286e-03
9.795205147671485688e-03,1.392628981746127891e-03,1.283853837511004289e-03,3.836847534890588420e-03,2.457208268968307484e-03,7.774356596930205414e-03,9.400521314079189963e-03,5.298890874287002714e-03,1.030599384609627231e-03,5.792704951864551671e-03
8.291943616489105828e-04,8.469748972590252292e-03,7.027718482661224862e-03,2.595161479307455180e-03,9.150947937887529346e-03,8.754928293281602492e-03,9.064798454897668792e-03,3.418687245325826608e-03,7.871486889134334322e-03,6.183913717063446031e-03
6.348408885902843968e-03,1.148942785237069397e-03,4.759984860820204271e-03,9.770784365833767166e-03,9.810314917818667088e-03,6.167912297084151771e-03,5.669543282147041820e-03,4.731151752670644840e-03,4.756162219273538973e-03,5.775755569840585781e-03
3.145865889008783115e-03,8.215304052009677477e-03,9.390209182231776600e-03,5.402303850755086831e-03,5.471691041996394091e-03,9.943181756267229984e-03,7.298049206679324292e-04,3.136846252200156150e-03,1.951155317426928049e-03,6.862421303530917907e-03
8.532705942428698035e-04,2.803445501622894159e-03,4.314026467287457312e-03,1.130494995831179354e-03,2.317755164899596484e-03,9.530072709893621860e-03,4.002044607430117230e-03,2.716770234658528582e-03,6.967416478043034558e-03,7.986162002489938586e-04
2.354619434497487321e-04,4.875890834034502831e-03,6.709556512869908201e-03,8.395543927764812994e-03,3.019747777821215782e-04,6.669432461128561428e-04,3.606138902706110543e-04,9.337320979726713684e-04,4.101532524939382508e-03,4.266970646247409023e-03
2.180213610633917852e-03,5.642371937901150165e-03,7.118882977650190826e-03,9.721507796398581522e-03,3.990026141514999188e-03,1.910119942085991194e-04,2.266542312552718812e-03,7.706176391786004158e-03,3.064574939497985515e-03,8.544930205407069018e-03
1.852821600852174377e-03,1.742568165368256093e-03,1.116738979986985156e-03,8.040380033226240952e-03,-2.499815003506422433e-03,9.915294242949063922e-04,1.048946710786835892e-02,8.570954572483174133e-03,8.055196081346319148e-03,1.211750222894846397e-03
3.565130478919448492e-03,2.184210234361977539e-03,6.957604798225297538e-03,3.697355758061796754e-03,-2.906639835410460785e-03,7.739932356365764954e-04,1.567944043653371478e-02,9.080861731147570406e-03,2.275227524073910896e-03,5.674772366373536346e-03
7.831793610231996966e-03,4.116968486230006274e-03,5.484692301402985248e-03,4.440864598444880552e-03,-5.791907877393001787e-03,9.144873927122905768e-03,1.902054173372099213e-02,-4.764109440864487482e-04,9.066588607524147733e-03,5.254636182804806044e-03
4.202421009675523858e-03,8.529511018784393999e-04,-1.674456228376236273e-03,7.074015823342276856e-04,-2.837054633976776770e-03,9.330506881652643816e-03,2.181754170812001681e-02,9.372231797187454902e-03,7.705207616438195135e-03,8.708357418533129932e-03
2.736490841376328260e-03,8.743769468106245366e-04,3.421068261324130069e-03,1.157102556254430885e-03,-1.165450598804806254e-02,6.031658343247415371e-03,2.668689497187636331e-02,-1.814938928598435061e-04,8.705119170343555979e-03,8.194644982991061873e-04
1.023087409774942232e-02,1.688338234212475751e-03,-1.847781269342030613e-03,5.206628318264382334e-03,-1.112976472860970067e-02,1.628878925052931661e-03,3.475252126817384574e-02,4.637359298691869601e-03,5.837177497562948125e-03,1.044723759290490080e-03
1.353722624436520978e-02,2.188325323878070384e-04,2.553100674951380798e-03,8.483500120462983060e-03,-2.436629239035190478e-02,5.084768388066924008e-03,4.540468706656018011e-02,5.778569009064058425e-03,1.235060252718824013e-03,4.208154549753150529e-03
3.996447695425965271e-03,1.536165973557986108e-03,3.554006323029266709e-03,8.579500747526353638e-03,-1.836120358991825269e-02,1.399047830839168565e-03,3.426885561092744142e-02,5.783921568947259992e-03,4.148575981570380364e-03,3.032666578228492265e-03
5.840390944476031229e-03,1.036233750602934267e-02,6.165517155484318262e-04,4.490959347623481313e-03,-7.387034977162116635e-03,4.505827126538458974e-03,1.645369997589199440e-02,8.634028613234420030e-03,5.402278165280838436e-03,2.007240308460842785e-03
6.178251567235538110e-03,1.614471764953333971e-02,1.114206146738678724e-02,-8.687917884718912359e-04,-1.170675467626685652e-02,2.061471159452671169e-04,1.384398888488351173e-02,8.342428918840150490e-03,1.691960929023756310e-03,5.215603238690304580e-03
1.087825593650342676e-02,7.384566652018144731e-03,2.339049018524754289e-02,1.045913631811886839e-04,-1.680950716778426002e-02,4.396147836646617860e-03,7.637892121583636680e-03,2.846266674178345602e-03,2.397135142270244521e-03,3.923129963001190969e-03
7.521399876775517433e-03,6.191395651553134941e-03,3.393016685247335872e-03,5.047883326070943220e-03,-4.016661872090776693e-03,5.156438288092149262e-03,1.901530875602523013e-02,1.717350632340739532e-03,3.704207841034562031e-04,-1.118045162755284963e-03
4.908009686176835473e-03,4.821632500782629949e-03,2.241866447051739722e-03,4.463882727961034080e-03,-1.807642440084504141e-04,8.870053536694460714e-03,1.829726477354981853e-02,5.281904537514189868e-03,9.863227699774162246e-04,1.156451759334092746e-03
3.773001447043575988e-03,5.129421627553932758e-03,-7.911209074320381222e-04,-6.963855659139966481e-05,3.995930195190774969e-03,7.726371851206624390e-03,1.582498437703993427e-02,8.533207277718343016e-04,7.064919019055990526e-03,8.431781683618794557e-03
1.060630014065300913e-03,9.306230571159666842e-03,6.716331617298161236e-03,9.545023410962957811e-03,5.774918011446080607e-03,8.199486638482262474e-03,1.236411177775573883e-02,7.735383621565778203e-03,1.711276885483196822e-04,3.552093620482239898e-03
6.657708984276688828e-03,3.203064447748609715e-03,5.608098435353411904e-03,9.554007720781883609e-03,8.007949341871552218e-04,1.551350696121933702e-03,1.094582207328224747e-02,3.176057604125378554e-03,6.934252465138060137e-03,3.519386562642217321e-03
2.216862016733289233e-03,6.036809041175170663e-03,8.677079506317421018e-03,3.632272050324314785e-03,3.784047696473742846e-03,3.453329748194899906e-03,8.911622181942661577e-03,4.672200227130341062e-03,5.764114985973021847e-03,4.410537814860287283e-04
4.480878544041934537e-03,8.126848503018896386e-03,7.414784780734162001e-03,7.567647892546634086e-03,2.223958894022618794e-03,6.495069308756315669e-03,8.622040925370879835e-03,4.097884823480777046e-03,9.209403701230274705e-04,1.470822867194400375e-03
7.465591221868182401e-03,9.401203265092462208e-03,4.875206485870310115e-03,3.893382633323870697e-03,6.209693126939903537e-03,1.910235420329626935e-03,1.261052457436504610e-03,6.900092287501222513e-03,7.340412730715373344e-04,6.711948459697473363e-03
6.344051139181274002e-03,6.176076409795881218e-03,9.531550677647940978e-03,4.174608858822550193e-03,2.289888405743605287e-03,6.996037711397866919e-03,7.847025796511260254e-03,2.476870287043107105e-03,9.092934886213986309e-03,1.019628030162492800e-03
2.318797433346014934e-03,6.487647328012486128e-03,9.350887102422471980e-03,6.294571112165955884e-03,7.614795690694679993e-03,9.480938520722841101e-03,3.828694886524039182e-03,2.803121573101840939e-04,2.948592318802645187e-03,2.931045938547330743e-03
2.328486359811121652e-04,8.380159766259035262e-03,5.331747888918023787e-03,2.270020257464921976e-03,5.101776010383785552e-03,2.177457901413204651e-04,6.895015083212441710e-04,1.546891035838733348e-03,3.868209773257681467e-03,2.884713352591883410e-05
3.961510373781207493e-04,9.734906344245508603e-03,8.944306898402323847e-03,2.565995390869500997e-03,2.186179152031792004e-03,8.156281430794290466e-03,1.382605889741821527e-03,4.182333574390046695e-03,8.419992649662404877e-03,3.593332185457653871e-03
5.379630427466293094e-03,2.619922068986366755e-03,1.630233551361813873e-03,1.746821013878521126e-03,2.110010355307970816e-03,1.330244469052946832e-03,3.597289681211444066e-03,4.131395222474837543e-03,4.574077479877057539e-03,8.813716476522528986e-03
2.823746456429680318e-03,9.729267111182443237e-03,7.758975823628389001e-03,8.864564928550668771e-03,3.632973382256700096e-03,5.516672596504380854e-03,4.977553396345959537e-03,9.025392235479432965e-03,4.538950014873886774e-03,1.015270249569563124e-03
2.170202824686726171e-04,7.334919336589198861e-03,2.857229218931413555e-03,6.115516836137696935e-03,8.012970780498727616e-03,5.295994676500337568e-03,3.806143869367055888e-04,7.604557206683089550e-03,8.498040378805115638e-04,6.501203757885810203e-03
3.879613832088518927e-04,3.320681703848818878e-03,3.035073733258162199e-03,8.737997947378641633e-03,7.174174646996189439e-03,6.732192231027942994e-03,9.763408138304081408e-04,5.635369940243725208e-03,7.874439707938468702e-03,3.677740313768703383e-03
4.812788413762075952e-03,8.104320099701148306e-03,7.569819761359387195e-03,3.248053749020807061e-03,6.113607222422325418e-03,9.091534127232193604e-03,5.985866855273412265e-03,8.254695283011400384e-04,7.734231599954325201e-03,9.500784528683492783e-03
7.067266801916974230e-04,9.619999770455935767e-03,9.837108471888031044e-04,4.476741795925513225e-03,3.063534228563458226e-03,5.081315223126976408e-04,1.299619220526775781e-02,2.109437649472079880e-03,8.131163977470601267e-03,8.936732020214249728e-03
4.284771003989608709e-03,2.826051970531122046e-03,6.755487289826944686e-03,-2.988425478198999670e-04,-1.939413269591105590e-02,4.951973836143996194e-03,3.649510544574240817e-02,4.707138927467335171e-03,6.455248367995156285e-03,3.836941853522484423e-03
1.856458137293498902e-03,-3.480050385474905191e-03,6.497617707265911438e-03,3.907484820137498843e-03,-1.941933750142764772e-02,5.312326435498179213e-03,5.544886710034547389e-02,-1.020014906722107196e-03,1.718623737983752844e-04,2.735124463689390939e-03
-1.435869025282003261e-03,-7.543407447743106717e-03,9.515123959954961338e-03,-1.446584018731137192e-03,-3.162707644041547889e-02,-1.267638362815382306e-03,6.480273124879128155e-02,-1.617354007848356831e-03,-1.037806197359712615e-03,1.898735111274609292e-04
-2.011064695018677066e-03,-7.930347973914489770e-03,1.538273360589861860e-02,1.739828931233409733e-03,-5.906087235075031805e-02,-2.071111351812280309e-03,1.105053233486491121e-01,4.308305844024155375e-03,-4.870252643594794040e-03,-2.519108636367930944e-03
-3.793768407306316050e-04,-3.622783025545953453e-03,1.896725013213075572e-02,1.092423110055790528e-02,-7.017520452783818086e-02,-1.344576323551960675e-02,1.291114134228305010e-01,-8.592001684870195430e-03,-4.083103288399106932e-03,6.267681679013702026e-04
-1.085917108154131790e-02,5.654872281042101941e-03,2.324482378258092147e-02,1.007583718420486905e-02,-9.354311844545096233e-02,-1.519983295436962839e-02,1.531603098334292923e-01,-8.061178353092328819e-04,-1.219434440944493041e-02,-4.617492759558062231e-03
-1.862371466590931335e-02,2.617926017378017708e-02,2.837175263105269282e-02,5.904177585212824417e-03,-8.624003686042761019e-02,-2.165675764834266298e-02,1.530209803667848811e-01,2.359991994948492712e-04,-1.300425617835536049e-02,-6.587523327755483854e-03
-2.274010045305622021e-02,2.457711510314143297e-02,2.944750176986105084e-02,1.715871622295387202e-03,-6.976229491448858455e-02,-2.569574953815524296e-02,1.393022112260352829e-01,-6.307919153971904176e-03,-1.642303507741863650e-02,-1.561632313468447678e-02
-3.047138056090561639e-02,4.497304527099576371e-02,4.176509407248025357e-02,7.145437364273517092e-04,-7.027055759877674779e-02,-1.512204171339761455e-02,1.314790698191802276e-01,-2.543741564564370051e-03,-1.999529785294525824e-02,-8.102837652174506994e-03
-2.412385325236522313e-02,2.799034807036013262e-02,3.802588885109094846e-02,-2.686410477260737627e-04,-7.326529438139528505e-02,-7.077101204515524879e-03,1.196009091350093284e-01,-3.140700281713895876e-03,-1.902740607711859988e-02,-1.609238045356366914e-02
-2.474405057478736708e-02,5.946771221040914740e-03,1.249673954085648263e-02,2.638837848355317633e-03,-3.752710380628910408e-02,3.838721072029094294e-03,1.154555837034156179e-01,-1.130427113480088862e-03,-1.378520661541711087e-02,-1.452927163539004078e-02
-1.593926004001712179e-02,2.999542659233422198e-03,-1.394301981117664416e-02,-8.333011939302588378e-04,-2.327780221760940987e-02,1.392261441875315697e-02,1.134663495780825621e-01,1.896495452327363277e-03,-3.461100602023136578e-03,-4.017856951015790629e-03
-1.319621272069192684e-02,1.883565831352885861e-03,-3.045858025988330484e-02,-5.870422879300376574e-03,-8.325401575085836225e-03,2.081744082853167858e-03,1.050929759249389639e-01,7.352183791425968146e-03,-1.096566534135483793e-02,-3.585477350440135352e-03
-9.123573393848793261e-03,4.057925463859359330e-03,-1.487458301402909584e-02,4.107538226723980723e-03,-2.913441150647808585e-04,-5.011403690865263647e-03,7.644225508823120074e-02,6.430979165413020816e-04,-8.441743281391396925e-05,3.284051725556925375e-03
1.275724389553871798e-03,-2.609036571974479839e-03,-1.516214993789711044e-02,-4.017480102392209732e-05,-4.816312161252694901e-03,-2.935215794458321745e-04,6.415864931329666454e-02,1.845312087665228803e-03,4.885914418651261977e-03,-1.193740616413583797e-03
4.100497212307336464e-03,1.028432726767813813e-03,-1.065785105738169432e-02,-9.459551049936678994e-04,1.871921049724746154e-03,-1.863286450374098931e-03,4.221218620795824661e-02,4.087685366289035317e-03,-2.836543893944911549e-03,8.290842178359809217e-03
9.076610078142702091e-04,6.802400985257818153e-03,3.238158082071471242e-04,4.527886377507926350e-04,3.223081692772904617e-03,3.594818999509810480e-03,2.015542140343374103e-02,-1.909044103737844066e-05,1.581103596585083950e-04,8.654312900645890275e-03
5.519453034635445239e-03,2.407763172612317065e-03,1.258477286406925987e-02,6.519547703445627805e-03,1.474361493654720821e-03,1.298685197670685319e-03,4.375712074322118256e-03,5.334181609972107885e-03,3.410609297095966962e-03,4.484501699428587208e-03
6.381936926148358037e-03,5.480502461776966434e-03,5.235597598451428858e-03,1.155972233844883951e-04,1.790820606461123550e-03,9.164049404892722281e-03,-1.286059735893824597e-03,4.920175698930038567e-03,3.018959940722173215e-03,3.337046428323057774e-03
2.771791896922327653e-03,3.209785054877331133e-03,7.201437226402057461e-03,9.149874511238120529e-04,7.568261143009614306e-04,7.219355285374074414e-03,7.008283650406814044e-03,5.182630804827825614e-03,2.969037331946333593e-03,9.936221589660133510e-03
9.576047194656153033e-03,6.390185599562118318e-03,2.232120013143069730e-03,2.023826535613313521e-03,8.804255976421870855e-03,1.277646717989777670e-04,3.300426107060624656e-03,8.664453580748228065e-03,3.281735049619666483e-03,5.960009708413835892e-03
2.076511008857272623e-03,4.641119211118553169e-03,6.730985476534878924e-04,5.683015704187555301e-04,9.375124429573234277e-04,7.193158378705663894e-03,5.778976547398740823e-03,6.460622200710815222e-03,1.618340352284726143e-03,5.224445105118474993e-03
2.355952519341911622e-03,5.017561068542955409e-03,7.210278122758227715e-03,5.972573378187124096e-03,3.864350852770059765e-03,7.497462736355431367e-03,9.882023549910379581e-03,2.651600187729650452e-03,9.070848381357262888e-03,3.457178610760895839e-03
5.045912555804628503e-03,8.462026406765641232e-03,8.039324435830939516e-03,6.900251854593318461e-03,2.598139770190109350e-03,8.632630718341909037e-03,1.705082369029068930e-03,3.934810154794944614e-03,9.457435110257818647e-03,9.330028207785551544e-03
6.833893296253209203e-03,6.550139349729782422e-03,9.408606258639767503e-03,7.712902084886148237e-04,4.419780857602955554e-03,8.314834745029642043e-04,1.618928516219851101e-03,5.350516377040047226e-03,9.262390994432219415e-03,4.693153957501389737e-04
7.367851303959286474e-03,1.662432948968441679e-04,7.338347468017125327e-03,1.481838337971027111e-03,7.285679249133583321e-03,7.661359667813811593e-03,5.795301182823394542e-03,5.778121651320963954e-03,5.576270529266727158e-03,7.373042514321356995e-03
-8.851483058299644893e-03,4.842001845269251585e-03,4.120074626673993884e-04,2.166362205382027506e-02,4.336621022857116946e-03,2.081850652864558962e-03,6.349653721600731666e-03,2.752815180774083347e-04,1.606279766510202486e-03,3.575511518381198177e-03
-8.160860651416501285e-03,2.578211561411998445e-03,2.560479655233321647e-03,1.680490579495873965e-02,-1.750405737659183752e-03,-3.844336541990958471e-03,2.647531646899031060e-02,1.032498638061318591e-03,-1.412287252639897201e-03,2.487943879142050880e-04
-9.871921462444038439e-03,-2.802640484475019469e-03,1.495641450951129547e-02,2.132548356531260847e-02,-1.955101293208771213e-02,-2.892126239090461043e-03,4.014078586027866602e-02,1.742198892232794082e-03,-4.501884708457248863e-03,2.385744426577242469e-04
-1.356223229976053326e-03,-1.339388081150649085e-02,4.447660745236478586e-02,2.877490246163273355e-02,-4.621156314386873354e-02,-5.539717930914028581e-03,6.651117616803360610e-02,-5.237553857057030207e-03,-7.478320112271546333e-03,3.978114124984299428e-03
-2.397754075791773409e-02,-2.353188415127215050e-02,1.176785492740255457e-01,2.043398802691251404e-02,-7.917078919642667190e-02,-1.641740376634241716e-02,8.422295708225249755e-02,-1.274070088787471709e-02,-1.983522238030135942e-02,-5.187269535530053023e-03
-1.916851594360827540e-02,-4.095686415013170822e-02,1.440797732892912242e-01,3.935242528148510943e-02,-1.039541255678572002e-01,-2.272273727330739387e-02,1.238658917618554178e-01,-2.192449744804931058e-02,-3.210328620562252072e-02,-1.704618792489545967e-02
-2.581311405072769793e-02,-6.635987253707902045e-02,1.858214005144451786e-01,9.676232832227477099e-02,-1.370374262956181310e-01,-3.720630961519492269e-02,1.338583525265785723e-01,-3.522361274942183151e-02,-4.389327900425184226e-02,-2.482964628594410555e-02
-3.570991547897485463e-02,-3.928632791423027071e-02,1.928259980717007827e-01,1.387258099002417200e-01,-1.825940563160192986e-01,-3.522484780671877175e-02,1.183384504510745922e-01,-2.858668982980445972e-02,-6.110700453212068728e-02,-2.903854829327997752e-02
-2.684069464450648465e-02,-1.223402917972600881e-02,2.021377651190671976e-01,1.401783139089361752e-01,-2.141069875724968541e-01,-4.035949202519885370e-02,1.434181458937860143e-01,-2.428097687001825114e-02,-7.053412228711058996e-02,-4.555434288653522484e-02
-3.793967459147547933e-02,-6.873599074781292471e-03,1.505882510971482957e-01,1.790596091988305161e-01,-1.867434608803112128e-01,-2.463278661472239478e-02,1.525003631105467661e-01,-3.350739316711230653e-02,-9.352150097073255730e-02,-6.200092984439675714e-02
-4.572951728126277426e-02,3.478795658674321833e-02,1.059092019778169746e-01,1.689902310064926860e-01,-1.790400764302628733e-01,9.300825101279034182e-03,1.522223064860398212e-01,-3.090279550183723523e-02,-9.684567846162178695e-02,-6.618066744060024931e-02
-4.317947273021769533e-02,2.165434465601724992e-02,1.029672185984429750e-01,1.453870799489097865e-01,-1.513752877785586870e-01,2.327111298664594902e-02,1.438045426897680001e-01,-2.536731797807552716e-02,-1.028691377242308552e-01,-5.886187796756774809e-02
-5.923171807044892712e-02,-2.545262462708448511e-02,3.981600783468517563e-02,1.344570250540943201e-01,-1.152437727248449978e-01,7.179418481056684676e-02,1.649545416974563250e-01,-2.376958645356618341e-02,-9.498490158666768324e-02,-4.146095184025440361e-02
-9.373187064127345980e-02,-4.741702674938192558e-02,-3.849397895790151319e-02,1.010384215849999545e-01,-7.113759535148493629e-02,1.038461867877899097e-01,2.019507284624276755e-01,-2.047710775840624539e-02,-6.602940005115015554e-02,-3.121001139340333005e-02
-9.485805054182931684e-02,-3.744352085367780303e-02,-6.964861141273309686e-02,6.530104634542302500e-02,-3.012088193095971075e-02,9.076276762474963511e-02,2.136221453778549551e-01,-1.219410403568672516e-02,-6.751960160303382974e-02,-1.997717030589856238e-02
-6.657333198442443034e-02,-2.493688355373171670e-02,-7.309642902750712601e-02,4.139587278302173101e-02,-3.444823878270267779e-03,7.875132896061957932e-02,1.607885729701074018e-01,-7.033090983592333104e-03,-4.368824708189411599e-02,-1.885121689985874358e-02
-5.202822271291594053e-02,-2.235097661456439400e-02,-5.384710991865505197e-02,-1.388006237613240330e-02,7.588970666518003554e-03,6.680285857865723986e-02,1.502133117481394831e-01,-4.311249016467308843e-05,-1.689911776556660486e-02,-1.127177047253513642e-02
-2.998069224587240553e-02,-1.841425287500282615e-02,-5.203718615463159142e-02,-1.738699545633317842e-02,1.029755561163135831e-02,3.654732174761252811e-02,1.240804160072350171e-01,5.991096032997762950e-03,-2.246784400705094040e-03,-3.784112430782614941e-03
-9.138704597169616806e-03,-7.846797219264520576e-03,-2.745008272982733116e-02,-1.222025107161836370e-02,5.614728806844137762e-03,2.477093882123853220e-03,9.370108875541936777e-02,7.767290183080545994e-03,1.266206140577513968e-02,6.094815988664021265e-03
-1.151930585688372378e-03,-1.810171288619407196e-03,-2.803552803696210665e-03,-3.881452768288595149e-03,-4.917432737452779116e-06,-4.278688491175074680e-03,4.894162636384623288e-02,8.572936033246974369e-03,2.168370529098363839e-03,-6.135273937786204113e-05
1.207432723562482780e-04,6.340273651386034957e-03,7.691018445532775590e-03,7.535015323702052084e-03,1.604460161500455089e-04,6.417245070469225314e-03,2.542041694338620546e-03,7.466932509875012780e-04,-4.267502882297330414e-04,2.273946376095806621e-03
3.155469746407225679e-03,-1.246539155666873556e-03,6.378528077018049552e-03,3.614961849304201922e-03,7.170342063551853572e-03,5.490435805991578273e-03,5.429094893009694597e-03,9.286070586026132570e-03,2.218524568234615107e-03,9.250259146667527341e-03
6.965721896654696044e-03,6.093532873946817287e-03,5.401991034798938988e-03,2.373808714429727004e-03,5.534515960565370568e-03,1.362286586733768654e-03,1.015324129502387287e-03,8.219041806837652092e-03,7.128705597492107811e-03,4.078221762265274268e-03
8.958939719874544488e-03,4.980059480965137730e-04,8.622118960432047924e-03,1.297533101302241788e-03,3.579903822298992084e-03,7.787566124476522078e-03,9.782089086718001592e-03,1.764856320064105404e-03,2.376060663665535710e-04,5.839191411264662603e-03
5.334609633962586993e-03,3.079520813465901931e-03,2.438286681529873347e-03,1.956355240791467828e-03,2.691972548062999439e-03,1.588594836259303914e-04,1.453985479713581878e-03,4.362495161146242272e-03,9.065574223428053691e-03,7.795814328946548688e-03
1.634017490680772251e-03,1.288495847732716668e-03,7.476488997079010386e-03,2.960066154140278145e-03,2.389070256122117521e-03,8.682017105615166125e-03,1.940995566067712933e-04,5.551076706156909263e-03,4.612183311932596674e-03,6.335502163684027938e-03
1.389952587475662372e-03,3.431441832496074599e-03,2.294506487984362096e-03,1.024419574515775429e-02,8.923708334061761574e-03,3.808752321084335219e-03,1.039634930925512242e-03,3.420804185408493083e-04,7.741903764149752655e-03,2.725033461108838147e-03
-5.602672374105919801e-04,5.168946515540417432e-03,1.986797705344855818e-04,1.925162662094267660e-02,1.312939507352022840e-02,-2.215695412260863199e-03,6.584601136253379929e-03,5.860878130079500044e-03,-6.976677949251676968e-04,3.123983154624898270e-03
-1.221039692196680161e-02,1.241719716148273478e-02,1.401662436032283417e-02,5.467492367094761718e-02,1.371640416674903620e-02,-3.068951116370080209e-02,7.962493274651713656e-04,9.670476228093897401e-05,-2.363719427028067657e-03,4.802236550274096780e-03
-1.545270605066427320e-02,4.907087312906407463e-03,3.795736781193864012e-02,8.683393364242417145e-02,-8.999539008642530244e-03,-4.482843153760450450e-02,3.996753925462252430e-03,-3.968680545914358461e-03,-1.485480323963130241e-02,-3.157925582755130404e-03
-1.817810521583099193e-02,-1.625702299229406234e-02,6.432871424473474153e-02,1.217752094121187928e-01,-1.106766031704269765e-02,-6.083045660963520146e-02,1.845135273339670173e-02,-6.913331949448528468e-03,-2.592237218359490919e-02,-8.790227742614120654e-03
-1.260920503947353041e-02,-3.196180487692383554e-02,1.067336420971616157e-01,1.650262399108874400e-01,-5.150659754917183419e-02,-1.103967701842040738e-01,4.724376284894406253e-02,-2.658121206715413631e-02,-2.719043022099064399e-02,-2.003378582238031155e-02
-1.886639569758854357e-02,-5.384443453722263795e-02,2.151170475816247818e-01,1.783929467264087354e-01,-8.775919278572173743e-02,-9.692952784585871784e-02,4.023312816692146271e-02,-4.985674866723006221e-02,-3.264788767078202064e-02,-3.353063372366328621e-02
-2.864039256748826534e-02,-4.749042566074116595e-02,2.307096231240682305e-01,2.212709255712782819e-01,-1.486368054516147286e-01,-7.333080485173250340e-02,5.523925097699949882e-02,-7.556777530588577874e-02,-3.805838215424945520e-02,-5.517001430177410209e-02
-1.259687276010827695e-02,-5.010385339391140030e-02,2.625623911497498297e-01,2.573223402685028138e-01,-1.780365308721699458e-01,-4.501765172144276544e-02,-7.523452174890715542e-03,-9.238221509443379775e-02,-2.116449777839589375e-02,-8.043123104946417468e-02
-3.359984952275685277e-02,2.688380074121027655e-02,2.804578317639500051e-01,2.660085246835696138e-01,-2.052992283634909876e-01,-5.972206885673238957e-02,-3.272896099179782581e-02,-1.077804994432453034e-01,3.117672364120133502e-02,-1.099615543621887681e-01
-1.646726195515393855e-03,1.094676574744988667e-01,2.081637358427682327e-01,2.675271038118641198e-01,-2.010786902106892760e-01,-1.068634470534204906e-01,-2.578210345046943672e-02,-1.342751919899498048e-01,4.972802549522881838e-02,-1.349296505091198140e-01
-1.299828287165816568e-02,1.307991249243440623e-01,1.880256658082360421e-01,2.309635137969099916e-01,-2.165432741473843070e-01,-2.252959585979346507e-02,-2.480669538920312472e-02,-1.448468836209655386e-01,1.044529681077368544e-01,-1.745042274648990754e-01
1.370495035476605901e-02,1.201978818275975941e-01,1.249541409931042152e-01,1.990703021179045240e-01,-2.124033145149918644e-01,8.614155452852531591e-02,-2.427450630613471952e-02,-1.484423993120439766e-01,8.982896505143436738e-02,-2.062500223106430719e-01
-2.901333302283696375e-02,6.328880039664874779e-02,1.145286428191825551e-01,1.748393347363617345e-01,-1.506552471756031353e-01,1.261645730987488168e-01,5.925547095330964409e-02,-1.411040399660554723e-01,4.742138729473268505e-02,-2.206802795374410986e-01
-1.488341278301785232e-02,1.104272279144272520e-02,8.821684360260054203e-02,1.121648470226492139e-01,-1.096157506572926349e-01,1.447421774886098744e-01,1.310338634723427209e-01,-1.186794123031747888e-01,-2.472012439276581597e-02,-1.782714503485806623e-01
-4.641468143745994951e-02,1.700913060135363780e-02,1.934612733971399420e-02,1.161242283806672160e-01,-8.101483443239815285e-02,1.425265404977144879e-01,1.646694434652556660e-01,-9.064411215870576966e-02,-4.430510942081000714e-02,-1.348927901947841457e-01
-6.088450059430711159e-02,8.396849792675656343e-02,-5.642210164783562076e-02,4.355743685095028739e-02,1.646574686376524668e-03,6.510252044267923754e-02,2.091585257884761018e-01,-7.107995003747565044e-02,-5.795138714497687776e-02,-1.143196801448876920e-01
-5.880825426852454019e-02,1.048426117163154259e-01,-8.585081223912593984e-02,-4.664423803542701308e-02,4.924593665428036310e-02,1.386094357548853934e-02,2.375266120026122141e-01,-4.639952517184264130e-02,-4.176586994354687665e-02,-7.839969090458902279e-02
-5.770290310561993624e-02,1.034785965606404290e-01,-1.235985677611027428e-01,-9.062212265176504411e-02,5.517845200171452025e-02,9.480346631983095629e-02,2.178462779432940588e-01,-2.368785322350890760e-02,-7.575590229292544775e-02,-5.693082456639386030e-02
-4.100062144820085241e-02,6.549023516708418757e-02,-1.211997720947797091e-01,-7.634307723236892496e-02,7.417534677406903421e-02,9.449831002442213301e-02,1.969789584765551660e-01,-1.291412432966329051e-02,-8.412790370499749482e-02,-3.162799677922099872e-02
-4.285147319962122336e-02,3.136133006350576291e-02,-8.305418142212186994e-02,-6.661028911261365759e-02,6.081790138658026840e-02,1.002409818577876116e-01,1.291326789396107233e-01,-6.669051131335930471e-03,-5.964756560239947020e-02,-1.123690690604691941e-02
-3.539714424175714746e-02,-1.629450591691000011e-02,-3.543392289396711525e-02,-1.206845908954486818e-02,4.141171477526149614e-02,7.628117570314685292e-02,3.882457952468466866e-02,5.400639171173530692e-03,-1.099009836440219615e-02,1.610438905752765995e-05
-3.115678303792149186e-03,-8.755588374790174502e-03,-1.468701092517035690e-03,-1.187212500246297934e-03,6.525093452139583625e-03,2.748967201477653041e-02,1.063603656407467735e-02,3.367794892199827816e-03,5.728436862925465403e-03,4.038571949869488968e-03
5.301223910315922341e-03,6.221463645946739666e-03,7.100737977283524266e-03,7.595152104116965246e-04,5.211174216827420443e-03,7.769231195770272963e-03,3.736953794759064439e-03,8.682799124064484106e-03,1.053950009438778777e-02,7.701450104438024727e-04
4.054706079415471530e-03,7.169756444463914677e-03,-1.742349460145997989e-04,4.336701995552911040e-03,7.058827901712821755e-03,3.432878909108283763e-03,9.762564359508060091e-03,3.846773127514126808e-03,7.986679264766214162e-03,6.730778563833408543e-03
8.222913425082861369e-03,6.595008369194798291e-03,3.540814731537328310e-03,8.936856403711669963e-03,1.372341682461253320e-04,6.759723827582060640e-03,1.578118816069618013e-04,8.682943410438281927e-04,6.782146618317159807e-03,7.978176185026652004e-03
7.578676897517597037e-03,4.707355048434319796e-03,7.373280846577806406e-03,4.927110145879142269e-03,6.981640323539864065e-03,6.637275486875974205e-03,7.858610032929301895e-03,2.880403270482304653e-03,8.800404651219695742e-03,2.333477403863026687e-06
6.631805657673611049e-03,4.235029828305487964e-03,4.998932770346973913e-03,8.826741265351932195e-03,7.045922967598386433e-03,6.029147070164113126e-04,3.303023809174824351e-03,9.178990027162815118e-03,1.419287119289241658e-03,1.729669121199795294e-03
1.311645743834740935e-03,4.136670099121037177e-03,9.564558432264310198e-03,2.205604577200764513e-02,9.446631160720123446e-03,-1.551144822233221790e-03,-2.213869145714187064e-03,5.555174706582045874e-03,3.080720445303091175e-03,3.797507300370286682e-03
-4.202827330911360938e-03,1.142178650081739251e-02,1.126477900177753726e-02,5.711089792152149180e-02,1.354567970955126641e-02,-2.948168412997223889e-02,3.585742766795906988e-03,1.789494914823168371e-03,-4.637807921087410204e-03,-1.958094566554433209e-03
-3.105203313177451463e-02,1.653805214148865166e-02,2.932984197816834726e-02,1.245642635317375235e-01,2.923697695946288200e-02,-7.684555698474193619e-02,-2.079940643146450593e-02,1.403587022702177875e-02,-3.036571988069359379e-02,-1.014287138192163616e-02
-2.929562970428509910e-02,-1.112006948228082010e-03,7.165899317454356432e-02,1.878897688762630747e-01,2.803288130646126863e-02,-1.130904013555204396e-01,-1.548687956563178647e-02,4.661339691934903058e-03,-4.693670991657751534e-02,-3.102353047880788972e-02
-3.844176788622011287e-02,-3.844055385674113867e-02,1.264850431763995531e-01,1.969994268916623603e-01,1.964802336197430874e-02,-9.938105413006678712e-02,-1.391236796332254166e-02,-3.110054597315430307e-03,-5.435087113919829377e-02,-5.835654491861469451e-02
-4.284151028658299276e-02,-1.023634686626108264e-01,2.025242295695547645e-01,1.812591400108425066e-01,-5.022301966898061465e-03,-6.784664994564060247e-02,2.337513325359841590e-02,-8.220795672794390546e-05,-6.163581745087197417e-02,-8.648031400396133384e-02
-3.520585084455226527e-02,-1.163744627711628954e-01,2.358501193217479031e-01,1.813773393033908388e-01,-1.587192568707602308e-02,-7.679427793419892241e-03,1.498152111779561075e-03,-2.724877861391692552e-02,-4.503764679726357523e-02,-1.227418817139496604e-01
4.556335603565588900e-03,-9.212425912992544541e-02,2.473023915395247962e-01,1.920574302172698977e-01,-7.401534021133288066e-02,3.604152122101628164e-02,-3.430612794422926298e-03,-7.885848930585984129e-02,-6.463139182305463470e-02,-9.931606831503815569e-02
1.870055433856430624e-02,-6.948777162838476462e-02,2.573524885979711629e-01,1.498630597388150021e-01,-1.161143233150058046e-01,4.753917886890595551e-02,-1.306488833684548989e-01,-1.399739746152929010e-01,5.077282604724817072e-02,-1.500311877422975601e-02
2.462552899419240965e-02,9.080494076036995862e-03,2.410794028383340948e-01,9.605755023815766569e-02,-1.476648156911856413e-01,-3.855995208708598229e-03,-1.065263364901145177e-01,-1.860020411043207256e-01,1.344044279056752222e-01,-1.397715538803206980e-02
1.209075224009816818e-01,8.971046896622199285e-02,2.277218668941170809e-01,9.217640802829703273e-02,-1.756904217159563075e-01,-3.402669047493128707e-02,-1.333247857225588195e-01,-2.395705438681854926e-01,1.211290714706557275e-01,-8.585003412956397281e-03
1.502369046589433210e-01,9.526660767427914955e-02,2.121046201799517694e-01,5.429047851782740214e-02,-9.731667963703828639e-02,-4.749041569541787022e-02,-8.041533349476705228e-02,-2.672641443079790124e-01,1.460637050578457441e-01,-1.225587039257775984e-01
1.561996838871455018e-01,1.031552864696810845e-01,2.210322079287488917e-01,1.028734832832666896e-01,-6.037076858926571782e-02,-4.989383846432444980e-02,-8.768066274948674299e-02,-2.798321939573644168e-01,1.322149892382266656e-01,-1.779551315744626050e-01
1.361883417474644142e-01,-4.195001239662576528e-03,2.525916314692130404e-01,1.351736426198202334e-01,5.463124498039476605e-03,4.568768703024203570e-02,-6.806375776712920989e-02,-2.763270833822029648e-01,1.453714875433114451e-01,-3.097630156648934485e-01
1.656515515967466323e-01,-6.007807958934730658e-02,2.250383549438121911e-01,1.242623108538631199e-02,8.181770103907144709e-03,9.456055148084389905e-02,2.331096956387582880e-02,-2.786308855813820484e-01,1.567212158143046485e-01,-2.976550407753071337e-01
1.290484841296131446e-01,-6.418169219690766274e-04,1.308423224083508918e-01,7.513380360624312589e-03,4.723264270207547938e-02,9.398652960523955213e-02,1.148930777201785242e-01,-2.519925672700226715e-01,4.270582249551775622e-02,-2.733006539188701511e-01
5.433247829277867980e-02,7.685569398121183671e-02,1.527760295569817461e-02,-3.915626191803478658e-03,8.242388020946922467e-02,4.086263758526832712e-02,1.696463769634815877e-01,-2.122866413389679630e-01,5.999013770385547284e-02,-2.229781060607294307e-01
2.047827402050801508e-04,1.398474771809189721e-01,-3.200954356635495046e-02,-8.534641117567373647e-02,7.868428887770689828e-02,1.084922699217552716e-01,1.569806144653935753e-01,-1.709031413607111083e-01,5.119041102072503790e-02,-2.000346668518785676e-01
1.325245494980609347e-02,1.910290077529933350e-01,-5.512387441980046154e-02,-1.469625082333941846e-01,9.921739941414572939e-02,1.198493765329411848e-01,1.351581616412109998e-01,-1.160194897761546717e-01,-1.637513762213212848e-02,-1.683648331927284914e-01
-1.260436435828822706e-02,1.580417834763341023e-01,-1.009236839339666264e-01,-1.518363176797800085e-01,1.562316344019407388e-01,1.903104888281043350e-01,1.097176914171280188e-01,-7.509329551753506082e-02,-7.954982798141420341e-02,-1.357403121490972919e-01
-6.234056951209472619e-02,8.314424197184346055e-02,-1.087208437726059629e-01,-1.369448104721373294e-01,1.896269740558434724e-01,2.045238608071943132e-01,9.978043227457486508e-02,-4.484717691604974549e-02,-8.943389433108658859e-02,-8.390709788972702809e-02
-6.679393295579061363e-02,8.519250862320474488e-03,-5.996603536502016774e-02,-5.029217479164223986e-02,7.955600542679872045e-02,1.776691032568575856e-01,5.013019724402613397e-02,-1.215451642638999685e-02,-3.626753515358836083e-02,-3.659867948060515491e-02
-3.409257376869110484e-02,-2.387376652028178753e-02,-1.125332556248491607e-02,-2.373713743338042113e-03,1.211721774066408866e-02,9.548298456986679950e-02,5.850805429441757050e-03,-4.441580489224115739e-03,1.255112307134728135e-02,-7.134447489825108783e-03
4.794856402163308307e-04,3.131217008376335157e-03,-3.094264080942067500e-03,3.929055504068940975e-03,-1.147201272419884214e-03,3.447165327371037175e-02,1.230257739966466105e-02,6.205220707668490654e-03,6.702922279614878173e-03,-3.104174136588976692e-04
5.918176687225364541e-04,5.347322457320054928e-03,3.059410515819702744e-03,3.945914605155734570e-03,4.268714970090950987e-03,3.358482373723414502e-03,4.906962372117108784e-03,9.599608609308413545e-03,5.171141906819869821e-03,6.284768217516322267e-03
8.685154327536932090e-03,1.840311447918664472e-03,3.579154217844440159e-03,1.186237242977496989e-03,6.400602902275973581e-03,3.960797891136924945e-03,4.554283637245687757e-03,9.068436982965158086e-03,3.057199423369494438e-04,7.149833835833749839e-03
2.213922330482642775e-04,6.189195969742002177e-04,6.646958382190865447e-03,5.796607876019587227e-03,4.580348931922295121e-03,3.398865194439757743e-03,5.254227871698315296e-03,1.728251161989485937e-03,3.804476191692797264e-03,3.757613698358311209e-03
-3.288616709625269744e-04,-6.040123499710201710e-04,3.118265305035689255e-03,9.741553141551938591e-03,4.521347845374897034e-03,2.267914650998968922e-03,7.290282603544652983e-03,6.727041543890946614e-03,8.456091437272900829e-03,-2.193026129924508752e-04
8.530359326343992681e-05,1.024714423633941128e-02,1.278110791239668413e-02,4.143082489556376008e-02,-3.221814986776618678e-03,-1.662014551523004202e-02,-8.879386778658846999e-03,2.545712534167064722e-02,-6.007607239216543153e-03,-1.565581089484565508e-03
-1.366545253418200573e-02,8.055833009923145296e-04,2.363244221055297439e-02,1.060977627416967439e-01,2.038476484606710146e-02,-6.754550245386983787e-02,-6.722012346826673583e-03,1.402254103054210999e-02,-1.947775469359319667e-02,-2.015469984780951518e-02
-2.714954702293874769e-02,-1.148432885258495947e-02,6.262729330983193843e-02,1.650649917975076653e-01,5.602724785204818425e-02,-8.852510875572852656e-02,-3.266607656657995878e-02,3.802122139615805863e-02,-3.760918758388540756e-02,-7.231926831292261049e-02
-3.074614654443045755e-02,-3.714197147522729781e-02,1.173591378144857866e-01,2.100530411922550689e-01,6.219796046999016836e-02,-1.022976118386035027e-01,-5.225808828211421508e-02,6.075930202558794957e-02,-5.993743980868809773e-02,-1.088443104331936612e-01
-4.683554814273063055e-02,-9.351173409272330039e-02,1.697774353128465308e-01,1.659126689459171633e-01,5.769887134013645252e-02,-5.315655885672011804e-02,-2.949194811912171643e-02,8.573687408469719828e-02,-5.473952997023707329e-02,-1.573295677334396736e-01
-6.020350054255858840e-02,-1.551170800302978936e-01,1.724765618245836241e-01,1.520181595396196683e-01,2.956568272729597630e-02,2.392159583803508613e-02,-2.887639429216798045e-02,1.101417675746444863e-01,-2.920766079299510522e-03,-1.773294082740153599e-01
-7.698514869378146608e-02,-1.898152494936526102e-01,1.711491807076580274e-01,1.854407568200604761e-01,5.710946875691118524e-04,6.751184230188332636e-02,-5.693962318032779607e-02,9.341840155008318547e-02,-6.695568957527040128e-03,-1.269433001550642759e-01
-3.293837227631518216e-03,-1.633892561916258368e-01,1.349351418785928736e-01,1.702647648782559253e-01,-7.361761813983494496e-02,8.075376400376182984e-02,-1.279156074552738886e-01,9.779017672938794536e-02,-1.296771641661014982e-02,-5.493472385310319006e-02
1.914312930010448818e-02,-1.037536613514071643e-01,6.625688068172599920e-02,1.053405297716775435e-01,-1.579260030372953982e-01,8.330643447649954680e-02,-1.327298741733537735e-01,8.017762846333383042e-02,4.160468100745207815e-02,5.023421240584972913e-02
4.006956660996657121e-02,-8.109342313894817023e-02,6.298583961573767098e-02,9.862575660435431157e-02,-1.961900230602423578e-01,5.308238167405115310e-02,-1.159953971195973460e-01,-4.674919241242888115e-03,9.559477634441647387e-02,9.603628658147503327e-02
1.189377491319020819e-01,-6.391114994135504990e-02,8.991686846932883670e-02,1.690510849502363522e-01,-2.416136890595163567e-01,1.655858239521772537e-02,-1.598664183746712208e-01,-1.077430013930704145e-01,4.360245932888317383e-02,1.927619975240892625e-01
1.212799127055700782e-01,-8.613702617165749920e-02,9.991928415626158411e-02,1.318381569979041323e-01,-2.655048570099164951e-01,6.460029389661653410e-02,-1.381385945527278392e-01,-1.387732926040826098e-01,4.382835125874853799e-02,2.146449373820479567e-01
1.111917968243122667e-01,-1.496846121022673004e-01,1.052205607820388827e-01,1.435115145893894051e-01,-2.595158804524331231e-01,-7.827454190361996314e-03,-1.100270264145892518e-01,-1.069216327204936812e-01,1.747234342168697274e-01,1.636230568599009727e-01
1.682292221109573382e-01,-1.867992342716618959e-01,9.530859261169752350e-02,1.588269030349195865e-01,-2.130306837732413028e-01,-1.618046373526393564e-02,-1.358725412852077874e-01,-8.793651824413728502e-02,1.085964211275157743e-01,1.534488432605088382e-01
2.035821379707216106e-01,-1.823629222072665479e-01,5.779590259407065000e-02,1.021156141284962349e-01,-1.579664456281658913e-01,3.552619694576966691e-02,-9.994307721513696896e-02,-9.580756348304264591e-02,8.677691057317638013e-02,1.168342034594288814e-01
1.926132583463278092e-01,-6.523341689123744735e-02,4.141482783125488565e-02,1.160436788755377785e-01,-1.440176003238197444e-01,7.328556761227091043e-02,-9.119678667125261096e-02,-1.442340486261343424e-01,-1.299601072892796541e-02,8.688000738326284722e-02
1.186679595551355798e-01,7.379672402251476258e-05,-1.935921902157540161e-02,5.145154143419028263e-03,-3.506860593314974073e-02,1.006229077817555051e-01,-5.711503201158946857e-02,-1.292957520840673780e-01,8.811757917879269042e-02,-2.636887451301064833e-02
8.163565225901991962e-02,9.597587106109362054e-02,-5.919244459185914187e-02,3.520649033215023007e-03,-2.333452262663399460e-03,1.093059386242726250e-01,-4.741042024218927037e-02,-1.086144237974645960e-01,5.875578603299237007e-02,-8.778551781005933252e-02
1.196972961016836007e-01,1.049521025380741740e-01,-6.745711896889348969e-02,-4.795832540585352050e-02,8.554315602604366242e-02,8.270728494851824208e-02,-3.151106562173849879e-02,-6.548307101020688081e-02,2.380697269922204401e-02,-1.748027777792292570e-01
1.030216469160155496e-01,8.067173684672322709e-02,-1.065827593780787480e-01,-1.320667420587656182e-01,2.322370779878384639e-01,1.941691001802317573e-01,-1.958192295854905771e-02,-7.186808116554579962e-02,6.863248913891151735e-03,-2.157934764010276951e-01
-3.114108507899430653e-02,3.105557384452769382e-02,-1.655566141869467822e-01,-1.518683733138615211e-01,2.674065128553112514e-01,3.175965338101018332e-01,-1.062635901460552527e-02,-7.062771052995306387e-02,5.576934698790116107e-02,-1.799017090003665609e-01
-1.103034952778112615e-01,-1.772049413607657692e-02,-8.425301750354122210e-02,-7.615840137706261781e-02,1.106618255759545949e-01,3.692364656095022957e-01,-9.458327822929196022e-03,-3.451942291147048342e-02,8.697869596422229746e-03,-1.023012055412645116e-01
-7.475675706986130431e-02,-2.475524973646525684e-02,-2.539007897689977630e-02,-1.844099775079334480e-02,2.317416307647574003e-02,2.156846798319858316e-01,-8.968151391940041781e-03,-2.033282929133178873e-02,1.295904176582670340e-02,-3.874765640493502139e-02
-2.235871253419268942e-02,-4.503030412747860076e-03,7.961768507933625208e-04,1.967412867235681685e-03,1.039813580473389516e-02,7.359946984013099325e-02,-5.234832372117439320e-03,2.138789011075740900e-03,-3.290371067273766686e-03,-7.397167394500341747e-03
-6.065632434553676518e-03,-4.644710249753259985e-04,-1.193008505402645204e-04,2.068758904189760197e-04,8.051312644627781415e-03,1.259394133434420596e-02,4.186988733149593980e-03,1.333995840119337958e-03,4.204835190133380043e-03,3.441634042828550441e-03
3.668927527231192077e-03,6.184529855631331653e-03,1.750853807995178925e-03,1.325661211211877312e-03,8.385184144388576136e-03,6.123446630938282793e-03,1.509224608331207439e-03,2.889428798316424777e-04,7.442909457628436171e-03,1.654561706422662693e-03
3.983333705362709573e-03,3.533662312530123657e-03,5.609104731514937339e-03,5.378141749819833305e-03,4.164178820140314319e-03,2.975505594734763424e-03,3.533651790573336896e-03,2.593554657002999399e-03,-3.627806038113573516e-04,2.390932144708139695e-03
5.774245068471295372e-03,6.672382165199274538e-03,1.294135010380900730e-02,6.875145754063580715e-03,5.872468407679468788e-03,-2.529744997707643068e-03,1.920252147140057413e-03,1.855762413219980839e-02,-2.280853344705247639e-03,-4.410497193820544885e-03
-3.891069927518655235e-03,4.961215495526174503e-03,1.201354689042031035e-02,4.863216793160431844e-02,7.537308431691247361e-03,-2.995453662002832071e-02,-8.015905884693468042e-03,5.090582532015420353e-02,-1.040552624179619766e-02,-1.462363799427962748e-02
-2.437246172716230064e-02,5.981790418878958279e-05,6.497080025024647154e-02,1.639659340080999728e-01,2.887117231853103885e-02,-1.268832229732852757e-01,-9.166077480475201197e-03,4.232028754296422030e-02,-1.405313002542752862e-02,-6.374744662184347876e-02
-2.993062550655702786e-02,-3.845529075412436326e-02,9.380816079251483308e-02,2.175217581602258976e-01,6.930193998918784959e-02,-1.343548445967412408e-01,-3.882232227657529677e-02,9.126399010455669980e-02,-3.262682318515440494e-02,-1.438688158213360935e-01
-4.065706710884099684e-02,-8.254917563649119550e-02,1.663227353390277774e-01,1.856708686714459711e-01,4.546298692684597881e-02,-9.442761471978841636e-02,-7.249306770473037953e-02,1.520456132217249401e-01,-1.817388376065338929e-02,-1.797825474257727929e-01
-6.547112293299198194e-02,-1.165632613661339440e-01,1.340622324459236903e-01,1.055518254816498747e-01,2.929696053329294836e-02,-1.018124548984264237e-02,-3.917225783653627280e-02,1.894272751199307658e-01,3.583037848272913745e-02,-2.185137775136866689e-01
-9.675356831567441529e-02,-2.044554826507610223e-01,1.217261298176781359e-01,6.686269907145052371e-02,-1.850717792766213080e-02,1.119663399980658502e-01,-6.246849791908076766e-02,1.798402405023143968e-01,8.268108052065197000e-02,-1.487581828715135723e-01
-1.798752327184507255e-02,-2.231829450811302629e-01,6.728023204401277491e-02,8.134702394572283779e-02,-5.218349322638394377e-02,1.025026164179977384e-01,-8.935918237114759410e-02,2.164057897482393467e-01,4.080208883771409278e-02,-6.739164421628772439e-02
1.909513401096416332e-02,-2.208707560697420746e-01,3.618449246534657243e-02,5.568412260198937758e-02,-1.312297121899352326e-01,1.430738458243450140e-01,-1.432693232036515441e-01,2.384033029027437522e-01,3.472771634212624969e-02,1.221809449952507634e-02
4.358314407247928374e-02,-1.925090912083362860e-01,6.737253923008865164e-02,5.769812418492411416e-02,-2.101770360975148411e-01,1.351327818188364505e-01,-1.196845180376465423e-01,2.212070140896459647e-01,-2.694752122257243823e-02,7.680322958525567789e-02
4.909352314598103978e-02,-1.169311599271157937e-01,2.529332749185322221e-02,1.313939750989469857e-01,-3.085173028635577741e-01,6.578081508906692687e-02,-1.369165555315992877e-01,1.880557632740110507e-01,-2.905216663295804441e-02,1.960957002896485113e-01
7.294340318113558264e-02,-1.181119160765270737e-01,8.298909565128909094e-02,1.205853915115766423e-01,-3.050353855097368005e-01,-7.315414248098834130e-03,-1.932747870559096970e-01,1.044392645758731170e-01,-2.898699512646064902e-02,3.261946985699362145e-01
8.262004311375149845e-02,-1.356415802892023681e-01,5.686162796553480975e-02,1.857127079047171947e-01,-3.855833653326815047e-01,4.031156750574545894e-02,-1.583842402076945099e-01,9.961300815172730722e-03,-9.552407839870157014e-02,4.455533861711252208e-01
9.805851893635052219e-02,-2.045648167384182536e-01,2.598056343683981077e-03,1.720788516901122223e-01,-4.237819381266483831e-01,-6.568197592174485067e-02,-1.474676180243535972e-01,5.435392621798105367e-02,5.689243223824155815e-02,5.017051818161138987e-01
1.525845514979102813e-01,-1.993644251557490088e-01,-2.629173790429838176e-02,7.243190634743165712e-02,-3.770057604244804739e-01,3.128774036933965746e-02,-2.046186413018139250e-01,1.449145307513049208e-01,1.669630816727018727e-02,4.402446294122164261e-01
2.193919785142915968e-01,-1.689554913175801143e-01,-1.249950295614190438e-01,9.712732905543439155e-02,-2.572345285990745856e-01,8.028768953610478099e-02,-2.041539100827539921e-01,1.942983972367579304e-01,-6.005869420817223220e-02,2.654669564146697747e-01
1.966184701911888322e-01,-1.137933632885197166e-01,-6.569648309699860356e-02,7.223226706307737943e-02,-1.915463053762732071e-01,5.188697990197337767e-02,-2.447271054404906721e-01,1.716526059437998575e-01,2.977361172008193349e-02,1.438172654896010261e-01
1.191367756933282424e-01,3.866272711464065204e-03,-4.061105389805672733e-02,8.296828866078313769e-02,-1.213193473744647310e-01,8.077098581104169561e-02,-2.603181691832349709e-01,9.881549034054623593e-02,9.294801228589912728e-03,6.655042185739691585e-02
5.511040750834583085e-02,3.466517251193435012e-02,-5.230135397996341778e-02,7.453551739273425736e-02,-8.318150244650393543e-02,9.237493594204754244e-02,-2.103680593070992866e-01,7.937959087622746546e-02,3.764182397643481282e-02,2.225772695840518359e-02
7.683759833047264232e-02,8.389170088410929232e-03,-1.918319852909671983e-02,-1.103589353750280937e-02,3.787582120751988024e-02,9.905591355245142726e-02,-1.716545181126980235e-01,8.710221722588899068e-03,9.047633236429103443e-02,-6.830555380062755533e-02
1.093787694068823063e-01,-1.492045180671925514e-02,-3.213920848436128269e-02,-8.388464875753201544e-02,1.703184946551597467e-01,1.709282049850856522e-01,-1.585138635566136212e-01,-3.930400765241546905e-03,9.022083282568778284e-02,-1.954492517741793223e-01
5.994757009678886028e-02,-6.392201275492709334e-02,-1.739242757083142854e-01,-1.583247229457103999e-01,2.016911868104830363e-01,3.873674391165042863e-01,-1.209626148395113038e-01,-3.829021281145501138e-02,1.796595406617852442e-01,-2.205002008526888435e-01
-7.883407921879055646e-02,-1.017034479957736742e-01,-1.203774524122193657e-01,-1.177292689046197799e-01,8.407851814731240325e-02,5.153055033310001143e-01,-4.524176693551738154e-02,-4.869291565254105225e-02,9.996518115870471621e-02,-1.443759048647947629e-01
-9.393159107349859094e-02,-5.111383945935953077e-02,-3.481376609740369221e-02,-3.218380631281029386e-02,1.346427566921817344e-02,3.643235286238457049e-01,-3.403594130959621683e-02,-3.536062180241166669e-02,-7.595741523351158889e-03,-6.281259705145030015e-02
-3.062559382459310170e-02,-7.904350553199611536e-05,4.348874311669504410e-03,-1.111877329439055076e-03,7.607908672884842495e-03,9.451864067025335381e-02,-5.273833024829603124e-03,-7.759988934509760156e-03,-3.143087084831461871e-03,-1.968999549816546207e-02
5.579494527945223943e-03,4.525378241020496135e-03,4.746556383372715383e-03,7.076288675802219763e-03,5.458257963390856018e-03,1.570677739246125262e-02,9.606650422866454958e-03,-4.734586410764917162e-05,1.745414584304223206e-04,-3.965255878735507314e-04
2.970946096197171239e-03,7.189066734344810687e-03,1.683191481984839524e-03,5.939556992891546240e-03,6.110901119393374707e-03,5.478705722099744962e-03,3.849490252569835388e-03,5.590780388922981549e-03,5.700446287103927943e-03,1.982381172049108107e-03
5.862240097412777613e-04,1.931996504919744530e-03,7.134929657687960440e-03,8.954308781515195673e-03,1.860037762330356325e-03,2.326037228557254269e-03,4.180612850092741209e-03,1.331934254916379567e-02,8.906934642691934209e-04,2.800379245606888102e-03
5.135222489441712904e-03,1.686428945664528308e-04,8.834206638983951518e-03,2.403147414654486971e-03,-4.617684022935780491e-04,1.652066295567342731e-03,6.114452439736666606e-03,3.591334596828878872e-02,4.974886456956168629e-03,-1.139722675879900442e-02
-4.399786605475440766e-03,3.245128149262963002e-03,2.078576566706506062e-02,4.604038928486364757e-02,5.027651855485868728e-04,-3.805988102762602326e-02,-6.134189891535102648e-03,9.769996071768752288e-02,-7.017032543911364169e-03,-4.824313637225653706e-02
-3.722638989208652133e-02,-3.280504793227979020e-03,8.184655074695901256e-02,1.783778733849833154e-01,1.087247169706919737e-02,-1.635188431368611306e-01,-1.650020594571298405e-02,1.200526794723106028e-01,-1.112106876786734914e-02,-1.063541095340902881e-01
-4.903140684116667064e-02,-4.318435603459742922e-02,1.116196175038538241e-01,1.872877796929754979e-01,4.283848871152939886e-02,-1.610988663277520827e-01,-6.206694809359479537e-02,1.434132339567927295e-01,1.733981297085190540e-02,-1.496816140401241724e-01
-5.393802576099804291e-02,-9.294565645833598178e-02,1.252885650002773799e-01,1.419394112519654916e-01,9.534487907136464380e-03,-1.126602447311726846e-01,-8.802437800420248593e-02,1.771125488580530538e-01,9.373197290557264139e-02,-1.319171972112772317e-01
-7.070288000394647776e-02,-1.301959935679367630e-01,1.131577547275584988e-01,7.091353217645943174e-02,-5.375325598483874680e-03,-3.888447004262247930e-02,-8.061276561627245263e-02,2.313257620783898405e-01,1.318161172829803718e-01,-1.664705405054019982e-01
-5.701831159434983531e-02,-1.988273941291018865e-01,8.427676434906454517e-02,1.481476977558199987e-02,-8.062086773762827674e-02,1.129696151809308352e-01,-7.335507129320147091e-02,1.806605056479266003e-01,9.406393781767755091e-02,-2.225614386332141342e-02
4.707632783987046945e-03,-2.529563730906601582e-01,8.047065877668266309e-02,1.936069793683803386e-02,-5.195172354643404211e-02,9.373360341774990279e-02,-9.143640894303790845e-02,1.620212900294118463e-01,1.390872738028501032e-01,-3.938344557102699262e-02
3.153247710562914752e-02,-2.373431010923163220e-01,1.713226734047010869e-01,5.605847556272698651e-02,-1.316675312308015489e-01,8.974265993441438161e-02,-1.419734152225007595e-01,1.581490541236665326e-01,8.221470328977836806e-02,-2.254786352035727942e-02
2.112367474714263102e-02,-1.886273265818154410e-01,1.402600134550644195e-01,7.317655144075685576e-03,-1.682188167136988433e-01,1.424942758268313014e-01,-1.236985053706250032e-01,2.259280037990469558e-01,2.591130493592928852e-02,-3.116637740370551551e-02
4.824490378981379640e-02,-1.059778640110881631e-01,6.725765428291761994e-02,4.543445857882280614e-02,-2.315144833866780716e-01,5.803565085869958479e-02,-1.527060264417339497e-01,2.475445389970114540e-01,1.055052114569632604e-01,-3.667915616849094784e-02
4.863033085560840990e-02,-4.432610790397972789e-02,6.457312731265975325e-02,7.797389222702472145e-02,-2.369397977030457125e-01,-4.013967948179578138e-02,-1.780843071185979065e-01,1.423529506571950820e-01,8.979541558879300389e-02,1.241689676272516168e-01
1.127376143605314796e-01,-9.130588972414938748e-03,1.181044592742248045e-01,1.608956034284530490e-01,-4.026965226998223124e-01,-9.636471073530300524e-02,-1.980766266840936485e-01,1.764016698780278558e-01,-7.948821336671380022e-02,2.750530543750510093e-01
1.552072433888887770e-01,7.700418291044928282e-03,9.189898825853068387e-02,1.843512796017872379e-01,-4.292244925006390988e-01,-1.538612862644380963e-01,-2.370066682467877051e-01,2.575598934605464185e-01,-7.967707405990266667e-02,2.443263744779072544e-01
2.498853173600106559e-01,-8.071109755904488925e-02,1.040650024329686264e-02,1.169818084276564446e-01,-3.218598399088760109e-01,-1.058361941132592715e-01,-2.897726569514156858e-01,2.760919358618906805e-01,3.371742615459932813e-02,1.564397848507104449e-01
2.320564735540917578e-01,-1.382068066920334216e-02,-1.292561653266298058e-02,1.166333409878901467e-01,-1.911818122472594694e-01,-5.519145550618359541e-02,-3.512810204513238665e-01,2.718977747199918804e-01,-1.045037614276365413e-02,6.101533074155278402e-02
1.930140537153246238e-01,-4.533045249143165256e-02,-4.694269430877326399e-02,1.463760347772064263e-01,-1.069020225421466463e-01,-1.925681615413176589e-02,-4.437803866350101267e-01,2.681634916120763101e-01,5.198580444744822088e-02,4.740256748810898341e-02
1.051966267897777169e-01,-5.190756912645412557e-02,3.939621815437440583e-02,1.373937708538923996e-01,-7.731757463938071506e-02,3.843418756704113787e-02,-3.960934218436033549e-01,1.718263200607189345e-01,1.032547456592914636e-01,-5.160420801752385600e-03
6.436145039807997237e-02,-9.071316507089989545e-02,9.805097890647185808e-04,1.575305567930904704e-01,-6.888133086944887851e-02,1.164454340467243609e-01,-3.136803195363280783e-01,1.371570342574801871e-01,5.060495026874702734e-02,-8.691330426883811869e-03
5.732402355966433050e-02,-1.218014527883068965e-01,-4.518545315937540566e-03,9.998123334913806837e-02,-1.200677320475470114e-02,1.447574827307002154e-01,-2.534539686189463126e-01,3.973967413175001628e-02,9.954534498473262272e-02,1.049366536851863325e-02
1.496935427069163438e-01,-1.526456690302039898e-01,-4.838354524345324370e-02,2.854729234187002723e-02,4.824655896957320139e-02,1.911189805725534430e-01,-2.376393777399668505e-01,4.464379965209576417e-02,1.763208717290229988e-01,-1.486061526242737074e-01
1.586951515581409844e-01,-1.778990677856229774e-01,-1.163814236453687978e-01,-1.811406141855566587e-01,6.790161053751467279e-02,4.837205791127714982e-01,-1.904771107590688684e-01,-9.883109776938960381e-03,2.088820590571798530e-01,-1.940976044585600857e-01
-1.758538767226505012e-02,-1.447814783289504414e-01,-1.360917283314453108e-01,-1.458443887835154662e-01,1.128301791575199789e-02,6.754637951080371128e-01,-1.207879581728138474e-01,-6.750733105167783243e-02,1.450140969328183871e-01,-1.439984526509523466e-01
-9.375060253998936111e-02,-6.298779105682296431e-02,-4.151211855779052273e-02,-3.530702214957538027e-02,-1.429848144043868556e-02,4.569540448809538691e-01,-6.285634981865260984e-02,-4.134899267744624601e-02,3.942367507230748296e-03,-7.069934890590802434e-02
-2.403554294667858277e-02,-3.541130823923244707e-03,2.388260125390341462e-03,-1.984825051707190136e-03,-7.076022858036491205e-03,1.179170335934748431e-01,-1.813478797448105431e-02,-7.255534905170278256e-03,9.486649401795018907e-03,-8.903729085613701008e-03
4.226759263422310078e-03,-7.784943813899977802e-05,-5.409260267359354644e-04,3.270833641492419414e-03,2.991808118681103020e-03,8.667571177029419552e-03,-1.679177579654856029e-03,2.485483174946851413e-03,9.854897164758649047e-03,1.416935088883034856e-03
5.819249869275685584e-03,7.398730892998059243e-03,5.300484414547165964e-03,6.731740335795100005e-03,6.671841492288391011e-03,5.595099789597257449e-03,3.229396743380354498e-03,8.162310952384474114e-03,2.057348572610705022e-03,1.146918886996876582e-03
-6.582950091299571646e-05,2.603100223005205566e-03,1.807520369771522389e-03,3.579584238120048223e-04,3.961842064412534475e-03,8.133296276167992916e-03,6.937872520544001442e-03,1.637407939890021813e-02,1.106662613688894905e-04,-1.155935816576715179e-03
7.846130215944546737e-03,-4.899807046803464046e-04,5.598878181649447928e-03,1.124722428420204048e-02,-1.345640197705257328e-04,-1.021830077284125544e-03,-2.198453731627033648e-03,4.939976159050111365e-02,-4.047234963111098933e-03,-1.895846719690145316e-02
1.384225452627832562e-03,-2.232026514467102835e-03,2.098335352271881935e-02,5.755457572269195160e-02,-2.347619773353831416e-02,-4.908305906883565772e-02,-1.462482363673614331e-02,1.335990844810664990e-01,-1.099258705633792375e-02,-6.529127813267117386e-02
-3.479332655638642247e-02,-8.432055940180165424e-03,6.415231257924911001e-02,1.560763939074821249e-01,-2.554257444515869307e-02,-1.253497653965396641e-01,-3.008033037507365504e-02,1.779668402899333146e-01,5.220563739403680757e-03,-1.288689093550796916e-01
-4.785954942214847713e-02,-5.722502709491699563e-02,1.221390580235475615e-01,1.216776580118394541e-01,-1.092999805362063030e-02,-1.383951430972441832e-01,-7.932226956251478556e-02,1.612926639755544456e-01,7.663907333559073776e-02,-9.596404027120192248e-02
-5.807311071375272082e-02,-8.263847309377239658e-02,6.208291999916844967e-02,8.625847077689652309e-02,-6.062205704459742994e-02,-5.936736482023100697e-02,-9.011919474468341185e-02,1.160360042007358428e-01,1.361105344119974969e-01,-1.192265882950772904e-03
-6.201113811172333928e-02,-1.054183192299706917e-01,1.267534730828078979e-02,2.851738027800118300e-02,-5.608870033959788975e-02,3.590077403931196676e-02,-3.820062759578578965e-02,8.655803764536305900e-02,1.506779567905358053e-01,-1.020653867404520878e-03
-5.035607916747671109e-02,-1.596024350380577106e-01,-1.668890209628333399e-02,-2.911637818664494087e-02,-5.321864353909126766e-02,1.553735313596601442e-01,-3.144317157884411740e-02,6.092862424887112577e-02,1.577506548110271800e-01,1.901774630251276688e-02
2.594055641956895687e-03,-2.078383105787881546e-01,6.975295569476827606e-02,-7.650513252407041553e-02,-3.315202923343225916e-02,1.426680462682645978e-01,-1.032631539342535737e-01,4.670589361906132136e-02,1.721195897578624567e-01,2.193822518659278159e-02
2.808030497135411557e-02,-1.804504849545345568e-01,1.344353621053224757e-01,-1.543198080065538436e-01,-7.742344292452389698e-02,1.626056479597445814e-01,-1.199435174151614464e-01,5.126413039194271937e-02,1.418685766925756320e-01,6.494165367489736218e-02
-1.823193194275398235e-02,-1.117798404949317120e-01,7.942843131871525630e-02,-2.839496219355253093e-01,-8.852438307178295274e-02,2.826569740028078703e-01,-1.157803588096279757e-01,1.263036167032960677e-01,1.266776770142188924e-01,3.747831819828324057e-02
2.833773919788281845e-02,-6.843163513077162030e-02,4.374432354145273150e-02,-2.279542910876801165e-01,-7.018967414897392398e-02,1.776935218901019853e-01,-1.323283259948536961e-01,1.769168811851312417e-01,8.074492813476351338e-02,3.949170313050888448e-02
1.038056651954862991e-01,4.683986652709880294e-02,6.893273785071055149e-02,-5.730533544421335945e-02,-1.677258760569531604e-01,3.668183162718458706e-02,-1.781317256174393682e-01,1.261916872787492983e-01,1.118096861097022006e-02,5.382283564723105290e-02
7.141393310906386793e-02,1.928204154590003050e-01,1.269853982434478723e-01,1.678865336344897707e-01,-4.822086197218289350e-01,-1.214032945249848283e-01,-1.503687477092869595e-01,2.539008967970552422e-01,-1.607311714028513694e-01,1.544932899348459843e-01
3.382992007939340795e-02,2.901682567812111091e-01,1.423935066761169432e-01,2.790119102222918812e-01,-3.754542247011651290e-01,-2.518152704531093078e-01,-2.648492016013910266e-01,3.303502596040723827e-01,-2.827283145587666802e-01,1.536127016488947616e-01
1.262144592178746361e-01,1.136897935074510091e-01,1.023153543091192413e-01,2.247250880899221981e-01,-9.438648221949974548e-02,-2.735187584445367692e-01,-3.868266788221509378e-01,3.775134737935207374e-01,-1.436870649495415042e-01,2.847270457197991975e-03
2.026141656629316390e-01,3.442705733157129955e-03,6.409077759643865002e-02,1.491951797712179340e-01,-3.477592563838795975e-02,-1.940175205661842095e-01,-4.778781338368280340e-01,3.408803767523026496e-01,-1.852434563216785041e-02,1.488316650789390204e-02
2.207960131481426780e-01,-6.240674331105364875e-02,6.364434618253640707e-02,1.211155879885434661e-01,-1.239817581716406124e-02,-1.030353648097545316e-01,-4.824460824122827063e-01,2.660284661409970108e-01,1.358801630127223249e-02,4.018253216988807580e-02
1.646145237497086133e-01,-1.527978938991286229e-01,2.809384036283571820e-02,1.482765766302242549e-01,-2.024523208311078751e-02,-5.076516311870263309e-02,-4.025811332192875680e-01,2.374395110222584093e-01,1.152896661252838378e-01,-1.743131087488528075e-02
6.859865705987233664e-02,-1.932779059189953519e-01,-8.009114765586728898e-03,2.265021177062058744e-01,-3.649167045795886910e-02,3.964858790644769371e-02,-3.101610899589674064e-01,1.593550239239605593e-01,9.251863959432651829e-02,9.042320029873410561e-03
3.465384848530236178e-02,-2.171352834502659757e-01,-3.730310329809415765e-02,1.610838662482599049e-01,-3.272474006091128512e-02,1.791939578432444891e-01,-2.604962890546484444e-01,1.425237028497840230e-01,1.270776125565080406e-01,-5.953320688932322441e-02
1.380385346391147516e-01,-2.253764364689247734e-01,-4.143927221246484355e-02,5.200271889453039753e-02,-3.091120886297987758e-02,2.681246535707799139e-01,-2.484708542997085545e-01,7.240264593928749659e-02,1.934624642773106751e-01,-1.304843278777859383e-01
2.173019914260294616e-01,-1.993095962220128026e-01,-1.062994020539560908e-01,-1.213068508869730999e-01,-7.006287767612823236e-02,5.153152032118156756e-01,-1.781398095244474122e-01,-3.891242028630947924e-02,1.900317318439581626e-01,-1.703341277761786232e-01
4.411032254279289438e-02,-1.255143389533910081e-01,-1.221235289212819070e-01,-1.162759232611824817e-01,-1.222463705430941877e-01,7.676603407401082491e-01,-1.348178187983381238e-01,-6.381305908609595512e-02,5.396944169746190761e-02,-1.267445741368954937e-01
-9.405655959730392646e-02,-5.062763627163219954e-02,-3.515133752021837310e-02,-2.483591757891408236e-02,-7.561086433772626347e-02,5.314922264073520530e-01,-9.211564454432405458e-02,-3.501044373918254377e-02,-2.385825732615833722e-02,-5.489554021198157080e-02
-2.390851421884142985e-02,-6.261213507605969258e-03,3.397534270407675649e-03,-2.910455285886093604e-03,-1.845285173799849840e-02,1.316289477546442044e-01,-3.444377960077990575e-02,2.219263142931184648e-03,1.531095628747815296e-02,-1.318150226089553380e-02
-5.568877968638963165e-04,1.630838354833138689e-03,7.088053583397884230e-03,2.930132640292724120e-04,1.747584296170665681e-04,1.835998720545718721e-02,5.319073738584530024e-03,9.795180000119309630e-03,4.524366164291489527e-04,5.609371966075080325e-03
7.098065990797233077e-03,9.092554833952201654e-03,8.552902823546466513e-03,3.581509183528872303e-03,5.029550663323666647e-03,5.653942194781137309e-04,9.759561362129525949e-03,7.814138022785943258e-03,7.653856374799658871e-03,1.895392086499324280e-03
3.321707662254986984e-04,9.335705887877944475e-03,5.387091531645061410e-03,4.434408481087862182e-03,-2.241436828378143287e-03,3.615854887734006040e-03,3.661445153522458786e-03,2.406681391212498258e-02,3.795815386756312866e-03,-7.800908991777066783e-04
7.137240469943628707e-03,-3.226534222073141429e-04,4.091480799178438474e-03,5.684646563858641866e-03,-1.407327430245038959e-02,1.972814351704644392e-03,8.499226707246141125e-04,7.364140346448805330e-02,-4.205263059284079265e-03,-3.208780531914367379e-02
-2.164097959567197211e-03,-4.107183718702946476e-03,2.249605576134289936e-02,6.049925858170727977e-02,-4.470916529382899796e-02,-3.333590273450243169e-02,-1.653094319796495279e-02,1.457314781650836388e-01,-1.406174667738871974e-02,-6.294591146223074696e-02
-3.263424295191868357e-02,-7.166253802391191717e-03,1.100492124934427697e-02,7.042383477289722304e-02,-4.479836506133584584e-02,-6.217220349414737113e-02,-3.473819467071301986e-02,2.056093287656750590e-01,5.599474386267640214e-02,-1.005332541707745636e-01
-3.928364900844193153e-02,-5.145014509380917839e-02,4.705523106304907582e-02,-4.648330400412264106e-03,-6.044189792753420359e-02,-5.862170526692733058e-02,-6.343627283728452138e-02,1.815595825954686993e-01,8.995623082625099631e-02,4.488201293351059412e-03
-4.953820916309512740e-02,-9.230864339234347293e-02,1.133046796182223676e-02,-5.522813346197659456e-02,-9.172192262472637914e-02,2.734572206402082969e-02,-5.083428366923357228e-02,7.124827406825098852e-02,1.579962926611623575e-01,1.145356339115048000e-01
-3.703728209110868086e-02,-1.079080986156111532e-01,-1.169774744295355301e-01,-1.403942850999772007e-01,-4.339314506268192317e-02,1.353809613003301715e-01,2.022173594560652474e-02,5.581465951669486308e-02,1.959295813274571918e-01,9.052680348127128962e-02
-2.839311471050338931e-02,-1.287047391882451264e-01,-1.133745085643287076e-01,-2.475242360327264968e-01,1.332353927888271197e-04,2.209962361359575911e-01,2.529749646536168933e-02,-1.320355622601658216e-02,1.849657805928298648e-01,1.440964610178429028e-01
6.353716682021243872e-03,-1.631288525666441946e-01,-1.240358726731704969e-01,-3.405808513329924847e-01,9.781685207390330983e-02,2.781402809234421181e-01,-4.824513139424319030e-02,3.165297185374098959e-02,2.061076165788050529e-01,9.013932004398124420e-02
-4.964658387702181042e-02,-1.236732958270845145e-01,-1.197823698037319834e-01,-3.999619904649799884e-01,6.445889654848702133e-02,2.681904128757868211e-01,-2.344793048747358111e-02,5.192379570486930357e-02,2.392525793523933575e-01,1.465624823430405621e-01
7.001231287129217225e-03,-8.299645554014918603e-02,-1.362256756046916206e-01,-4.217586581356213560e-01,5.964432885975354953e-02,3.067565958270425663e-01,-6.112292328735800806e-02,4.413779054545510783e-02,1.617157158301436026e-01,1.842311294043896541e-01
3.549616087246582063e-02,-2.600005501106725236e-02,-1.896066999717432866e-01,-3.302134093951617499e-01,1.118343068790208367e-01,3.100684098419612678e-01,-9.445715486076296241e-02,3.460350362638489607e-02,1.199856716387359551e-01,8.379828887463296183e-02
5.266203163458129527e-02,1.383061603178045162e-01,-2.360728688440934808e-01,-1.385463184835951204e-02,-1.910745076308961177e-01,2.209656160787686618e-01,-5.073063531938568765e-02,1.666206854899568712e-01,3.838867091705568113e-02,-6.899350252915086024e-02
-2.548827421821373007e-02,4.279208288204889299e-01,-1.062910104145761564e-01,1.912804058519479711e-01,-5.268680282202397036e-01,7.861684389722979616e-02,-1.573357810076013441e-01,2.669368919346810087e-01,-8.409149839629935508e-02,-3.033174501137667414e-03
-1.126627201902066361e-01,5.021344588480823878e-01,-6.774146028709598921e-02,2.358697825802532622e-01,-2.063120972483491466e-01,-8.840926179401577267e-02,-3.383948085298885688e-01,4.108293978527853829e-01,-2.443812468044803676e-01,-4.757654507244884340e-02
-7.189707474686472810e-02,2.007547998249242516e-01,6.751832744107531814e-03,2.095514666819933425e-01,2.718265095613947580e-02,-1.860577365880750622e-01,-3.992718496271945305e-01,5.086467036164818989e-01,-2.311629072973708510e-01,-8.840706763649579594e-03
1.032311446041952047e-01,1.296389326149308650e-02,4.639015088402359543e-02,1.678714241873744684e-01,7.896592524706036453e-02,-2.618064322554073398e-01,-3.977989636037274623e-01,3.740126866659410632e-01,-1.305227713703986381e-01,5.496809972714909731e-02
1.785210286280652925e-01,-1.248801012320439191e-01,4.839418148175199386e-02,1.653846622108025854e-01,-2.065828635032035399e-02,-2.342454888470085761e-01,-3.695342852635278286e-01,3.067389309921522145e-01,2.947259838823045042e-02,7.628109263546768715e-02
1.329167625276231612e-01,-1.743303438781525494e-01,6.412105550794871926e-03,1.960453341895445900e-01,-2.471780696362314844e-03,-1.918904526795358889e-01,-3.083229725339555749e-01,2.729455823213672305e-01,9.747242367307043520e-02,3.943454160625541050e-02
1.140690178340348498e-01,-2.275841903294927027e-01,-1.210361231559930507e-02,2.167505423697927702e-01,-8.734816592467110896e-02,-1.005754789313299535e-01,-2.261589287201655196e-01,2.542402802303601606e-01,5.909432967659218605e-02,6.633787106840384473e-02
9.952117914359048800e-02,-2.113494945827038285e-01,-3.635838853574419050e-02,9.946374682142955503e-02,-7.990358437358434374e-02,-6.643918785234864503e-03,-1.892237812371908579e-01,2.230231530338397661e-01,1.120877538298806902e-01,3.866165335849627155e-02
2.016549329770224719e-01,-1.824123614927685988e-01,-4.922025048951512299e-02,-4.496033252910404399e-03,-1.019199871717211131e-01,7.192157663171129534e-02,-1.568613584843416842e-01,1.183001414718507088e-01,1.715341369807804883e-01,-3.219498268311723338e-02
2.786785751417417689e-01,-1.486873403236729785e-01,-8.188512137010177383e-02,-7.437869475523652130e-02,-1.759560177989575869e-01,3.084356466929477070e-01,-7.963599488779440905e-02,-4.709501723969399672e-02,1.589427337569353227e-01,-8.240361193270584472e-02
1.069744340133467614e-01,-9.602772625202722623e-02,-8.216689381274067117e-02,-7.180386858496319580e-02,-1.348443617343869083e-01,5.719854985184577023e-01,-8.750532824762990991e-02,-6.367248847413653490e-02,1.130041223730934678e-02,-1.038639882544517001e-01
-7.138979810085414879e-02,-2.515205605123728774e-02,-2.428078419928197257e-02,-1.225551340292729482e-02,-8.495400376016724875e-02,4.784758969106421289e-01,-9.465996142208196740e-02,-2.423780398205239647e-02,-5.273830245767507918e-02,-4.315939552687693415e-02
-1.986991132896958820e-02,2.113915988612855706e-03,8.111424635149631565e-03,-6.552312501466623241e-04,-2.349001380522929006e-02,1.301441907623022975e-01,-2.219352741583469069e-02,2.933200042956593968e-03,3.584772630657159700e-03,-1.411513710703569090e-02
5.343847289383903652e-03,8.264952676044245647e-03,5.342409480306124087e-03,2.359682163685341855e-03,5.794367070523703117e-03,1.069896137994419232e-02,-1.207300174400866488e-03,6.647612244521955427e-03,9.005000396927607953e-03,4.359600320108044172e-03
1.174408951740342618e-03,5.922572781653099097e-03,6.616504681648888858e-03,2.744917260757376559e-03,-4.928268228464448542e-07,2.473786420099901434e-03,9.691264039512292525e-03,3.227708884665762227e-03,5.500062143625244516e-03,8.071494113809210558e-03
1.215215705955605347e-03,5.716710352039455593e-03,6.884702334946296749e-03,1.514388136266823321e-03,-6.438345585978779437e-04,7.737136362809243079e-03,3.944115723456805629e-04,2.455928213131177568e-02,-2.139366384181153220e-04,-9.892288360497866750e-03
-1.576799704891898579e-03,2.085347706760689451e-03,3.675562063608799491e-03,9.048909300075650905e-03,-2.789378206645666894e-02,-4.712265619876329290e-03,2.801871667611669555e-03,9.647495266123441715e-02,3.238968897955501244e-03,-4.271927685950936693e-02
-8.642109771597085086e-03,4.217882062252013495e-03,-7.074329942047452059e-03,4.199154508262155361e-02,-4.106861221903628650e-02,-2.831931460294452585e-02,-1.256981412429446221e-02,1.715835105996734999e-01,-5.167341778548622047e-03,-6.388496809261048903e-02
-5.947448835501117220e-02,-7.778812039639887259e-03,-3.542553927509298206e-02,1.048039900716797763e-02,-5.435130037932207198e-02,-2.389317099914917142e-02,-3.484170267943790394e-02,2.231491799444047519e-01,4.632403216259785989e-02,-1.143136452062143253e-02
-5.888796843859741420e-02,-2.286970531005830601e-02,-9.090455418674792121e-02,-1.119946106249628953e-01,-4.909495644477641224e-02,1.114175754303287080e-02,-2.560459941079341190e-02,1.397277531006046181e-01,1.189481424717333119e-01,1.405731870899270264e-01
-6.815287874892807241e-03,-7.020918035149220637e-02,-2.158140414285960873e-01,-2.047689024827751558e-01,-2.552729652924997858e-02,1.380119054950761648e-01,3.028605844613181663e-03,5.058901340950926195e-02,1.744047631901790574e-01,2.143705334647963145e-01
1.585955743101739521e-02,-9.401286191742128096e-02,-3.224629131296735673e-01,-3.276178364782679764e-01,4.247206492015756507e-02,1.526420884425531699e-01,7.656939122329316227e-02,6.515854822661039381e-02,2.493044768179584758e-01,1.792991249639575846e-01
1.246843122998218898e-03,-1.196576829997797187e-01,-3.492828560945572258e-01,-3.739677704200137232e-01,1.396170740894501217e-01,1.850916676245931980e-01,4.711351877287524303e-02,3.030113738398979364e-02,2.378359009544736280e-01,2.513611325347605563e-01
-4.943552932020541663e-02,-1.535627267500469517e-01,-3.707712124470285975e-01,-3.286015838633485897e-01,2.304599241237591800e-01,1.565788711102799324e-01,7.030007480451859470e-02,9.539337290889693399e-02,2.307350556842465150e-01,1.804712528178543107e-01
-3.474073787514374984e-02,-1.593862841140505360e-01,-4.526859512977756128e-01,-2.858137539507052960e-01,2.484611883594825266e-01,1.799641166507072176e-01,3.833893296434030817e-02,1.108430487001171028e-01,1.710105561884543990e-01,2.253316337542625725e-01
5.683328402431846171e-03,-1.753638757355399092e-01,-4.578820569524006401e-01,-1.904111082414315370e-01,2.432792272859876925e-01,2.601286853281015166e-01,7.320042099540587273e-03,6.356797482236889452e-02,1.051785677540744701e-01,1.935449150974450638e-01
-2.158259640162277226e-02,-8.378149450513236451e-02,-5.149735801277962599e-01,-9.573435630734937474e-02,2.291239103951094591e-01,3.402831441231456977e-01,5.943355797695714510e-02,-2.886269630214199303e-03,1.625908574624765346e-01,-1.944664622964200826e-02
-4.478483637829203112e-02,1.902228648274116862e-01,-5.487856385253557789e-01,9.112172895122397365e-02,-2.836726379272008214e-01,3.812821402577011853e-01,5.310887332802707167e-02,5.986830522068326693e-02,2.424916813051594122e-01,-8.031344401543413780e-02
-2.457444460630678063e-01,5.891766121113171106e-01,-4.059719982608241406e-01,2.067434111583404399e-01,-4.580404858617657116e-01,1.278040891121624001e-01,-1.802816798954681166e-01,1.858202268699422066e-01,2.142353267430785746e-01,-3.888168823554481995e-03
-3.857359738720534947e-01,5.716237451386526613e-01,-2.549389269381419632e-01,1.808340619969217300e-01,-2.837247280515715897e-02,-6.572631988022335781e-02,-3.670199527030024722e-01,3.656973880542163657e-01,-4.756421596010839553e-02,8.422471949979926098e-02
-3.522729527586975773e-01,1.819025334782102821e-01,-1.271378268806944711e-01,8.745431418146500102e-02,2.492567116395626725e-01,-1.397727617516057730e-01,-2.771396863409611444e-01,4.382003331304639704e-01,-1.611170276434743809e-01,1.528760607553190098e-01
-1.215563260100356868e-01,-3.490218612957805833e-02,-1.436839389590782723e-01,1.649895928607957585e-01,1.303336732399611453e-01,-2.137694047426565158e-01,-2.477828267868191769e-01,3.717019780385763528e-01,-1.265782624221794272e-01,2.706170920059864371e-01
1.839644408763222577e-02,-8.894143889193024954e-02,-7.055513324661137620e-02,1.592965158005029136e-01,-2.722699348424445845e-02,-2.443260638960868258e-01,-2.007572625541059197e-01,3.449839106762723207e-01,-3.693196739793905975e-02,2.122376267983424880e-01
1.000969445593616336e-01,-1.560692253395588036e-01,4.777077868395319948e-02,1.624089043665653820e-01,-3.949279148661079958e-02,-3.603645746166498354e-01,-1.680366518004910714e-01,2.000638934079136677e-01,2.574900443397189209e-02,2.190097127452504400e-01
1.239917523723358811e-01,-1.669352235672493523e-01,-1.776363643308346771e-02,1.306016369731505256e-01,-1.063966596133200104e-01,-4.283120710330599046e-01,-9.982242949945195620e-02,2.053163754039319389e-01,8.842081075250513011e-02,3.314958247503823063e-01
1.632546083715540053e-01,-1.272203188731192147e-01,-2.677910688461781000e-02,-5.078725191161868879e-02,-9.546047709549833338e-02,-3.819791951024609222e-01,2.704690410918031852e-03,1.726998815407205512e-01,1.465955800908115003e-01,2.447265448401892973e-01
2.483507777725189047e-01,-9.528883216893770103e-02,-7.058539177503561635e-02,-7.457382036632947964e-02,-1.135844699204641706e-01,-3.434638552449312821e-01,5.051949013123477328e-02,9.692837894749356531e-02,2.392604413436090482e-01,1.142781307039416605e-01
2.901844090985926661e-01,-6.323417016464635831e-02,-8.814065789590989908e-02,-8.337202530816913149e-02,-1.574280011550102110e-01,-1.212864611843725710e-01,1.189449182433254815e-01,-3.366303128238662401e-02,2.143263838373592189e-01,-2.342502591322776634e-02
1.598038482002341887e-01,-4.338086057912891175e-02,-3.385702938578388083e-02,-4.748633611445795405e-02,-1.136702246153985241e-01,1.091552991370409453e-01,1.246573654572541608e-02,-4.691155121144126999e-02,1.294311840846431860e-01,-6.862760013386369484e-02
-3.301352334516600984e-02,-9.741283328572630795e-03,2.081952836065015244e-02,3.592546510624614921e-03,-4.403525080321873952e-02,2.173089775577595195e-01,-6.359932841899222644e-02,-9.820678329816855470e-03,2.388475156907120950e-02,-3.588946240527921688e-02
-1.549474260125894079e-02,-4.327013379672209684e-03,7.978184319518893258e-03,6.882751052170446235e-03,-1.852657525465175453e-03,6.313204017444504212e-02,-2.724427140110046927e-02,-2.474925488551355402e-03,2.358114889878732898e-02,-7.041533044974558793e-03
4.078291908142643064e-03,1.077335038122217417e-03,4.545485493354920435e-03,3.767661099889686206e-03,5.997111547934108958e-03,1.194810860920616363e-02,1.516303670472960666e-03,2.875345515242825039e-03,5.169416595625545008e-03,1.940883215110274012e-03
3.652946122112268445e-03,6.009106262819734895e-03,8.263678048539979323e-03,9.415275232681886639e-03,5.508893996816442706e-03,9.584646168732337615e-03,3.234243460107265149e-03,7.246583312531342837e-03,1.841300124602996519e-04,6.404753849245845530e-03
9.345946758748161463e-04,9.071750668349053137e-03,4.573721083234305942e-03,4.796213901415795865e-03,-4.242507588508154931e-03,-6.362155678973042483e-04,6.177735843534489391e-04,2.525087367711090908e-02,2.861857464012429811e-03,-4.585479416604809622e-03
-1.800635883714433311e-03,-4.049441586925414389e-04,3.064709418309016428e-03,3.034410936078171112e-03,-2.076543738401086941e-02,2.839719566808436221e-03,7.647990574850670881e-03,8.375992250036758124e-02,3.199103000920384011e-03,-4.017987846870722801e-02
-1.338874936026486322e-02,-1.818201162651015136e-04,-2.197999345052585249e-02,1.112432822876220292e-03,-4.404976401358298016e-02,-1.228983207614262052e-02,-7.831425900934779402e-03,1.749197905894216976e-01,1.023872144619116485e-02,-4.441996972985948894e-02
-6.858587403477135747e-02,3.288064949541327775e-03,-8.384217578776027857e-02,-3.158161189094161464e-02,-6.820525731647254786e-02,9.601780330908284145e-03,-3.804173909644642526e-02,2.119594078619996269e-01,1.746389176642288918e-02,9.428392651846051464e-02
-2.565771113103842288e-02,-2.349363024102707129e-02,-2.481422976880523767e-01,-1.522478944852608540e-01,-1.533192026789615033e-02,5.892571638573247672e-02,1.004679717728777788e-02,1.220040345949830324e-01,9.696826355757588722e-02,2.294909416208849584e-01
6.806067293141281060e-02,-3.203011995571638376e-02,-4.465202676630591339e-01,-2.625973270714176411e-01,8.198522192125379249e-02,1.639738036005530808e-01,9.227162106971786848e-02,3.233232081908266747e-02,1.013022758824471403e-01,2.614613763685822434e-01
6.543808766644017283e-02,-4.886260158164948408e-02,-5.265001558681425831e-01,-3.154045817901676152e-01,2.077555026552251882e-01,1.519956095718957567e-01,1.263431329070345832e-01,9.153449935839502727e-02,1.286408793150695951e-01,1.861167369447173370e-01
7.158910374139074856e-03,-9.667405183751202891e-02,-4.425007657665203098e-01,-2.873528166034189923e-01,2.757822512913564728e-01,1.135329342313639023e-01,9.992916450386268856e-02,1.143880689955910634e-01,7.007844069194223147e-02,1.805966730476013249e-01
-8.858637359333667791e-03,-1.439654968527762924e-01,-4.331544192781808245e-01,-1.430071492801681110e-01,2.668012141868682519e-01,4.663636801717565422e-02,1.149063942530609977e-01,3.191040196764227677e-02,1.017103155377963170e-01,2.232774252347456689e-01
2.782210342712377465e-02,-2.380241740290103547e-01,-4.511829804569801317e-01,-3.529904905117827590e-02,3.659722554835545538e-01,1.960131040652031698e-01,6.939352968880366235e-02,-4.126625406156593512e-02,-3.339776445648662967e-02,1.957651142617373441e-01
4.048258128788277677e-02,-3.034791929889636974e-01,-4.491563244625336182e-01,-4.679978496571540053e-02,4.685171174702041919e-01,3.324318244086871266e-01,1.398188664179670082e-01,-1.609144589645089829e-01,-3.362643055790850294e-02,5.753663224080924482e-02
4.317117400758563317e-02,-1.328812660506644705e-01,-4.687500432001422412e-01,5.672569539006099004e-02,3.694368345949207710e-01,3.763340696841939725e-01,1.607981823703324986e-01,-3.576617919224835407e-01,1.293343817660531914e-01,-1.280525792420625086e-01
-1.164794861264445841e-01,2.396923013779387046e-01,-4.368027713352118924e-01,1.453343977450030355e-01,-9.471895304847176289e-02,3.318058964325735216e-01,6.164820684455948885e-02,-4.130312884058556233e-01,3.273069395865513265e-01,4.752296537812298639e-03
-4.037016857426616867e-01,7.266985194505088952e-01,-3.586939520927434621e-01,2.621993327305074950e-01,-2.568004116421603866e-01,4.702855454715069994e-02,-1.882269685345098476e-01,-1.694839084581713784e-01,2.126815191477462175e-01,1.827147928340209782e-01
-5.205233241658336896e-01,5.293869599929932335e-01,-3.050036225274694313e-01,1.411021763383126515e-01,1.111721572211535475e-01,-1.331161800752370672e-01,-2.222603847532143850e-01,1.714109417812760272e-01,5.222336308265633498e-02,2.267575277078076323e-01
-4.788829443029638533e-01,1.148716127794900399e-01,-2.370713605125017720e-01,1.018235853588155548e-01,3.110760705151407457e-01,-2.888449661156620718e-01,-8.227093375787285223e-02,3.542542109124640626e-01,-8.141955701228281370e-03,2.639137175294447024e-01
-2.264775959146521911e-01,-7.476452636938131328e-03,-2.078523902793476541e-01,1.034024654854854425e-01,1.419235460494306100e-01,-2.637617083564766651e-01,-8.560549699247013700e-02,3.069366750407285238e-01,-4.420163927591518049e-02,3.239892080364484284e-01
-4.861989183694116756e-02,-9.130750810460153133e-02,-1.015567892571293818e-01,1.232642026648393674e-01,3.423103958353702903e-02,-2.412055037865494800e-01,-1.171860147934694618e-01,2.311151324493751491e-01,-3.195483695734954721e-02,2.998623376887386560e-01
2.768642571233292937e-02,-1.562677456365043904e-01,4.292819732265269750e-02,-3.469087052414812980e-03,3.807311421725285278e-02,-2.935123195565702003e-01,-1.403020426745911209e-01,7.978966953008440055e-02,9.290786164651165802e-02,3.523968550556480506e-01
3.694431605832297627e-02,-1.128243413624053088e-01,-1.155004957966592263e-02,-8.932849540735435245e-02,1.824761628328770355e-02,-3.776151059574076596e-01,-3.888743987916880307e-02,1.041651437019024268e-01,1.674983652412337098e-01,3.572308904051228473e-01
1.340450624335206287e-01,-6.693382103407546913e-02,-3.693349656448687707e-02,-1.988379318179945565e-01,2.472120345518760351e-02,-4.853167918111514489e-01,9.362126663721977160e-02,6.064584212576153155e-02,2.378801207457348355e-01,2.887052438119231956e-01
2.897449742274618156e-01,-5.479778530962058081e-02,-1.056615762289195015e-01,-1.532032346191239125e-01,-2.885083905516674929e-02,-5.177763454747877914e-01,2.146969168278780038e-01,4.676062251350546900e-02,2.151094612524614980e-01,1.469251867363790265e-01
3.216467302569329667e-01,-2.851656326032473224e-02,-1.439754375300270894e-01,-9.502675828470640018e-02,-8.568827833667937155e-02,-4.026641957058664234e-01,2.740932016513918379e-01,-2.003518523522365008e-02,2.004950624177061214e-01,2.876548214877837698e-02
2.153854852574346446e-01,-1.443155909380901963e-02,-3.785500593851731915e-03,-3.366476347396236968e-02,-4.179050046366394183e-02,-2.162585054167903420e-01,1.263531304258947996e-01,-2.861800997968396224e-02,1.233140838723367910e-01,-6.782370397285968078e-02
3.398044623448131900e-03,-1.663213872053375449e-03,5.911740625473205224e-02,4.538628109090889380e-03,-1.038999545294310919e-02,1.345133756819821662e-02,-3.091138757464806375e-02,7.843675845913148162e-03,3.075492175208672033e-02,-2.809315808488739921e-02
-7.362255536936360666e-03,-1.746322888870066765e-03,3.716092972670036187e-02,8.883300115788255943e-03,7.179552619451969172e-05,2.424155306073732391e-02,-3.163814924590126199e-02,8.256415020952851888e-03,1.000704868357502574e-02,-4.550758317561839038e-03
1.569601451340430854e-03,3.891574086483197848e-03,6.859950903128350826e-03,6.619645268087375606e-03,3.399477039311118304e-03,9.153753889880867495e-03,4.261375228397226884e-03,8.534500875520233121e-03,5.385738018198346633e-03,1.345666461191891887e-03
9.714987585115722815e-03,6.030442021081269983e-03,8.249217115872575085e-03,5.290810066628406742e-03,6.183623134959443865e-04,5.299294264517710219e-03,5.156662508568364079e-04,2.133236360858575820e-03,5.896929284567731765e-03,5.273492780915921621e-03
9.838008060576790628e-03,5.186974670852437415e-03,9.136558530424351496e-03,1.497461310057241011e-03,4.311138442727372073e-03,2.071286657295008660e-03,6.634573252055283275e-03,1.704429129522806036e-02,5.249050626494870635e-03,4.017088490794653438e-03
-1.048799282515550883e-03,2.847308475061417939e-03,3.347247011258825604e-04,1.735742688844801049e-03,-7.602488092077117759e-03,5.696830840923000454e-03,4.311694886826416585e-03,5.546062190651671747e-02,-1.200903884099822558e-03,-1.932797108146693324e-02
-5.834422713048527040e-03,5.917247722019616449e-03,-1.826465244031053384e-02,-5.468169560202161723e-03,-2.985286119869180743e-02,7.364851143653121900e-03,-1.091979536336109419e-02,1.143486253152487947e-01,4.258523071204007270e-03,-4.113605415354109826e-03
-4.372860315254136626e-02,9.266166954802630348e-03,-1.243211184306122208e-01,-4.807431927610216621e-02,-1.151273120812359475e-02,2.708385824409322712e-02,-3.624300802985822023e-02,1.438731877998701558e-01,-1.559427032100081309e-02,1.614257607337596934e-01
1.443357604144395422e-02,-1.444921690295251568e-02,-3.428764099377529240e-01,-1.387432674062912541e-01,9.028036048976875727e-02,8.712248284406992616e-02,4.443540286439061349e-02,8.676095047537475680e-02,-1.474154393107767781e-02,2.448922990657399212e-01
1.309372289553593915e-01,-2.544390408334979911e-02,-4.915837367988764028e-01,-2.354917610912199699e-01,2.274480320141475942e-01,9.510997647280511336e-02,1.459471153615985450e-01,2.824015483002713725e-02,-2.997031842996073989e-02,1.952084848174894249e-01
1.449010731507174021e-01,-6.097325631592449141e-02,-4.682623606247703907e-01,-2.723175942412788264e-01,2.990947920797690784e-01,1.471657737739271721e-01,1.054618798017966513e-01,1.990169059457180464e-02,-3.528939834372450679e-02,1.703460269799369209e-01
7.771721545458488978e-02,-7.203257706836924124e-02,-3.407370375564661713e-01,-1.867290200048400683e-01,2.921482624066947809e-01,9.397883447271405954e-02,1.086562615223282402e-01,-1.455719654533480824e-02,-5.882605740714441644e-02,1.585884237644045458e-01
6.764355313183850749e-02,-1.722837281749173277e-01,-2.721087493374859112e-01,-9.482779626412429774e-02,2.859263066144187015e-01,1.135042293640906585e-01,1.169446077921272309e-01,-7.007914297750199306e-02,-3.232575135535798588e-02,1.038798754285826242e-01
1.116875969533784735e-01,-3.528409432516995681e-01,-1.927035939957606192e-01,-1.152578292216630274e-01,4.081859468968997984e-01,2.637491592307044108e-01,1.410917858417257975e-01,-1.713047851093134621e-01,-1.198069804474124755e-01,8.365845609458895382e-02
9.568641541590176824e-02,-4.161616844316056163e-01,-1.198298598848524937e-01,-1.092263780647881044e-01,5.334336637072273346e-01,3.301216966528134344e-01,1.647459174514006863e-01,-4.205907573232894880e-01,3.066353267712685141e-02,-4.793759455512504319e-02
1.602180111767048318e-02,-1.869573725695977962e-01,-1.116675739262407568e-01,6.196432522622763450e-02,3.099640432584186422e-01,3.485568595413254811e-01,1.495972673746892023e-01,-6.565048415295681172e-01,2.157981985749019560e-01,-1.027530694369897662e-01
-2.749665071437113473e-01,3.182816459759866823e-01,-5.335579384329134506e-02,2.139270428713851424e-01,-6.562595286340755507e-02,2.220798764054268404e-01,-1.560509426437438688e-02,-6.705785413138855011e-01,2.862575107380117001e-01,7.730640450145964682e-02
-4.877939048510836484e-01,6.839026817493663035e-01,-9.590233717223405063e-02,1.767454491065945099e-01,-9.453857566396534073e-02,1.993831964976005081e-02,-1.103996216017203158e-01,-3.070909040173515070e-01,6.526387269524742962e-02,2.060914569991904866e-01
-5.670995697335883268e-01,4.488586944595863715e-01,-2.134058774123247793e-01,1.051572206022978635e-02,1.650930698002976982e-01,-2.186681975498613872e-01,1.699168473002510282e-02,2.501431308479755075e-02,1.543894035583395219e-01,2.312095311346901438e-01
-4.857261220729072182e-01,9.370400832372412225e-02,-2.049024596951362076e-01,7.782836280423842401e-02,2.797021668335206157e-01,-3.474204782389962443e-01,3.789024933885892787e-02,1.854798254173874450e-01,7.939432740752790096e-02,3.443952376463368381e-01
-2.473307316242784326e-01,-4.473168162438297818e-02,-1.251479299702083492e-01,9.840736318290917162e-02,2.861237393553940911e-01,-2.156410607836694027e-01,-6.723447535940042796e-02,1.474053138209856784e-01,-8.358362135127821169e-02,3.190232926118603540e-01
-8.157579410815089804e-02,-1.990829831560302632e-01,-8.381368869629307605e-02,8.853207346874224226e-02,1.839030669194234857e-01,-1.232441938959677602e-01,-1.109100278339894136e-01,1.180824100560438211e-01,-9.888246844968915858e-03,2.715771346348093140e-01
-6.379022886766268219e-02,-1.773837534632496382e-01,-4.529078801759351541e-02,-8.879014933188568437e-02,1.418376382488122367e-01,-9.122828942058591739e-02,-5.204332521790688837e-02,7.300618182553335334e-02,2.377708861110578234e-02,3.202878493995501841e-01
-7.450954810233750836e-02,-1.138897236958788667e-01,-4.958003368134848016e-02,-1.990649657138849615e-01,1.740758124562600540e-01,-1.318535886623227182e-01,-1.468040472648474322e-02,1.001525132326191725e-01,7.899216411106682600e-02,2.772318109466072045e-01
9.071835509377929041e-02,-7.652986234124922738e-02,-5.787647376985081277e-02,-2.012719695359231065e-01,1.079392342863867149e-01,-2.516080663563843856e-01,1.467576385154118479e-01,6.028638039504657237e-02,1.839760355201946682e-02,2.096797376513640787e-01
2.588507840090170098e-01,-4.928652783989142389e-02,-1.078355751086071262e-01,-1.789852733331201151e-01,4.404524595060339137e-02,-3.128274298043254853e-01,2.747749987368571789e-01,4.011131454525184575e-02,4.279188020564624745e-02,4.658438538439849813e-02
3.178445244905537259e-01,-3.973389013649659962e-02,-9.006530968965061057e-02,-9.906108484474761278e-02,-3.333459304508089999e-02,-3.203021155823661537e-01,3.559137425209953909e-01,9.323310229126927084e-03,3.445756898628129367e-02,-8.526716813945732498e-02
2.042075799046115525e-01,-2.803766639321149043e-02,4.845267421624718102e-02,-3.692281020826635590e-02,-4.547702542630647354e-02,-2.017352346334050084e-01,1.912520157104249663e-01,7.284458120202979246e-03,1.499126047097160130e-02,-1.063275559675386783e-01
2.016719562787282899e-02,-9.373626432785367793e-03,1.161156130102706519e-01,-2.491831885436005889e-04,1.769853708781854874e-03,-2.642552244368619879e-02,-2.819403787650169926e-02,1.101492674858002216e-02,3.474249345883877096e-03,-4.050215311461367873e-02
-2.414608630477894935e-04,2.590412345813644917e-03,6.998424624166481312e-02,7.041448972698024838e-04,-5.037583275294846806e-03,3.664289407150458683e-04,-3.314028289027869112e-02,6.383038008168917532e-03,2.719824234386283412e-03,-7.174839438389324538e-03
4.599261659609799394e-03,8.154139160279903417e-03,1.984957952979870058e-02,8.824621873082957868e-03,-1.897016487243680582e-03,6.556382949921299962e-03,8.414073017589886357e-04,1.773609557984224790e-03,1.984352012466222923e-03,6.021431096867239756e-03
3.423208492821538419e-03,2.455800262520045803e-03,4.973904748441844437e-03,-3.832085710227726397e-04,8.242372345751440912e-03,1.061126212972294570e-02,1.503030333636155630e-03,2.278100656225231623e-03,4.893622613355593995e-03,4.001355359128733538e-03
5.268369522738802074e-03,2.114290870651022638e-03,7.659443593644980550e-03,6.081984872641465513e-03,4.999137067356916771e-03,8.283135920931923232e-03,5.257139917932077654e-03,9.110366983840614830e-03,3.225136088265720229e-03,6.678775543173335813e-03
